{"params": {"Dense_0": {"bias": [-0.027603864669799805, 0.014596528373658657, 0.012696431018412113, -0.08295955508947372, -0.018905894830822945, 0.07705577462911606, -0.05798729881644249, 0.2041568160057068, -0.0001445429224986583, -0.05010402202606201, 0.02744484134018421, 0.03878249228000641, 0.04158107191324234, -0.0594763457775116, -0.025810405611991882, -0.05989482253789902, 0.0022775547113269567, 0.07293669879436493, -0.10076938569545746, -0.10914366692304611, -0.018735941499471664, -0.04127210006117821, 0.04005710408091545, -0.08121366053819656, -0.06322359293699265, -0.08510417491197586, 0.11185909807682037, 0.026882966980338097, -0.0611695721745491, 0.019635142758488655, 0.01988271437585354, 0.0758250430226326, 0.04968372359871864, 0.004790052305907011, 0.0453985333442688, 0.009966319426894188, 0.08131483942270279, -0.03865983709692955, -0.027215097099542618, -0.05080283060669899, -0.0012190028792247176, 0.031190376728773117, 0.012491806410253048, 0.0776500478386879, -0.004713218659162521, -0.04910751059651375, 0.10073389858007431, 0.004986056592315435, 0.04452475160360336, -0.011510825715959072, 0.042835745960474014, -0.08522717654705048, 0.004080808721482754, -0.08033670485019684, -0.0803794339299202, 0.00015539060404989868, -0.08715503662824631, -0.026572210714221, -0.0009092396940104663, 0.045015331357717514, -0.03071562573313713, -0.05636736378073692, -0.09013381600379944, -0.03077899105846882, -0.001527097076177597, 0.007378678768873215, 0.07081560045480728, -0.06339213997125626, -0.0033714561723172665, -0.061695367097854614, -0.07519663870334625, -0.0864812433719635, -0.06452339887619019, 0.028042355552315712, -0.03614458069205284, -0.0024450193159282207, 0.04347481206059456, 0.020753774791955948, -0.07823847979307175, -0.03562559932470322, 0.051010407507419586, 0.007159776985645294, 0.10501090437173843, 0.00797474104911089, -0.028986314311623573, -0.04932564124464989, 0.08717235922813416, -0.06958769261837006, 0.05323824658989906, -0.030861061066389084, 0.010363484732806683, -0.03737368807196617, -0.0643436387181282, -0.021855128929018974, -0.06056978926062584, 0.01204528845846653, -0.03861568123102188, -0.042460087686777115, -0.01841684617102146, -0.037757448852062225, 0.05678451806306839, -0.02145448327064514, -0.05401931703090668, -0.025856375694274902, -0.024636393412947655, 0.006002399604767561, -0.0010730137582868338, 0.030722524970769882, 0.023382654413580894, -0.025755424052476883, 0.035920292139053345, 0.007350945845246315, -0.0850120261311531, -0.057354602962732315, 0.08273687213659286, -0.015681805089116096, 0.0930575355887413, -0.05623956024646759, -0.04672425612807274, 0.03693259507417679, 0.06452649086713791, -0.055316243320703506, -0.01759142056107521, -0.07308913767337799, 0.04817524179816246, 0.05829412862658501, -0.04447869583964348, -0.08993130177259445, 0.0331418514251709, -0.0054816571064293385, -0.060021646320819855, 0.05806572735309601, -0.010802678763866425, 0.05167029798030853, -0.03702716529369354, -0.08822675049304962, -0.09013226628303528, -0.010401852428913116, -0.0838785246014595, 0.00774230295792222, -0.09087269008159637, 0.07669180631637573, -0.039368703961372375, 0.021390609443187714, -0.06028381735086441, 0.18160192668437958, 0.012174513190984726, -0.04215472936630249, 0.0620422288775444, -0.03094537742435932, 0.03277517855167389, -0.023272424936294556, -0.01076493225991726, -0.03861409053206444, -0.010403989814221859, -0.03170093521475792, -0.09809006750583649, -0.011596781201660633, 0.03282155469059944, 0.20159552991390228, -0.06321138888597488, 0.016692034900188446, -0.07249516993761063, -0.04142284020781517, 0.06490747630596161, -0.029117919504642487, -0.011669539846479893, 0.038580045104026794, 0.056177735328674316, 0.03673718124628067, -0.027610326185822487, -0.07506746798753738, 0.0517326258122921, 0.012523185461759567, -0.027869701385498047, -0.0015220842324197292, -0.04918649420142174, 0.0713747963309288, 0.035420358180999756, -0.03809763491153717, 0.024504810571670532, -0.013650027103722095, 0.05983004346489906, -0.09011902660131454, 0.08864651620388031, 0.014541931450366974, -0.07975964993238449, 0.0688152089715004, -0.024392904713749886, 0.03939629718661308, -0.0822700709104538, 0.07255791872739792, -0.028184227645397186, -0.07868234068155289, -0.08053425699472427, 0.0892748236656189, 0.06385132670402527, 0.04096696153283119, -0.046970292925834656, -0.020759616047143936, 0.08278436213731766, -0.09964178502559662, -0.058253876864910126, -0.010807261802256107, 0.04331659898161888, 0.043784890323877335, 0.09904728829860687, 0.059674497693777084, 0.015607952140271664, -0.041432347148656845, -0.07922907173633575, -0.020287375897169113, 0.08086171746253967, -0.04794705659151077, -0.03875330090522766, 0.011576198972761631, 0.05172509700059891, -0.0024449804332107306, -0.024924088269472122, 0.028837459161877632, 0.031963247805833817, -0.06395415961742401, 0.022238805890083313, 0.0417931042611599, -0.03531938046216965, 0.014114492572844028, -0.05689213052392006, 0.06990675628185272, 0.060492340475320816, -0.04611136019229889, 0.0652122050523758, 0.02296416647732258, 0.022693512961268425, 0.05571717396378517, -0.06664103269577026, -0.05130008980631828, -0.0511285737156868, 0.007928570732474327, 0.08225117623806, -0.011380593292415142, -0.0603812001645565, -0.09574975073337555, -0.03377348184585571, 0.010199928656220436, 0.005947817582637072, -0.07648932188749313, -0.06980191916227341, 0.05100471153855324, -0.06680717319250107, -0.055526334792375565, 0.0578487403690815, 0.016909068450331688, -0.05086805671453476, -0.08574122935533524, 0.030501769855618477, 0.03136171028017998, -0.010191625915467739, 0.024715758860111237, 0.22031956911087036, -0.02262965403497219, -0.009024789556860924, 0.031069908291101456, 0.02232644520699978, -0.1053178608417511, 0.022150306031107903, 0.05018238350749016, 0.019174261018633842, 0.07759072631597519, -0.038831546902656555, -0.09068872779607773, -0.047618310898542404, -0.04226367548108101, 0.07027008384466171, -0.05693062022328377, -0.01744568534195423, -0.08411169052124023, -0.07040829956531525, -0.020959073677659035, -0.03436969220638275, 0.05612563714385033, 0.07710674405097961, -0.05182028189301491, -0.07468554377555847, -0.004177512135356665, -0.05320454016327858, 0.04221038147807121, 0.007283642888069153, -0.014347046613693237, 0.02137085050344467, -0.031887464225292206, 0.04191874712705612, -0.029198579490184784, -0.070969358086586, 0.05201871693134308, 0.04618574678897858, 0.08324775099754333, -0.03555219992995262, -0.03467174619436264, -0.06593258678913116, 0.034771837294101715, -0.007764786947518587, 0.0014439438236877322, -0.08435580134391785, 0.0714697390794754, 0.058591168373823166, -0.08740809559822083, 0.06322909891605377, -0.020534291863441467, -0.07440655678510666, -0.08944863080978394, 0.009375805035233498, -0.04571140930056572, 0.021971363574266434, 0.023804064840078354, 0.03180466592311859, 0.02422344498336315, -0.05183124542236328, 0.037922535091638565, 0.015025859698653221, -0.08669757097959518, -0.032936595380306244, 0.04498029127717018, 0.09290746599435806, -0.0630592405796051, -0.05844440683722496, 0.06973887979984283, -0.07650254666805267, 0.024530913680791855, -0.030718602240085602, 0.0011737830936908722, -0.011524766683578491, 0.017036186531186104, 0.07598971575498581, -0.024672186002135277, 0.004220112226903439, 0.014563615433871746, 0.05959701910614967, 0.061376553028821945, 0.04593099653720856, 0.06076674163341522, -0.025924719870090485, 0.08436242491006851, -0.08088625967502594, 0.08691050112247467, 0.014874712564051151, -0.001015047775581479, 0.01727377437055111, 0.04270484670996666, 0.012519033625721931, 0.03700382262468338, -0.016650758683681488, -0.0608905628323555, -0.038432031869888306, -0.03624743968248367, 0.0687967911362648, 0.07395285367965698, 0.19900719821453094, -0.07716310769319534, -0.07894742488861084, 0.02665574662387371, -0.001078339060768485, 0.0009879262652248144, 0.008544469252228737, -0.023701567202806473, -0.06554964184761047, -0.04171242564916611, 0.018648698925971985, -0.07206424325704575, -0.0804908275604248, -0.045826129615306854, -0.10647764801979065, 0.05005401372909546, 0.05802809074521065, -0.07007523626089096, 0.05137534439563751, 0.022564422339200974, -0.034793976694345474, -0.09504255652427673, 0.052714306861162186, -0.04944285750389099, -0.03116023726761341, -0.052561573684215546, 0.07111068069934845, -0.043290622532367706, 0.031051522120833397, -0.05682283267378807, 0.025960972532629967, 0.021644506603479385, -0.028222350403666496, -0.052619386464357376, -0.06564977020025253, 0.1272779256105423, -0.0846661776304245, -0.07561948895454407, 0.03128502890467644, 0.09448876976966858, -0.044766515493392944, -0.013735017739236355, -0.06403715908527374, 0.10271387547254562], "kernel": [[-0.9161676168441772, 0.12578651309013367, -1.3202877044677734, -0.2419554591178894, 0.931803286075592, 1.0443313121795654, -0.050576865673065186, 0.022576814517378807, 0.4241437613964081, 0.3238036632537842, 1.2975167036056519, -0.5520033240318298, -0.4070582687854767, 0.27798423171043396, -0.14456208050251007, 0.22808818519115448, -0.19756728410720825, -0.7086601853370667, -0.3494444787502289, -0.8571706414222717, 0.3506975769996643, -1.5596567392349243, 0.3506128191947937, 1.5713227987289429, -1.0958226919174194, 0.09729139506816864, 0.21703629195690155, 0.3005332052707672, 0.13697026669979095, -1.0607229471206665, -0.9235067963600159, 0.4341522753238678, -1.2854881286621094, -0.9991980791091919, -0.9786149263381958, 0.4382527768611908, -0.2415161430835724, -0.5636704564094543, 0.09641483426094055, -0.13574552536010742, -0.30680254101753235, -0.4243524968624115, 1.390731930732727, 0.12621495127677917, -1.1469906568527222, 0.48887261748313904, -0.9852745532989502, -0.2753317952156067, 0.33585217595100403, -0.31147125363349915, 0.16230620443820953, -0.4941595792770386, 0.692087709903717, 0.8026630282402039, 0.021401146426796913, 0.22641505300998688, -0.3358696699142456, 1.488869309425354, -1.275797963142395, -0.6259265542030334, -0.8260312676429749, 0.6573280692100525, 0.31389808654785156, 0.2977653741836548, 0.0688568651676178, -0.24085736274719238, 0.08549892902374268, 0.36077794432640076, -1.206773281097412, 0.30126306414604187, 0.3584834933280945, -0.8342528939247131, 0.07357340306043625, 0.019283298403024673, -1.4251495599746704, 0.08774539828300476, -0.5710321664810181, 0.7482461333274841, 0.6921334862709045, 0.05948641896247864, 0.7672932744026184, 0.41181835532188416, 0.5976839661598206, -0.6905797719955444, 1.225586175918579, -0.2613292634487152, 1.441678762435913, 0.6017559766769409, 0.7376556396484375, -1.2293801307678223, 0.15715187788009644, 1.0016580820083618, -0.06741566210985184, -0.5053137540817261, -1.2353662252426147, -0.5490962266921997, -0.09349668025970459, -0.695244550704956, 0.6623247861862183, -0.7514153122901917, 0.18856346607208252, 0.7364400029182434, -0.3042154908180237, -0.31030094623565674, -0.5543704628944397, 0.4124378263950348, 0.183689147233963, -0.8828005790710449, -1.355337381362915, -0.590657114982605, 0.31705135107040405, -0.2471866011619568, -0.9840767979621887, -0.44442427158355713, 0.6714853048324585, 0.09027881175279617, 0.24447046220302582, -0.1717943251132965, -0.7120000720024109, -0.1804940402507782, 0.6517406105995178, 0.9469015598297119, -0.3612106740474701, -0.07036503404378891, 1.1370899677276611, 0.13557599484920502, 1.1606427431106567, 0.2023196518421173, 0.6875573396682739, 0.037940360605716705, 0.40870219469070435, 0.04141102731227875, 0.5231824517250061, -0.8507979512214661, 0.19779840111732483, -0.35493722558021545, -0.6155065298080444, 0.2537688612937927, 0.8948154449462891, -0.4793654978275299, -0.6874215006828308, 0.32468464970588684, 0.1204589307308197, 1.4386295080184937, 0.4243907034397125, 0.15746505558490753, 0.1805698722600937, -0.07280809432268143, 0.5633215308189392, -0.2547054588794708, -1.1660854816436768, 0.10383201390504837, 0.2207927405834198, -1.2917424440383911, -0.4827292561531067, -0.5857883095741272, -0.25557857751846313, 0.21360023319721222, -0.7244599461555481, 0.0580439530313015, -0.6425914168357849, -1.4988510608673096, -0.21992340683937073, -0.11648482829332352, 1.1417115926742554, 0.7549741864204407, -0.04926002025604248, -0.2791033685207367, 0.3242535889148712, -1.0175409317016602, -0.6896595358848572, -0.8394291400909424, -0.3943066895008087, 0.7752851247787476, -0.7109594345092773, 0.3030351996421814, 0.5907047390937805, -0.5448442101478577, -1.027069091796875, -0.030626023188233376, 0.20383380353450775, -0.2601813077926636, -0.07052811235189438, 0.7341265678405762, -0.5198276042938232, -1.4284913539886475, 1.0401667356491089, 0.4071902334690094, -0.23169977962970734, 0.19406767189502716, 0.5076065063476562, -0.01674380525946617, -0.36887842416763306, 0.6473460793495178, 0.2592732608318329, 1.158385157585144, 0.8771300911903381, 1.3391185998916626, -0.37153762578964233, 0.16901223361492157, -0.41037145256996155, 0.3823796510696411, 1.068205714225769, 0.7279824018478394, 0.10155688226222992, -0.33028659224510193, 0.8318030834197998, -0.4946068525314331, -0.5601545572280884, 1.5004363059997559, -0.1904425024986267, 0.31415390968322754, -1.5742119550704956, -1.3801980018615723, 0.5886430144309998, -0.796593964099884, -0.6879945397377014, 1.0770971775054932, 1.2526239156723022, 0.24604789912700653, 1.2996258735656738, -0.007365008816123009, -0.35821816325187683, 0.8798404932022095, -0.07766594737768173, -0.5349470973014832, -0.3181108832359314, -0.962184727191925, -0.2478281855583191, 0.08525626361370087, -0.48942315578460693, 0.04278913885354996, -0.281279057264328, -0.22808890044689178, -0.08212132751941681, -0.17908421158790588, -0.3643341362476349, -0.5242744088172913, -0.9701211452484131, -0.48182010650634766, 0.6595767736434937, -0.3339218497276306, 0.42026564478874207, 0.1377679854631424, 1.0784940719604492, 0.17895054817199707, 0.1204669252038002, -0.5750341415405273, -0.9683620929718018, 0.6744285821914673, -0.22384977340698242, -0.8920235633850098, -0.9350316524505615, 0.1667400449514389, -0.8595359325408936, 0.3493711054325104, -0.8860916495323181, -0.04403163865208626, 0.09598517417907715, -0.8861878514289856, -0.06190095469355583, -0.6052719950675964, 0.1443483978509903, 0.6137977242469788, 0.5864699482917786, -1.2668300867080688, 0.3979145288467407, 1.0772573947906494, -0.3460961580276489, -1.055327296257019, 0.3123493492603302, 0.3302890360355377, 0.3837040364742279, 0.8162750005722046, -0.25508326292037964, 1.3478758335113525, 0.5411858558654785, -0.40273138880729675, 0.5364197492599487, 0.7403024435043335, 0.8689770698547363, 0.18691883981227875, -1.513983130455017, -0.697575032711029, -0.7685821056365967, 0.317937970161438, 0.1735125184059143, 0.05226569622755051, -0.26440030336380005, 0.4081888794898987, -0.29564565420150757, -0.2425788938999176, 0.36113646626472473, -0.9938127398490906, 0.34811025857925415, -0.031765975058078766, -0.49671798944473267, 0.37497982382774353, -0.8622853755950928, 0.7735006213188171, -0.6585978865623474, -0.3915606737136841, 0.1733275204896927, -0.35187777876853943, -0.26125770807266235, 0.21406030654907227, 0.9808263182640076, -0.4435599446296692, 0.7351323366165161, 0.7495651841163635, 0.29399964213371277, 0.15979088842868805, 0.5217224955558777, 0.8397842645645142, -0.35566434264183044, -0.08029185980558395, -0.8457528352737427, 0.14008332788944244, -0.7739921808242798, 0.3056475818157196, -0.9832565188407898, 0.3988528549671173, 0.8927070498466492, 0.7528287768363953, -0.7175692319869995, -0.32995250821113586, 0.8672616481781006, 0.6592864990234375, -0.21664996445178986, 0.09013336151838303, -0.3316098749637604, -1.1254836320877075, 0.04194756969809532, -0.7344047427177429, -1.0789679288864136, -1.0000574588775635, -1.4437817335128784, -0.44845688343048096, -0.38747599720954895, -0.5126031041145325, 0.5959889888763428, -0.46485215425491333, -0.3781238794326782, -0.26134151220321655, 0.3422492742538452, -0.24098245799541473, -1.2551313638687134, -1.0017485618591309, -1.4342190027236938, -1.5643129348754883, 0.25798213481903076, 1.0806093215942383, -0.4798114001750946, -1.138082504272461, -1.1344859600067139, 1.1194976568222046, 0.015996666625142097, -1.3003101348876953, -0.21887439489364624, -0.08248456567525864, 0.44330447912216187, 0.13713596761226654, -0.43619367480278015, -0.7375112771987915, -0.10944581776857376, -0.7670976519584656, 0.3692590892314911, 0.9388261437416077, 0.03499480336904526, -0.5518225431442261, -0.1698034107685089, 0.12974657118320465, -0.8442469239234924, -0.2164301574230194, 1.009019136428833, -0.13049480319023132, -0.1161709800362587, -0.47106343507766724, -0.03758891299366951, -0.005588003899902105, 0.06879366189241409, 0.8965648412704468, 0.9491220116615295, 0.07427175343036652, 0.6688753962516785, -0.9304769039154053, 1.4214507341384888, -0.40921708941459656, -0.2815307080745697, -0.5420449376106262, 0.19347557425498962, -0.25183191895484924, -0.5364962220191956, 0.2059663087129593, -1.1499158143997192, -0.44017770886421204, -1.3142684698104858, 0.24917471408843994, -0.2774141728878021, -1.3526219129562378], [0.4547082483768463, 0.40135717391967773, -0.044742073863744736, -0.9036833047866821, 0.5131434798240662, -0.3363112807273865, 0.27973538637161255, -0.004065696615725756, 0.5495827198028564, 0.5644675493240356, 0.22041943669319153, -1.1057935953140259, 0.8910359144210815, -0.13007380068302155, -0.3093148469924927, -0.060442566871643066, 0.15424534678459167, -1.0263620615005493, 0.7170759439468384, -0.6508404016494751, 0.8043468594551086, 0.39900270104408264, -0.4053679406642914, -0.025810902938246727, -0.7111099362373352, 0.42140117287635803, 0.2244643270969391, 0.43422508239746094, 0.820072591304779, 0.09939276427030563, 0.605156660079956, -0.4110035300254822, 0.8367756009101868, 0.6104735732078552, 0.5242903828620911, -0.4998543858528137, 0.3122789263725281, -0.7052499651908875, -1.104414701461792, 0.19728538393974304, 0.19015169143676758, 0.48180150985717773, -0.8616239428520203, -0.766345202922821, -0.5387963652610779, 1.5054574012756348, 0.8564830422401428, -0.714583158493042, -0.1087871640920639, -0.67144775390625, -0.1426691710948944, -0.04097653180360794, 0.2446579784154892, 0.35437169671058655, -0.5075945854187012, 0.7335235476493835, -0.31258898973464966, 0.5139408707618713, 0.03399905562400818, 0.8662617206573486, -0.21178200840950012, -0.8627018332481384, -0.05865973234176636, -0.42713871598243713, 0.3013012409210205, 0.11864225566387177, 0.2911011576652527, -1.3370680809020996, 0.5445924401283264, -0.1741996556520462, -0.18588010966777802, -0.21969686448574066, -0.6689697504043579, 0.1764417141675949, -1.0934392213821411, 0.03318116068840027, 1.1411975622177124, 0.8171558380126953, -0.45471635460853577, -0.14544694125652313, 0.6826152801513672, -0.5659566521644592, -0.32581859827041626, 0.06271622329950333, 1.0169380903244019, 0.9060096144676208, -0.5445638298988342, -1.5682873725891113, -0.058506496250629425, -1.487416386604309, -1.3677868843078613, 0.5919172167778015, 0.12010825425386429, 0.36246487498283386, 0.4938463568687439, 0.953311562538147, -0.15760661661624908, -0.48444750905036926, -0.4807283580303192, -0.42546728253364563, -0.7423843741416931, -1.0916261672973633, 0.7150532603263855, 0.4169597923755646, 0.05731305852532387, -1.1541305780410767, 1.1400485038757324, -0.20847539603710175, -0.8013381361961365, -0.25089919567108154, 0.25444722175598145, 0.613497793674469, 1.153355598449707, -0.742728590965271, 0.767115592956543, -0.059666406363248825, 0.543643057346344, -0.2840213179588318, -0.27914875745773315, -0.7627813816070557, -0.7935860753059387, -1.04755699634552, 1.027469515800476, -0.2769196033477783, 1.11436927318573, 0.455631822347641, -0.5203763842582703, 0.9002401232719421, -0.014321059919893742, -1.224751353263855, 0.5303567051887512, 1.0012857913970947, -0.22921209037303925, -0.11764587461948395, -0.9482407569885254, 0.9661549925804138, 0.37497052550315857, -0.9595865607261658, 0.909265398979187, -0.3583364486694336, 0.7656993269920349, -0.5001187324523926, 0.8856005072593689, 1.3922579288482666, -0.9733620882034302, -0.2424859255552292, -0.9364969730377197, 0.6404300332069397, -0.197890967130661, 0.742919921875, 0.6558513045310974, -0.24168388545513153, -0.0005312222638167441, -1.1209344863891602, -0.4305375814437866, -0.2523326277732849, -1.1268866062164307, 0.565846860408783, 0.4711986780166626, -0.060657989233732224, -0.17872785031795502, 0.7244195342063904, 0.33481931686401367, -0.684251606464386, -0.4776936173439026, 0.9372170567512512, 0.4158429801464081, -0.9336838126182556, 0.6882316470146179, 0.0023661546874791384, 1.142669677734375, 0.8354194760322571, -0.10191410034894943, 0.4367288053035736, 1.296576738357544, -0.7108637690544128, -0.6379129886627197, 0.8421361446380615, 0.6197935938835144, 0.29444605112075806, -0.972092866897583, -1.1957156658172607, -0.31227755546569824, -0.029591389000415802, -1.182289719581604, -0.15642443299293518, -0.08289419859647751, -0.6676303744316101, 0.6230073571205139, -0.020618874579668045, 0.38252323865890503, 0.4777139723300934, 0.35278815031051636, -0.31403613090515137, -0.975885272026062, 0.5369725823402405, -0.32284244894981384, -0.28080493211746216, 0.0005887383013032377, -0.07428567856550217, -0.44123008847236633, -1.18108069896698, -0.012777553871273994, -0.4858265519142151, -0.8135979771614075, 0.6153850555419922, 0.7041231989860535, 1.2113275527954102, -0.25255194306373596, -0.06940745562314987, -0.7593043446540833, 0.010783393867313862, -0.8475257754325867, 1.4159610271453857, 0.08687333762645721, 0.3071736693382263, -0.8062869906425476, -0.0643702819943428, -1.594954490661621, 1.4011242389678955, -0.6391767859458923, -0.277484655380249, 0.20651258528232574, -0.7276493310928345, 0.6615449786186218, 0.6268365979194641, 0.4867576062679291, -0.6012867093086243, 0.2340073138475418, -0.829484760761261, 0.3520348072052002, 0.8202927112579346, 0.9687455296516418, -1.1852205991744995, -0.8854685425758362, -0.3928462564945221, 0.2154625803232193, 0.4867611825466156, -0.2873799800872803, 0.8406341671943665, 0.3792962431907654, -0.14407378435134888, 0.5520087480545044, 0.42739740014076233, -0.6667369604110718, -0.08899808675050735, 0.5232401490211487, 0.559653639793396, 0.35202330350875854, 1.2629543542861938, -0.9475881457328796, -0.717560350894928, -0.534755527973175, -1.3461289405822754, -0.3557628393173218, -0.7454540133476257, -1.0350995063781738, -0.8259547352790833, 0.0155321154743433, -0.5452562570571899, 0.7873424887657166, 0.42533358931541443, -0.39204880595207214, 0.0006706932908855379, -0.45788952708244324, 0.8841452598571777, 1.3310679197311401, -0.7456343770027161, -1.1495317220687866, -0.8385387659072876, 0.78896564245224, -0.5522159337997437, 1.2612701654434204, -0.8039506673812866, -0.009060148149728775, 0.7858819365501404, -0.47804465889930725, 0.458739310503006, 0.31045112013816833, -1.3085896968841553, 0.4327665865421295, 1.031180500984192, -0.353103369474411, 0.4537028968334198, -0.12095484882593155, 0.42790648341178894, -0.32354167103767395, -0.6326978802680969, -0.7059546113014221, 0.4304220378398895, -0.7982640862464905, 0.03546792268753052, 0.44546830654144287, -0.30074819922447205, -0.6375396847724915, -0.6097222566604614, -0.9657143354415894, -0.89536052942276, 0.35536348819732666, 0.2522473931312561, -1.3114413022994995, -0.20982438325881958, -0.07229803502559662, -0.3084123134613037, -0.36551129817962646, -1.5572978258132935, -1.013731598854065, -0.05439523234963417, 0.2436302751302719, -0.025605252012610435, 0.4557502269744873, 0.8557206988334656, -0.7050771117210388, 0.02351887710392475, -0.28635701537132263, -0.6694504618644714, 0.668719470500946, 0.5897428393363953, 0.07904668152332306, 0.19049963355064392, 0.670133650302887, 0.4004584848880768, -0.9422354698181152, 0.4876123070716858, -0.17621037364006042, -0.11472003161907196, 0.14901888370513916, 0.7542993426322937, 0.1594826877117157, -0.459610253572464, -0.20081095397472382, 0.21879087388515472, -0.9464084506034851, -0.13713471591472626, -0.43687015771865845, 0.6052581667900085, 0.21234706044197083, 0.3521670699119568, 0.8699597716331482, 0.5851185321807861, 1.3575681447982788, -0.8808761835098267, -0.22006861865520477, -0.37148338556289673, 0.889690637588501, -0.10862059891223907, -0.6555567383766174, -0.8883352875709534, 0.2848803699016571, 0.305835098028183, -0.49848952889442444, 1.2355427742004395, -0.1401887834072113, 0.2804687023162842, 0.9490935206413269, 0.6792299747467041, -0.04453875124454498, 1.537308931350708, -0.13159418106079102, -0.24763968586921692, 0.11165371537208557, -0.3982328176498413, -0.4640188217163086, -1.2761567831039429, 0.3256857693195343, -0.042595624923706055, -0.368170827627182, 0.049242645502090454, 0.9805444478988647, -0.06350777298212051, 0.5728745460510254, -0.24235472083091736, -0.2040872573852539, 0.9002503156661987, -1.5607718229293823, 0.2725111246109009, 1.1600983142852783, -0.20043854415416718, -0.2382567822933197, -0.07080481201410294, -0.32064318656921387, 0.10258181393146515, 0.28475403785705566, -0.29375720024108887, -0.24719499051570892, -0.1965508908033371, 0.5357176661491394, -1.291597843170166, -1.0276440382003784, 0.18194596469402313, -0.8581780791282654, -0.3056442439556122, -0.07401011139154434, 1.2736703157424927, -1.2908674478530884, 1.1021939516067505, -0.4606287181377411, 1.3462680578231812, -0.20516376197338104, -0.6500294804573059]]}, "Dense_1": {"bias": [0.08467590063810349, -0.01071877870708704, 0.08446937799453735, -0.005528055131435394, -0.006828101817518473, -0.004702544771134853, -0.00779920257627964, -0.005592658184468746, 0.011755743063986301, -0.08662530034780502, 0.05074179172515869, -0.017127925530076027, 0.20138175785541534, 0.10686665028333664, -0.008926523849368095, -0.014216217212378979, 0.0, 0.05509282648563385, -0.0113469073548913, 0.0, 0.02613590657711029, -0.007147294003516436, -0.00832163356244564, -0.0007354968693107367, 0.1637372076511383, 0.05558360740542412, 0.07188913971185684, -0.008087662048637867, -0.033339306712150574, 0.14304842054843903, -0.03940010070800781, -0.010819431394338608, -0.03997093439102173, -0.032401520758867264, 0.017895404249429703, 0.13117417693138123, 0.05059949681162834, -0.01105950865894556, 0.08294818550348282, 0.0076323929242789745, 0.02518380433320999, 0.0, -0.0014493399066850543, -0.0002588784846011549, -0.006005424540489912, -0.026773769408464432, -0.00246148812584579, -0.006004477851092815, -0.0020013523753732443, -0.057657480239868164, -0.0016597382491454482, 0.11381366103887558, -0.007145618088543415, -0.0057401410304009914, -0.0040077343583106995, 0.0706232413649559, -0.01103144884109497, -0.06201930344104767, 0.05458326265215874, 0.08581266552209854, -0.0004612984776031226, 0.11770813167095184, -0.011033452115952969, 0.09418746829032898, -0.008478613570332527, -0.01418559905141592, -0.006251610349863768, -0.009082195349037647, 0.0394153967499733, -0.07197465747594833, 0.003725660964846611, -0.029835645109415054, 0.024226251989603043, -0.030491726472973824, 0.019822146743535995, -0.006711228750646114, -0.02505991794168949, 0.07015125453472137, 0.0, -0.045737866312265396, 0.08581025153398514, -0.03164884075522423, -0.006005268078297377, -0.006005361210554838, -0.004079199396073818, 0.011802327819168568, -0.007202956359833479, -0.09119723737239838, -0.028479233384132385, -0.0009894093964248896, -0.001049370039254427, -0.01648159883916378, -0.0071285744197666645, -0.026039427146315575, 0.05924579128623009, -0.011718708090484142, -0.021089917048811913, -0.008679402060806751, -0.010067922994494438, -0.0040240418165922165, 0.004707681946456432, -0.05336600914597511, -0.01629190519452095, -0.007603449281305075, -0.03402939438819885, -0.02143820933997631, -0.014273127540946007, -0.03030918538570404, -0.010047460906207561, -0.0016583974938839674, 0.03720611706376076, 0.07635566592216492, 0.08385109156370163, -0.0037024319171905518, -0.07872700691223145, -0.011951676569879055, 0.04540266469120979, 0.006923493929207325, -0.04589303955435753, 0.045495178550481796, -0.0027536305133253336, 0.002474906388670206, -0.01669992320239544, -0.005036437883973122, -0.030395571142435074, 0.009923707693815231, -0.008398983627557755, 0.05295417085289955, -0.06502063572406769, -0.006005387753248215, -0.025652078911662102, -0.004795372486114502, -0.010240331292152405, -0.007146092597395182, 0.0044739204458892345, 0.018961340188980103, -0.02481258288025856, -0.013179306872189045, 0.0, -0.006028007250279188, -0.006535855121910572, -0.006285648327320814, 0.0884852483868599, -0.006005438510328531, -0.009221481159329414, -0.004346875939518213, 0.0064847092144191265, -0.11376897990703583, 0.005434870719909668, -0.008070316165685654, -0.07414733618497849, 0.056299466639757156, 0.07220253348350525, 0.07403155416250229, -0.002317920094355941, -0.031922027468681335, -0.013916762545704842, -0.02772943489253521, -0.0060051241889595985, -0.002975741634145379, -0.010544332675635815, -0.005672371480613947, -0.03626833111047745, 0.06931691616773605, 0.16128602623939514, 0.07278899103403091, -0.005220744758844376, -0.013453670777380466, -0.024172430858016014, -0.012162878178060055, -0.04420126974582672, -0.00547817163169384, -0.052230268716812134, -0.005593498237431049, 0.01325296238064766, -0.007530772127211094, 0.03338252753019333, -0.016813596710562706, -0.0066050514578819275, -0.008955507539212704, 0.06869544088840485, -0.008839389309287071, -0.06448938697576523, 0.0, -0.006005113013088703, -0.019882414489984512, -0.0028752272482961416, -0.008499061688780785, 0.05459364503622055, 0.004516132175922394, -0.047715917229652405, 0.015606976114213467, -0.03694785758852959, 0.09792505204677582, -0.002111394191160798, -0.007541049737483263, -0.010310697369277477, 0.0, -0.012937719002366066, -0.0062617952935397625], "kernel": [[0.08850865066051483, -0.02040855959057808, 0.03541567176580429, -0.003177208360284567, 0.010884420946240425, -0.08847562968730927, 0.01604568213224411, -0.055863987654447556, -0.0758848488330841, 0.048003725707530975, -0.05058988928794861, -0.01740165613591671, -0.00860823504626751, 0.0327582061290741, 0.030451852828264236, -0.06272799521684647, -0.053523559123277664, 0.015423662960529327, -0.04852296784520149, -0.04827200248837471, -0.013060340657830238, -0.013110367581248283, 0.018427453935146332, 0.017540343105793, -0.010619050823152065, -0.02972002886235714, 0.013413158245384693, 0.027342334389686584, -0.07477937638759613, 0.023306287825107574, 0.017198698595166206, 0.09414937347173691, 0.0571291446685791, 0.04342071712017059, -0.01901601254940033, -0.020836088806390762, 0.003994254861027002, -0.004268311895430088, 0.09584220498800278, -0.0980084165930748, -0.010384547524154186, -0.10083995759487152, 0.006426951847970486, -0.043490730226039886, -0.008005158044397831, -0.0747419148683548, -0.00833808071911335, -0.037360046058893204, -0.09384012967348099, 0.013093933463096619, -0.022443410009145737, 0.004594103898853064, 0.006095767021179199, 0.011321858502924442, 0.02389419637620449, -0.03614620119333267, 0.06579702347517014, 0.01810690201818943, 0.02855287678539753, 0.04782487079501152, -0.05231412500143051, -0.010989002883434296, -0.08214174211025238, -0.018292659893631935, -0.07384197413921356, 0.0009210258722305298, -0.006832597777247429, 0.03164341300725937, 0.0867580696940422, -0.020992925390601158, 0.07252735644578934, 0.03649330884218216, -0.11636891961097717, 0.037526458501815796, 0.027375921607017517, 0.014714481309056282, -0.036979395896196365, 0.037710510194301605, 0.03131739795207977, -0.0044120256789028645, -0.04711058735847473, 0.04909750446677208, 0.004530273377895355, -0.10264968872070312, 0.018590932711958885, 0.034198641777038574, 0.0923931822180748, 0.02773195505142212, 0.028226690366864204, -0.010107786394655704, -0.08056695759296417, -0.01928381435573101, 0.06409712880849838, -0.018763570114970207, -0.026568960398435593, 0.05375576391816139, 0.03001680225133896, -0.008363178931176662, 0.0868840366601944, -0.01454878132790327, -0.0644528791308403, -0.0028815774712711573, -0.06425213068723679, -0.050384800881147385, -0.0131242536008358, -0.0004114607581868768, 0.008845583535730839, -0.0278165340423584, 0.03052417002618313, -0.08647932857275009, 0.05768474191427231, -0.015766452997922897, -0.10220623016357422, -0.08961764723062515, 0.020097024738788605, -0.08828797936439514, -0.08993709087371826, -0.0024912722874432802, -0.046793535351753235, 0.008597697131335735, -0.04504339024424553, 0.0825752541422844, 0.004796157591044903, 0.0018573675770312548, 0.03982159122824669, -0.001934011117555201, 0.06465597450733185, -0.07526328414678574, -0.011366085149347782, -0.019751399755477905, 0.04112743213772774, 0.02809380553662777, -0.007340336684137583, -0.06497335433959961, 0.10534317791461945, 0.058409273624420166, 0.046380188316106796, -0.04672536998987198, 0.09022137522697449, -0.03519640862941742, -0.05219845473766327, -0.03002152219414711, -0.05673053488135338, -0.02696484886109829, -0.10446973145008087, -0.063475601375103, 0.09741955995559692, -0.04118983820080757, 0.003002819139510393, -0.032424043864011765, 0.005369167774915695, 0.05155804753303528, 0.0724051371216774, -0.0553273968398571, 0.002721146447584033, -0.04370557516813278, -0.005366517696529627, -0.01878294162452221, -0.030369611456990242, 0.033285271376371384, 0.015978801995515823, 0.017460331320762634, -0.08820048719644547, -0.02176772989332676, -0.009226793423295021, -0.07346682995557785, 0.011801247484982014, -0.02371031790971756, 0.005231752060353756, 0.047317154705524445, 0.037034448236227036, 0.016376055777072906, 0.09257309883832932, -0.03948235884308815, 0.0616859532892704, -0.04850569739937782, 0.021991170942783356, 0.07384739071130753, -0.08557520061731339, -0.08674929291009903, -0.0546276792883873, -0.07735872268676758, 0.09330398589372635, -0.025784431025385857, -0.009594693779945374, -0.08029148727655411, 0.046257615089416504, -0.013224259950220585, 0.007625409867614508, -0.026690691709518433, -0.022693809121847153, 0.007526513654738665, -0.05230701342225075, 0.02523011527955532, -0.02771710604429245, 0.01279413141310215, 0.0913323312997818, 0.055911023169755936, -0.018427306786179543, 0.015058507211506367], [0.005761304404586554, 0.0953688696026802, -0.04674743115901947, -0.0011196524137631059, 0.046393830329179764, -0.08042502403259277, -0.01825145073235035, -0.04341796413064003, -0.10793298482894897, -0.013318664394319057, -0.03480738401412964, -0.02088497020304203, -0.10979773104190826, 0.03971415385603905, -0.11452793329954147, 0.08542625606060028, -0.008862040005624294, -0.006690968759357929, -0.057595591992139816, -0.02367589622735977, -0.02147284895181656, -0.04024171829223633, 0.001688723568804562, 0.030246756970882416, -0.02883143723011017, 0.040992941707372665, 0.06543813645839691, -0.01912280172109604, 0.002815092680975795, 0.021723521873354912, 0.00273268879391253, 0.05789158493280411, -0.04588836804032326, -0.02127452753484249, -0.01828940398991108, -0.06879056245088577, -0.07994528859853745, -0.014741470105946064, 0.019028576090931892, 0.07610633224248886, -0.003950310871005058, -0.018858134746551514, 0.024526728317141533, -0.02973293699324131, 0.02621954306960106, 0.0653037503361702, 0.044840965420007706, 0.02246949076652527, 0.015515469014644623, -0.11426913738250732, -0.03486853092908859, 0.004475860390812159, 0.0038625188171863556, -0.009215946309268475, -0.015090455301105976, -0.04468854144215584, -0.11452265083789825, -0.030944976955652237, -0.0028790216892957687, -0.04325864836573601, 0.09011533856391907, 0.0330200158059597, 0.09528202563524246, 0.027936385944485664, 0.052258893847465515, -0.02957376092672348, -0.1005195677280426, 0.006926612462848425, -0.048574965447187424, 0.02659536898136139, 0.0690479725599289, 0.01002479624003172, -0.030673980712890625, -0.007267167326062918, -0.04932915419340134, 0.056499183177948, 0.036659155040979385, -0.04133518785238266, -0.03265709429979324, 0.046362899243831635, 0.03271746262907982, -0.01935606636106968, 0.0595894418656826, -0.023063184693455696, -0.07582329213619232, -0.04855566844344139, 0.03852776065468788, -0.007968883030116558, 0.020595384761691093, 0.04797440022230148, 0.03452901542186737, -0.09885939955711365, -0.07673655450344086, 0.06512682139873505, -0.014541287906467915, -0.10533281415700912, -0.038085728883743286, 0.04473952203989029, -0.07761328667402267, 0.04110783338546753, 0.012949143536388874, 0.03515600040555, -0.008619162254035473, 0.0508684366941452, 0.028654206544160843, -0.09025903791189194, -0.02042427286505699, -0.08505565673112869, 0.029808929190039635, -0.08263951539993286, 0.10473529249429703, 0.006683694664388895, -0.026377933099865913, 0.007567591033875942, -0.08609502762556076, -0.019389009103178978, -0.05082153156399727, 0.0033340163063257933, 0.1034073531627655, -0.022244615480303764, 0.060331545770168304, -0.05567207559943199, -0.0803704559803009, -0.0285695381462574, -0.08319486677646637, 0.06809111684560776, 0.05149582773447037, -0.03813262656331062, -0.05244031548500061, -0.01275044959038496, 0.006775746587663889, 0.006681129336357117, -0.10850513726472855, -0.11233528703451157, -0.060326579958200455, -0.006469034589827061, -0.04977908357977867, 0.01754315011203289, 0.004662094172090292, 0.003496492514386773, 0.043139584362506866, 0.03267775475978851, 0.019265810027718544, 0.03979029878973961, -0.010933399200439453, -0.04493049904704094, 0.06082121282815933, -0.008430820889770985, 0.009342022240161896, 0.019451437518000603, -0.08700665831565857, 0.09005938470363617, 0.04326647147536278, 0.015618972480297089, -0.08702397346496582, -0.006802818272262812, 0.02763216570019722, -0.05468558147549629, 0.11174677312374115, 0.10140953212976456, 0.03236585855484009, -0.055502552539110184, -0.007600598502904177, 0.008141936734318733, 0.06463070213794708, 0.005090238526463509, 0.04247422516345978, -0.03359385207295418, 0.00027296028565615416, -0.010471861809492111, 7.822855695849285e-05, -0.00567168602719903, -0.029836133122444153, 0.023327043280005455, -0.03892846778035164, -0.025032520294189453, 0.042712073773145676, -0.04035090282559395, 0.050246711820364, -0.08162743598222733, -0.00613885372877121, -0.06751148402690887, 0.038728512823581696, -0.014723840169608593, -0.004209484439343214, -0.0753595307469368, -0.02290772832930088, 0.09161797165870667, -0.024415429681539536, -0.08978786319494247, -0.02453339844942093, 0.023591039702296257, 0.08589852601289749, 0.044391926378011703, 0.02638114243745804, -0.030278775840997696, 0.023858055472373962, -0.04972895607352257, -0.06804090738296509, -0.08549109846353531], [-0.02226906642317772, -0.0005439211381599307, -0.005123769864439964, 0.046855516731739044, -0.0003928702208213508, -0.04686227813363075, 0.00846920907497406, -0.10776979476213455, 0.0072439853101968765, -0.06004040315747261, 0.004497401881963015, -0.06756842136383057, 0.08014217764139175, 0.04911113902926445, 0.029877644032239914, -0.05294380336999893, 0.0708484947681427, 0.007367097772657871, 0.0270386952906847, 0.08073090016841888, 0.03456759825348854, -0.06092036888003349, -0.04485874995589256, 0.01728897914290428, -0.0005018265219405293, 0.06208008527755737, 0.03835338354110718, 0.00014386211114469916, -0.03064439818263054, 0.037633296102285385, -0.020054571330547333, 0.09678976982831955, -0.02204744517803192, -0.01504838839173317, -0.048671964555978775, 0.023116229102015495, 0.09375818073749542, 0.03824688494205475, -0.044786807149648666, 0.0862496867775917, -0.06402493268251419, -0.018682081252336502, 0.016599584370851517, 0.023261873051524162, 0.031241657212376595, -0.045877035707235336, -0.05407670512795448, -0.0034245955757796764, -0.09641081839799881, -0.04970982298254967, 0.02016984298825264, -0.029630344361066818, 0.01326328981667757, -0.06153889745473862, -0.03149285912513733, -0.01591511070728302, -0.012132100760936737, 0.08718913793563843, -0.021365715190768242, 0.07611522078514099, -0.05041274055838585, -0.03998420387506485, 0.024836577475070953, -0.1090664267539978, -0.07706500589847565, 0.08168148249387741, -0.0737762600183487, -0.016826214268803596, -0.05392047390341759, 0.07515843212604523, -0.07780438661575317, 0.08529405295848846, -0.006708887871354818, -0.038744598627090454, -0.015383471734821796, -0.0490826740860939, 0.06301344186067581, -0.014701740816235542, -0.03319210931658745, 0.015029244124889374, 0.013931633904576302, -0.05609374865889549, 0.03054068423807621, 0.02821461297571659, -0.03638763353228569, 0.055193882435560226, 0.01027914509177208, 0.03058813139796257, -0.010041889734566212, -0.0898689404129982, -0.023509200662374496, -0.0873025432229042, 0.016416974365711212, 0.028186561539769173, 0.036353226751089096, -0.028577780351042747, -0.026119057089090347, -0.0056184520944952965, -0.019209900870919228, 0.06794805079698563, -0.023401955142617226, -0.020443720743060112, 0.07066693902015686, -0.07893514633178711, 0.03181763365864754, 0.02774347923696041, 0.01341155357658863, -0.07171126455068588, 0.032742176204919815, 0.05818880721926689, 0.04040892422199249, 0.017364898696541786, -0.05852684751152992, -0.002637250814586878, 0.05294246971607208, -0.10494215041399002, 0.06256648898124695, 0.02269759401679039, 0.03785083070397377, -0.004338258411735296, 0.039081696420907974, 0.0008558537228964269, -0.0026512311305850744, -0.01886814646422863, -0.025144394487142563, -0.004044396337121725, 0.010069794952869415, -0.004677606746554375, 0.03192352131009102, -0.01086689904332161, 0.02376803383231163, -0.004597037099301815, -0.06911741197109222, -0.07222015410661697, 0.042994849383831024, 0.035283271223306656, -0.05489842966198921, -0.01157881785184145, -0.0307959895581007, 0.013144354335963726, -0.07852211594581604, 0.0383826345205307, 0.024592507630586624, -0.00935998186469078, -0.0738297626376152, 0.09374203532934189, 0.02995230443775654, 0.01324330735951662, -0.023575110360980034, 0.014819564297795296, 0.03660494461655617, 0.02181960456073284, -0.012816312722861767, 0.0423344187438488, -0.09700804203748703, -0.04900962486863136, -0.05042032524943352, -0.02088211104273796, 0.05915118753910065, -0.016947204247117043, -0.08557597547769547, -0.048728518187999725, 0.008646482601761818, -0.01479128748178482, 0.004771864041686058, -0.04923178255558014, 0.005106090568006039, 0.07322600483894348, -0.06740427762269974, 0.014337298460304737, -0.12192757427692413, -0.06985504180192947, 0.03405778482556343, -0.11771885305643082, -0.035341039299964905, -0.014096810482442379, 0.008088919334113598, 0.058506857603788376, 0.04298776015639305, 0.04440123960375786, 0.0047663371078670025, 0.04647454991936684, -0.03068249672651291, -0.033062633126974106, 0.031226225197315216, 0.028955679386854172, -0.05977948009967804, 0.0068211485631763935, 0.05225686728954315, -0.04585332050919533, 0.011883429251611233, 0.01660194806754589, 0.0007180472020991147, -0.020986808463931084, 0.00785098783671856, -0.016597630456089973, -0.01205501053482294, -0.06473752856254578, -0.005316052585840225, 0.06578946113586426], [-0.04628094285726547, -0.021563848480582237, 0.02496497705578804, -0.007397253531962633, 0.058222007006406784, 0.023700550198554993, 0.025491565465927124, 0.00448997737839818, -0.03384319320321083, 0.014739751815795898, 0.04166346415877342, -0.070740707218647, -0.11983728408813477, 0.016479114070534706, -0.02589968591928482, -0.07521378993988037, -0.025395264849066734, 0.012865972705185413, -0.0040654512122273445, 0.04803396016359329, 0.03109097108244896, -0.008883276022970676, 0.023587018251419067, -0.010759200900793076, -0.03190850839018822, -0.01560889557003975, -0.018791258335113525, -0.08870485424995422, 0.026792220771312714, -0.07437878102064133, -0.037914685904979706, -0.06877396255731583, -0.012928291223943233, 0.024041246622800827, -0.03261011838912964, -0.07182025909423828, -0.013169932179152966, -0.10201450437307358, 0.05256418511271477, 0.01665867678821087, -0.02579297125339508, 0.016950324177742004, -0.03890477493405342, -0.07477205991744995, 0.02122035250067711, 0.0955623984336853, 0.0265236534178257, -0.0069733369164168835, -0.06430678069591522, -0.019872581586241722, 0.05756285786628723, -0.08430913090705872, 0.027532322332262993, 0.06554136425256729, 0.05682915076613426, -0.07347847521305084, 0.013514307327568531, -0.05536029860377312, -0.11012130975723267, 0.005159277468919754, -0.05580462887883186, -0.054086845368146896, -0.032570622861385345, 0.036139342933893204, 0.02620086446404457, 0.0005769288982264698, -0.04484628885984421, 0.02805791236460209, 0.05210718512535095, 0.008940852247178555, -0.04916752502322197, 0.051349639892578125, 0.013692177832126617, 0.0026291070971637964, 0.00625058077275753, 0.012547104619443417, 0.03292335197329521, -0.023691758513450623, -0.05308710038661957, -0.04026898369193077, -0.09049681574106216, 0.052391167730093, -0.01268309447914362, -0.02126329578459263, 0.05208047106862068, 0.004249607212841511, -0.03741404414176941, 0.022467007860541344, -0.0880240872502327, 0.02425466477870941, 0.07624973356723785, -0.011129927821457386, 0.004076376091688871, -0.0669630840420723, -0.006397612392902374, 0.020525144413113594, -0.10801645368337631, -0.054348595440387726, -0.018758298829197884, -0.06858492642641068, 0.012134741991758347, 0.0009910319931805134, -0.061017636209726334, 0.015963098034262657, 0.04147794470191002, -0.057633060961961746, -0.006630411371588707, -0.03002510778605938, 0.010727792046964169, -0.04565689340233803, -0.010131970047950745, -0.07935094088315964, -0.09005094319581985, -0.04592173919081688, -0.0420704111456871, -0.02005942165851593, 0.04512568190693855, 0.03934459388256073, 0.08404514193534851, 0.04711471498012543, 0.020938457921147346, -0.008034775033593178, 0.01985858380794525, -0.06715866923332214, -0.09462817013263702, -0.026824185624718666, 0.009816239587962627, -0.032897356897592545, -0.0722031220793724, -0.047817837446928024, -0.0073492517694830894, -0.07912541180849075, 0.007130834739655256, 0.07457537949085236, -0.025910353288054466, 0.03258630260825157, 0.0282453540712595, 0.062204182147979736, 0.026588499546051025, 0.06212649866938591, -0.05807679519057274, 0.011440970003604889, -0.05665646493434906, 0.021468885242938995, 0.06168593838810921, 0.05851009488105774, -0.07298453152179718, 0.07020000368356705, -0.023282673209905624, 0.06684338301420212, -0.029925234615802765, -0.016002757474780083, -0.03555251657962799, 0.036185625940561295, -0.06190494820475578, 0.06827695667743683, -0.07879578322172165, 0.024027811363339424, -0.10299724340438843, -0.01236367505043745, 0.01578596793115139, -0.029318824410438538, -0.05260495841503143, -0.016799522563815117, 0.00048044577124528587, -0.016404973343014717, 0.0756649374961853, -0.083396315574646, -0.02182224579155445, -0.022911984473466873, -0.07872173190116882, 0.05061168968677521, -0.05324703827500343, -0.07701966166496277, -0.09207127243280411, -0.018874118104577065, 0.06939013302326202, -0.014150270260870457, -0.06213696673512459, 0.0066128564067184925, -0.027913760393857956, -0.04053208604454994, -0.05913742259144783, 0.021484868600964546, 0.057464804500341415, 0.03746265918016434, -0.08690373599529266, -0.051850367337465286, -0.10441730916500092, -0.05285581946372986, 0.029810329899191856, -0.07217893749475479, 0.033580198884010315, -0.0887693539261818, 0.027616295963525772, 0.006988071370869875, -0.10610752552747726, 0.00036129626096226275, -0.06895426660776138, 0.05112272873520851], [-0.01725807413458824, -0.08388137072324753, 0.03797474876046181, -0.06059537082910538, -0.06905649602413177, -0.03335525095462799, 0.04580305516719818, -0.010410892777144909, -0.0015831177588552237, -0.017448993399739265, 0.034860722720623016, 0.01585618406534195, 0.024581564590334892, -0.021243644878268242, -0.00469212606549263, -0.08940891921520233, -0.01322226133197546, -0.023493733257055283, 0.029709581285715103, -0.04829523712396622, 0.046525660902261734, -0.11334865540266037, 0.06001400575041771, 0.017956135794520378, -0.05619751662015915, 0.023985039442777634, 0.012370872311294079, -0.04076588153839111, -0.0567220039665699, 0.031245075166225433, -0.007610848639160395, -0.05714305862784386, -0.009546704590320587, 0.03068217821419239, 0.030116677284240723, 0.03162876144051552, -0.06707659363746643, -0.06977958977222443, -0.06994858384132385, 0.03490244969725609, -0.03707720339298248, -0.024099286645650864, 0.03741449490189552, 0.027783269062638283, -0.025558151304721832, 0.02077123336493969, 0.04121646657586098, -0.06042800843715668, -0.021085025742650032, -0.01263024564832449, -0.02087526209652424, 0.0630098283290863, -0.10094641149044037, 0.0685146152973175, 0.054727569222450256, 0.08729317039251328, 0.016102643683552742, 0.013178794644773006, -0.010295518673956394, -0.044851891696453094, 0.043502919375896454, -0.038710419088602066, -0.012619677931070328, -0.03159855678677559, -0.05189777910709381, 0.048716168850660324, -0.019429344683885574, 0.01647329330444336, -0.040447477251291275, -0.02406802773475647, -0.06393317133188248, -0.012382079847157001, -0.053943902254104614, 0.01265754271298647, -0.018742278218269348, 0.062269024550914764, -0.06978044658899307, -0.04797561094164848, -0.07378935068845749, -0.07186782360076904, -0.08839922398328781, -0.04200040176510811, -0.04835266247391701, -0.07576452195644379, -0.07126863300800323, -0.042345017194747925, -0.02488989196717739, 0.03480124846100807, -0.030032726004719734, 0.014398053288459778, 0.05083894357085228, -0.052359357476234436, -0.010200963355600834, -0.11708398908376694, 0.027194630354642868, 0.03643452003598213, 0.08793458342552185, 0.0017342983046546578, 0.07556357979774475, 0.036374352872371674, 0.03577489033341408, 0.027933228760957718, 0.011133917607367039, 0.05604375898838043, 0.026302138343453407, 0.007379482500255108, 0.0408165380358696, -0.03130648657679558, 0.0006299039232544601, -0.011900543235242367, -0.04333905503153801, 0.029276175424456596, -0.034155018627643585, -0.02087320387363434, 0.013928448781371117, 0.01657290756702423, 0.09364521503448486, 0.07772572338581085, 0.01098945364356041, -0.007529213093221188, -0.00825685728341341, 0.034158844500780106, -0.09600082039833069, 0.10118935257196426, -0.07187213003635406, -0.10472437739372253, -0.014810596592724323, -0.026750115677714348, -0.0069565000012516975, -0.04861483722925186, 0.033353038132190704, -0.04627570882439613, 0.029454147443175316, 0.0038129130844026804, -0.04665876179933548, 0.011729172430932522, 0.0541091114282608, -0.03089391626417637, -0.06238778308033943, -0.01825309731066227, 0.10515419393777847, -0.10151422768831253, 0.02709142304956913, 0.037392131984233856, -0.012106548994779587, -0.04090408980846405, 0.05499591305851936, -0.042000316083431244, -0.02273680455982685, 0.09006807953119278, 0.002669078065082431, -0.06869350373744965, 0.08879770338535309, -0.006188814993947744, -0.00542505644261837, -0.06187897175550461, 0.015379354357719421, -0.04054855555295944, -0.04986314848065376, 0.07065609097480774, -0.014994033612310886, 0.04542561620473862, 0.07652707397937775, 0.1012384444475174, 0.04532229155302048, -0.06186781823635101, 0.006817934103310108, -0.08022629469633102, -0.041359297931194305, 0.027027949690818787, 7.189574535004795e-05, -0.030386602506041527, 0.02588856965303421, 0.036733873188495636, -0.021388741210103035, -0.0207253135740757, 0.06754525750875473, -0.010077161714434624, 0.010576198808848858, -0.10305879265069962, -0.06916258484125137, 0.016678499057888985, -0.006876685656607151, -0.04643649235367775, 0.03262984752655029, 2.83082827081671e-05, -0.016716670244932175, -0.007670107297599316, 0.018880287185311317, 0.005691379774361849, 0.015923846513032913, 0.040031496435403824, 0.01899818331003189, -0.007653664797544479, 0.008399732410907745, 0.020137211307883263, -0.0641268715262413, -0.04404732957482338, -0.09732311218976974, 0.005859516095370054], [0.05189938470721245, 0.03535110875964165, 0.029195982962846756, -0.058645959943532944, -0.04662243649363518, -0.07826180011034012, 0.03205334022641182, 0.020646246150135994, -0.04269638657569885, -0.035326097160577774, -0.013294764794409275, 0.046044062823057175, 0.04295581206679344, 0.09880565106868744, 0.08754169195890427, 0.006579221226274967, 0.019248297438025475, 0.06059342622756958, -0.0266604945063591, 0.08271260559558868, 0.091781385242939, -0.005157606676220894, -0.04422583803534508, 0.0436180979013443, 0.03665691241621971, 0.04775875434279442, 0.07115541398525238, -0.0862407460808754, 0.015801943838596344, -0.016966111958026886, -0.02292575314640999, 0.008294263854622841, 0.03948202356696129, -0.003217038232833147, 0.011199407279491425, 0.06809638440608978, -0.012226671911776066, 0.030238892883062363, -0.03137780353426933, 0.012352186255156994, 0.03639017045497894, -0.030532391741871834, -0.0698508769273758, -0.02655286155641079, -0.0464528389275074, -0.008886250667273998, 0.03504442423582077, 0.06431008875370026, 0.09005171060562134, -0.014119820669293404, -0.012207412160933018, -0.041427623480558395, 0.024472178891301155, 0.020470207557082176, -0.03772349655628204, 0.05592722445726395, 0.040153637528419495, -0.023063277825713158, -0.045238807797431946, 0.07466357201337814, 0.031998734921216965, -0.013969860970973969, -0.06542886048555374, 0.05642004311084747, -0.08083738386631012, -0.05328040570020676, -0.013573204167187214, -0.08541978150606155, -0.013788777403533459, -0.07920142263174057, 0.0529843345284462, 0.02632196433842182, -0.012010949663817883, 0.09327209740877151, -0.00753044243901968, -0.015267264097929, 0.03255986422300339, 0.008686988614499569, -0.014899294823408127, 0.0072591654025018215, 0.03151736408472061, 0.029787587001919746, -0.0069994316436350346, -0.04825470969080925, -0.06918143481016159, 0.05862356722354889, 0.08215711265802383, -0.03368281200528145, -0.052719224244356155, -0.007591661531478167, -0.02536226250231266, 0.08238480240106583, -0.05465378984808922, -0.06438087671995163, 0.036260686814785004, -0.04441731423139572, -0.08929895609617233, -0.07712145149707794, -0.007216968573629856, 0.02464054338634014, 0.0190690029412508, 0.024013254791498184, 0.046255338937044144, 0.0011271376861259341, 0.010159690864384174, -0.08095899224281311, -0.05539935827255249, 0.0353090837597847, -0.03648541495203972, -0.07118247449398041, -0.06401054561138153, -0.028935546055436134, 0.04521665722131729, 0.010955619625747204, 0.06371448189020157, 0.007137690205127001, -0.05141213908791542, 0.09072186052799225, 0.04138568788766861, -0.00791437178850174, -0.05749163404107094, 0.00020921525720041245, 0.033062394708395004, -0.08681640774011612, 0.037934310734272, 0.09740404039621353, -0.025126516819000244, -0.056142307817935944, -0.03713149204850197, -0.06940683722496033, 0.016238931566476822, -0.09325603395700455, 0.00952144991606474, -0.06626125425100327, -0.08537387102842331, -0.08933357894420624, -0.027978776022791862, -0.05901843681931496, -0.026342641562223434, 0.0013665348524227738, 0.07800903171300888, 0.10085025429725647, -0.03192349150776863, -0.006421088241040707, -0.0013675788650289178, -0.09340693801641464, 0.014904617331922054, 0.054912567138671875, 0.04853217676281929, -0.04755439981818199, -0.0108830276876688, -0.02288679964840412, -0.06533928960561752, 0.0022586274426430464, -0.06159703806042671, 0.05937489494681358, -0.05778762325644493, -0.03355247154831886, 0.05083288997411728, 0.10362512618303299, -0.02719959244132042, 0.036342035979032516, -0.0691903829574585, 0.052929263561964035, 0.03220676630735397, 0.007635286543518305, -0.034318435937166214, 0.004692396614700556, 0.05979742854833603, -0.08448175340890884, 0.009856471791863441, 0.03668656945228577, -0.10942593961954117, -0.06724123656749725, -0.05299034342169762, -0.015857171267271042, 0.019554857164621353, -0.1001277044415474, -0.09309367835521698, 0.050161052495241165, 0.0013337315758690238, -0.0034959542099386454, -0.022072110325098038, -0.06665739417076111, 0.06751377880573273, -0.005583022255450487, 0.04953804239630699, 0.0009798103710636497, 0.03552922233939171, 0.03930678218603134, -0.0033965224865823984, -0.019728729501366615, -0.09323076158761978, 0.05701472610235214, -0.039354100823402405, -0.05014163628220558, 0.04728038236498833, 0.03436961770057678, 0.06926736235618591, -0.02771366387605667], [0.05291004106402397, -0.055288951843976974, -0.0827438086271286, -0.07851001620292664, -0.04043940454721451, -0.022941842675209045, 0.06992661952972412, 0.01688886061310768, 0.04588223248720169, -0.06267859041690826, -0.10203994810581207, 0.04546933248639107, -0.02762600965797901, -0.018131092190742493, 0.06095510348677635, 0.034101326018571854, 0.020946048200130463, 0.04863093048334122, -0.08224543184041977, -0.00018986404757015407, -0.10938785970211029, 0.0061917174607515335, 0.0038875422906130552, -0.07909530401229858, 0.001665729796513915, -0.08696411550045013, -0.04565191641449928, 0.014444204978644848, 0.020949186757206917, -0.04535737633705139, 0.024000229313969612, -0.004954592790454626, 0.03402974084019661, 0.09147435426712036, 0.06641366332769394, -0.0003605423553381115, -0.005865486804395914, -0.04068823903799057, 0.003866220358759165, 0.07855521887540817, -0.013966710306704044, 0.08147240430116653, -0.1122450977563858, 0.02879730798304081, 0.01144933607429266, 0.07714512199163437, -0.002663525752723217, 0.01864762045443058, -0.06239970773458481, 0.09494303166866302, -0.05703624337911606, -0.08910280466079712, -0.0104273846372962, -0.0366019606590271, -0.01177026703953743, -0.03220366686582565, -0.10749860852956772, 0.026299497112631798, 0.06626766175031662, 0.015084844082593918, -0.02445441670715809, -0.09286721050739288, 0.054902318865060806, -0.0553506501019001, -0.04142721742391586, -0.009990658611059189, 0.027475394308567047, 0.04721718281507492, -0.015012643299996853, -0.07982400804758072, -0.06488737463951111, -0.06728504598140717, -0.03740016371011734, 0.0011400687508285046, -0.015430472791194916, 0.033437058329582214, 0.03286544978618622, -0.039580658078193665, -0.05151168256998062, -0.06601773947477341, -0.0698251724243164, 0.06367151439189911, -0.009139548987150192, 0.04346297308802605, -0.014619250781834126, 0.026432309299707413, -0.0186055488884449, -0.012004760093986988, 0.009931324049830437, -0.03152928128838539, 0.03030456230044365, -0.028298966586589813, -0.05645805224776268, -0.014096217229962349, -0.016167091205716133, -0.027459057047963142, 0.03118458390235901, 0.0645977258682251, 0.06934221088886261, -0.019300589337944984, -0.03759576007723808, 0.08222419768571854, -0.0025842604227364063, -0.027654673904180527, 0.04412809759378433, 0.012840849347412586, 0.08767560124397278, -0.02334067039191723, -0.06296250969171524, 0.016191231086850166, 0.042554911226034164, 0.0052054887637495995, -0.02467408776283264, -0.033827852457761765, -0.041180793195962906, -0.010541352443397045, -0.07386066764593124, 0.08542851358652115, -0.036679282784461975, -0.03149561211466789, -0.018174581229686737, 0.011203537695109844, -0.005016894545406103, -0.0027369647286832333, -0.048596493899822235, 0.04181698337197304, 0.0009332312038168311, -0.025887947529554367, -0.07025153189897537, 0.03990091010928154, -0.0062135145999491215, 0.05102388188242912, -0.07619799673557281, 0.0070512848906219006, 0.03000071458518505, -0.04509875178337097, -0.04229780659079552, -0.019307389855384827, -0.007323617115616798, -0.015540995635092258, 0.043257616460323334, -0.08379761874675751, 0.0495101623237133, -0.01845703274011612, -0.06787219643592834, -0.05390108749270439, 0.11216269433498383, -0.08521286398172379, 0.008501417934894562, 0.07886744290590286, -0.049381788820028305, -0.03224856033921242, -0.10361742228269577, 0.008420928381383419, 0.018552184104919434, -0.06546435505151749, -0.006044878624379635, 0.09604325890541077, -0.004452557303011417, -0.026333153247833252, 0.06399234384298325, 0.0959990918636322, 0.009683624841272831, -0.035508207976818085, -0.09556306898593903, -0.04065168648958206, 0.02444671280682087, -0.002005120972171426, -0.028026996180415154, 0.008973275311291218, 0.05711609497666359, 0.06688527017831802, -0.06028261035680771, 0.008686717599630356, -0.03762584924697876, -0.0074570635333657265, -0.05678175017237663, -0.011516734957695007, -0.003421621862798929, 0.025846099480986595, 0.0468289814889431, 0.07743222266435623, -0.03869004547595978, -0.03588195890188217, 0.060349997133016586, -0.0512881837785244, 0.06164610758423805, 0.06674716621637344, -0.005271842237561941, 0.04758875444531441, -0.01816321164369583, 0.035722825676202774, 0.012434612028300762, -0.051788050681352615, 0.012343037873506546, 0.034283023327589035, 0.012099568732082844, 0.0059656105004251, -0.02528984285891056, -0.002193512860685587], [0.06169970706105232, 0.0034958829637616873, 0.18251292407512665, -0.022916007786989212, 0.01733667030930519, 0.07977071404457092, 0.02579960785806179, -0.0193906482309103, -0.015915291383862495, -0.091646708548069, 0.14771662652492523, -0.13476324081420898, 0.10621766000986099, 0.06525543332099915, 0.07811498641967773, 0.025531278923153877, 0.024387363344430923, 0.009842351078987122, -0.05122484639286995, -0.04135984182357788, 0.07044798135757446, -0.048156362026929855, -0.029567066580057144, 0.029584800824522972, 0.28501972556114197, 0.010660884901881218, 0.08606930077075958, 0.002123852726072073, -0.027316568419337273, 0.2393486201763153, -0.13506513833999634, -0.015414290130138397, -0.19831915199756622, -0.15035386383533478, -0.007637625094503164, 0.20374377071857452, 0.031167691573500633, 0.07350371032953262, 0.09035512059926987, 0.03457718342542648, 0.1066146269440651, 0.10576025396585464, 0.021579181775450706, 0.03654053807258606, -0.08915148675441742, -0.028500689193606377, 0.007454381790012121, 0.009356983937323093, -0.05300616845488548, -0.07724762707948685, 0.02489401213824749, 0.1780664026737213, 0.031094074249267578, 0.08919699490070343, -0.005429625511169434, 0.09780459105968475, -0.023203853517770767, -0.09205911308526993, 0.04946654289960861, 0.16466793417930603, 0.06852120906114578, 0.2357994168996811, -0.06499703228473663, 0.2744064927101135, 0.0005402046372182667, 0.07049305737018585, 0.05338014289736748, -0.06494917720556259, 0.020892003551125526, 0.012303211726248264, -0.021853486075997353, 0.03820541873574257, -0.011155344545841217, -0.07423001527786255, -0.03067420981824398, 0.0313391275703907, 0.07464300841093063, 0.07882322371006012, -0.07358860969543457, -0.00470882561057806, 0.2234497368335724, -0.022065473720431328, -0.004187340848147869, 0.0017136207316070795, -0.002603519009426236, 0.029444890096783638, 0.0269024521112442, -0.1069868877530098, 0.05430246517062187, -0.014509282074868679, 0.062172237783670425, 0.019974684342741966, 0.10151407867670059, -0.07043682783842087, 0.10644988715648651, -0.07985921949148178, 0.04672888666391373, -0.06666010618209839, -0.038500137627124786, 0.0183568112552166, 0.006052113603800535, -0.030904404819011688, -0.02694791927933693, 0.03484076261520386, -0.032345131039619446, -0.05732223764061928, 0.0351959764957428, -0.0009346589795313776, 0.030309045687317848, 0.010809236206114292, 0.03472626954317093, 0.10218679904937744, 0.03917331621050835, 0.0996817797422409, -0.023304341360926628, -0.0409078486263752, 0.010229317471385002, -0.08997233957052231, 3.5831111745210364e-05, 0.09668285399675369, 0.11242212355136871, -0.008221924304962158, -0.04118669033050537, -0.007847153581678867, -0.04393087700009346, 0.0224252138286829, -0.03417801111936569, 0.14188949763774872, -0.09709218144416809, 0.10540825128555298, -0.03470182791352272, -0.017278732731938362, 0.06907229125499725, -0.04679706692695618, -0.05184747278690338, -0.03402494639158249, -0.016889864578843117, -0.06195197254419327, 0.04386117681860924, 0.01291548740118742, -0.04820806160569191, -0.036689091473817825, 0.196950763463974, 0.02099592238664627, -0.017212430015206337, 0.03869501128792763, -0.05118934065103531, -0.3212648034095764, -0.11286275833845139, 0.013664544560015202, -0.03120785765349865, 0.05322004854679108, 0.14583680033683777, 0.07486073672771454, -0.06338351219892502, 0.010305268689990044, 0.016850009560585022, -0.03904919698834419, 0.007041448727250099, -0.01917789690196514, -0.006304479204118252, 0.00925277080386877, -0.06796681880950928, 0.05783817917108536, 0.30307456851005554, 0.049783170223236084, 0.04237541928887367, 0.02375352568924427, 0.05475416034460068, 0.08804456889629364, 0.014882035553455353, -0.002759363502264023, -0.09176167845726013, -0.019636183977127075, 0.03607695549726486, 0.06795503944158554, 0.028167976066470146, -0.10380145907402039, 0.03658578544855118, 0.06965833157300949, 0.16755972802639008, 0.03401115909218788, -0.1438755989074707, 0.00289937318302691, -0.10102113336324692, -0.04285210743546486, 0.023181870579719543, -0.10134635120630264, 0.13422395288944244, -0.06918229907751083, -0.038653865456581116, 0.02399425208568573, -0.14623390138149261, 0.07266459614038467, -0.01930113323032856, 0.04576690122485161, -0.03812798112630844, 0.03464532271027565, -0.08650621771812439, 0.0051038009114563465], [0.023779070004820824, 0.0008937653619796038, -0.09208917617797852, 0.045066170394420624, 0.023893609642982483, 0.09237051010131836, -0.004507346078753471, -0.00293950317427516, 0.01630348339676857, 0.034453678876161575, 0.08926430344581604, 0.021334296092391014, -0.0027345719281584024, -0.05022960528731346, -0.019670529291033745, -0.028209371492266655, -0.06282884627580643, -0.1112213283777237, -0.023274390026926994, -0.01257308665663004, -0.11284752190113068, 0.026615699753165245, 0.05483417585492134, -0.04280225560069084, 0.03988972678780556, 0.05594398453831673, -0.005114616826176643, 0.02372880093753338, -0.03478579968214035, -0.03150279074907303, 0.02002350613474846, 0.06501764059066772, -0.06775569915771484, 0.011077158153057098, 0.04547026753425598, 0.02070068195462227, -0.028737066313624382, -0.07102738320827484, -0.02699415385723114, 0.057998742908239365, 0.06006113812327385, -0.016824448481202126, 0.06369958072900772, -0.0023701873142272234, 0.023909753188490868, 0.015345223248004913, 0.02525682933628559, -0.006444436497986317, 0.022712908685207367, -0.039137668907642365, 0.04403300583362579, -0.01898341067135334, -0.058093734085559845, 0.10556293278932571, 0.032086148858070374, -0.01939009502530098, -0.02897477336227894, -0.036253973841667175, 0.056325074285268784, 0.028331628069281578, 0.007663031108677387, -0.029092296957969666, -0.05362069234251976, -0.01771298609673977, 0.052889950573444366, 0.04286044090986252, -0.07505406439304352, -0.05563807860016823, -0.04479074478149414, -0.03540986403822899, 0.021512333303689957, -0.019450314342975616, -0.04862546920776367, -0.031554147601127625, 0.09670481085777283, 0.04908103495836258, -0.06341972202062607, 0.011433432810008526, -0.05861334502696991, 0.0433950237929821, -0.016864998266100883, -0.03712182492017746, -0.012752179056406021, 0.01732782833278179, 0.012589076533913612, -0.06344573944807053, -0.019487101584672928, 0.06089215725660324, 0.09946742653846741, -0.07793580740690231, 0.09568952023983002, -0.02151648886501789, 0.01574925146996975, 0.012143381871283054, -0.019046364352107048, -0.08508095890283585, -0.050538573414087296, -0.007265386171638966, 0.05280933156609535, -0.0904490202665329, 0.029093069955706596, 0.014893223531544209, 0.041785646229982376, -0.04984075576066971, -0.03210155665874481, 0.02077336609363556, 0.09792754054069519, -0.08054041862487793, -0.040216393768787384, 0.027369262650609016, -0.08018191903829575, -0.00978875532746315, -0.01883535087108612, 0.10111312568187714, -0.07157623767852783, 0.0441967137157917, 0.08769380301237106, -0.03432030230760574, -0.01688000187277794, -0.027231059968471527, -0.00503971241414547, 0.09805390238761902, 0.043696481734514236, -0.054824016988277435, -0.06052344664931297, -0.0691760927438736, -0.007635518442839384, 0.05382436513900757, -0.11734074354171753, -0.10522165894508362, 0.08480044454336166, -0.04509073868393898, 0.021512847393751144, 0.0404898039996624, -0.019832845777273178, -0.02567186765372753, -0.07397612929344177, 0.055375635623931885, -0.02704559825360775, 0.06995140761137009, 0.06182429566979408, -0.04217236489057541, 0.016874266788363457, 0.03200441598892212, -0.039001740515232086, 0.049718983471393585, 0.024010300636291504, 0.06877931207418442, 0.007355374749749899, -0.0039378926157951355, 0.012726247310638428, -0.05341878905892372, 0.011194529943168163, -0.007085378281772137, -0.037096209824085236, 0.01889004185795784, 0.06337802857160568, -0.023917222395539284, -0.09219994395971298, -0.07150857895612717, 0.07746698707342148, 0.006759996525943279, -0.015570392832159996, 0.04166852682828903, 0.049782153218984604, 0.00287466193549335, 0.09250669181346893, -0.016010470688343048, -0.008299042470753193, 0.03554736450314522, -0.10308411717414856, -0.05853980779647827, -0.09271353483200073, -0.008684683591127396, -0.06918442249298096, 0.015824545174837112, 0.10930387675762177, -0.029537655413150787, 0.05158069729804993, -0.044025227427482605, -0.014256419613957405, -0.013473669067025185, 0.025102905929088593, -0.020035430788993835, -0.06779517978429794, 0.0259858351200819, 0.051645249128341675, 0.07015156745910645, 0.018643006682395935, 0.04896119609475136, 0.03029203601181507, -0.0908154845237732, 0.052024178206920624, -0.003055123146623373, -0.09455128014087677, 0.00106755830347538, -0.035101402550935745, -0.02793865278363228, -0.1259639859199524, -0.08580300956964493], [-0.06828400492668152, 0.003041377756744623, -0.07176493853330612, 0.07053256779909134, 0.04986238107085228, -0.051560837775468826, -0.03622658923268318, -0.01634524203836918, 0.05242915451526642, 0.04064412787556648, -0.06315746158361435, 0.042900048196315765, 0.051375143229961395, -0.008660766296088696, -0.060599107295274734, 0.014658933505415916, 0.03870831057429314, 0.01613590680062771, 0.03687021881341934, 0.013358854688704014, -0.01421274896711111, -0.010361353866755962, -0.02289591170847416, -0.01851341873407364, 0.018624354153871536, 0.008870944380760193, -0.0007519997307099402, -0.04240189865231514, 0.10181247442960739, 0.10300552099943161, 0.05718513950705528, 0.05927285924553871, -0.10361768305301666, -0.030319198966026306, 0.07519616931676865, -0.035408779978752136, 0.05226463824510574, 0.04273628443479538, -0.09370478242635727, 0.06507846713066101, 0.027611497789621353, -0.08507997542619705, -0.03191054239869118, -0.07104494422674179, -0.06113447621464729, 0.04105691984295845, 0.067963145673275, -0.01534697413444519, 0.05948550999164581, -0.008387992158532143, -0.03013100102543831, -0.09022200107574463, 0.056504879146814346, -0.01608680933713913, -0.06878547370433807, 0.016672484576702118, 0.04930741339921951, 0.034298431128263474, 0.054234929382801056, 0.010296545922756195, 0.01514208409935236, -0.07178196310997009, 0.039911478757858276, -0.01126856915652752, -0.022646725177764893, 0.06115943565964699, -0.06632153689861298, -0.11750258505344391, -0.0810244083404541, 0.025811394676566124, 0.01928325742483139, -0.007116041611880064, -0.04827773571014404, 0.03437581658363342, 0.057432059198617935, -0.05233524739742279, 0.08669103682041168, 0.009238166734576225, 0.023829318583011627, -0.03963097929954529, -0.07990655303001404, -0.03969866782426834, -0.027377557009458542, 0.055873241275548935, 0.06690149009227753, 0.08968211710453033, 0.07421503961086273, 0.028910556808114052, -0.008772952482104301, -0.05241494998335838, -0.01271700207144022, -0.09961781650781631, -0.04482460394501686, -0.02169625088572502, -0.05073167383670807, 0.006395760923624039, 0.020814871415495872, 0.10392878949642181, -0.004813672974705696, 0.03247598186135292, -0.025913041085004807, 0.021890463307499886, 0.04811623692512512, -0.09382228553295135, 0.05475389212369919, 0.0016959004569798708, -0.07063066214323044, 0.025484522804617882, -0.02857881598174572, 0.03433675318956375, 0.013989344239234924, 0.047577377408742905, -0.030107250437140465, -0.026303473860025406, 0.06182410195469856, -0.08115549385547638, -0.1003848984837532, 0.05929843708872795, 0.030348768457770348, -0.0549984909594059, -0.09324856102466583, 0.02216707356274128, -0.06025330349802971, -0.06688472628593445, 0.016086574643850327, -0.005778319668024778, -0.007503726985305548, -0.0425608791410923, 0.039778128266334534, -0.09201032668352127, -0.07233613729476929, 0.009572488255798817, -0.057854827493429184, 0.008946586400270462, 0.08719827234745026, -0.07723929733037949, 0.0048994082026183605, -0.09742233902215958, 0.08003611862659454, -0.018097583204507828, -0.0740460753440857, 0.028963329270482063, 0.030975764617323875, -0.05488834157586098, 0.03605034947395325, -0.04325466603040695, 0.07185322791337967, -0.012945515103638172, -0.0585213340818882, -0.020482534542679787, 0.002231944352388382, -0.07978250831365585, 0.07755978405475616, 0.042166534811258316, -0.0684669092297554, -0.019965603947639465, -0.020608428865671158, -0.02223804220557213, -0.053553491830825806, -0.05259981378912926, 0.043343786150217056, -0.023893460631370544, -0.05174881964921951, -0.03750384971499443, 0.05298558250069618, 0.03953336179256439, 0.013225958682596684, 0.014874259941279888, -0.09237226098775864, 0.07351700216531754, -0.040373388677835464, 0.052985645830631256, 0.012012017890810966, -0.010093058459460735, 0.033837299793958664, 0.007723470684140921, 0.025383923202753067, 0.04084036499261856, 0.10250768810510635, 0.03428841754794121, -0.030614661052823067, -0.0038750371895730495, -0.052893176674842834, -0.021761836484074593, -0.004765491466969252, -0.02000720426440239, -0.08522195369005203, -0.014411551877856255, -0.009720406495034695, -0.0812707170844078, 0.05761644244194031, 0.005830954294651747, 0.049874041229486465, -0.0628364086151123, -0.11277633905410767, -0.004102330654859543, 0.011340389959514141, -0.04792341962456703, -0.11477881669998169, 0.009492565877735615], [-0.06124597042798996, 0.0008211392560042441, 0.0353262796998024, -0.0490703247487545, -0.08621982485055923, -0.05144115909934044, -0.08984997123479843, 0.0660734698176384, 0.033679939806461334, 0.10337723046541214, -0.07527081668376923, 0.008380459621548653, -0.06451747566461563, 0.03363543748855591, -0.02979070506989956, -0.11700055003166199, -0.04973243176937103, -0.025875672698020935, -0.014271837659180164, 0.022118808701634407, -0.03441815450787544, 0.06253039091825485, -0.08369427919387817, -0.0885578840970993, 0.0031422979664057493, -0.03987179696559906, 0.011874443851411343, -0.07488548010587692, 0.04872177168726921, 0.061147551983594894, 0.08125537633895874, 0.00335099408403039, -0.060537174344062805, -0.006781414151191711, -0.023807767778635025, -0.0956321656703949, -0.0008027515723370016, -0.10714053362607956, -0.032540637999773026, -0.08086564391851425, -0.07313434779644012, -0.06302735209465027, 0.03411337360739708, -0.04745418578386307, -0.07162486016750336, 0.04859764873981476, 0.01369173638522625, 0.1035592257976532, -0.022964736446738243, -0.03839828073978424, 0.024470869451761246, 0.03907372057437897, -0.03961983695626259, 0.02980528585612774, 0.011862393468618393, -0.08209022134542465, 0.013646305538713932, 0.015484772622585297, 0.078994981944561, 0.013805173337459564, -0.029297232627868652, 0.02306246943771839, 0.08967301994562149, -0.014666770584881306, -0.004211592487990856, 0.024724412709474564, -0.061532601714134216, -0.07001417875289917, -0.050676170736551285, 0.00028783720335923135, 0.09230145066976547, 0.06761664152145386, 0.003589220577850938, 0.018042905256152153, 0.03827100992202759, 0.037148576229810715, 0.02686357870697975, 0.042932577431201935, 0.07141296565532684, 0.05745505169034004, -0.08096212893724442, 0.017169801518321037, -0.02115512453019619, 0.016648894175887108, -0.019734278321266174, -0.004122078884392977, -0.008455985225737095, 0.01836210861802101, 0.045692458748817444, 0.024906449019908905, -0.03649237006902695, -0.061236780136823654, -0.00021109468070790172, 0.01385955885052681, 0.013943517580628395, 0.054403576999902725, -0.011887983419001102, 0.07570918649435043, -0.08420097827911377, 0.00104019686114043, -0.006227295380085707, 0.004531616810709238, 0.02333393134176731, -0.07384826987981796, -0.016797007992863655, -0.013309911824762821, -0.028470229357481003, -0.0591285265982151, 0.039037104696035385, -0.054934002459049225, 0.07811351120471954, 0.03179778531193733, 0.07121964544057846, 0.09335785359144211, -0.0721273422241211, 0.05459900200366974, -0.07919032126665115, -0.008154697716236115, -0.05081777274608612, 0.049920689314603806, -0.010197414085268974, -0.0222222451120615, 0.08421497046947479, -0.06873831897974014, -0.09003734588623047, -0.07272054255008698, 0.08626937866210938, -0.01945442147552967, -0.0019278210820630193, -0.03503938391804695, -0.08316327631473541, -0.06382989883422852, -0.10143481194972992, -0.11641332507133484, 0.06506253033876419, -0.01605280116200447, -0.02457617036998272, 0.06098790466785431, -0.021159270778298378, -0.07296952605247498, 0.015866555273532867, -0.0549488440155983, 0.09035816788673401, -0.08549872785806656, -0.014885001815855503, 0.06462515890598297, -0.03306346386671066, -0.014307815581560135, 0.07318491488695145, 0.08686015754938126, -0.05982896685600281, 0.027943028137087822, 0.0013231626944616437, -0.046258021146059036, 0.09458004683256149, 0.06960445642471313, 0.006911125034093857, -0.002635193057358265, -0.08799878507852554, -0.005311667453497648, -0.05279882252216339, -0.029925307258963585, -0.009682603180408478, 0.04578335955739021, 0.0482497476041317, 0.09545961022377014, -0.036897435784339905, 0.02521243505179882, -0.03575064241886139, 0.023938871920108795, 0.10375046730041504, 0.012758290395140648, -0.006282190326601267, -0.02970491349697113, 0.014413628727197647, -0.03725771978497505, -0.01566835306584835, 0.016222283244132996, -0.06528137624263763, -0.07880013436079025, -0.09297290444374084, -0.0822632908821106, -0.07626921683549881, -0.046185046434402466, 0.10376052558422089, 0.0932135283946991, 0.06419313699007034, -0.058729756623506546, -0.007824099622666836, -0.054747845977544785, 0.06532567739486694, -0.01425204984843731, -0.013981087133288383, 0.0204445980489254, 0.003747147275134921, -0.017254723235964775, -0.030695635825395584, -0.022127309814095497, -0.016109779477119446, 0.05067548528313637], [-0.05496910959482193, -0.07673561573028564, 0.027518250048160553, 0.09789425879716873, -0.0004933399613946676, -0.01913648284971714, -0.035127777606248856, 0.020714540034532547, -0.01511562243103981, 0.07930386066436768, 0.012321095913648605, 0.06022372469305992, 0.030599156394600868, 0.0012058098800480366, 0.0373784564435482, -0.018196139484643936, 0.06854654103517532, 0.03120751492679119, 0.068575918674469, -0.03280564770102501, 0.006906429305672646, -0.016485299915075302, -0.035218194127082825, -0.009237389080226421, -0.012859520502388477, 0.07669127732515335, -0.0016202371334657073, -0.038430966436862946, -0.037161827087402344, 0.03757689520716667, -0.03921559825539589, -0.044442709535360336, 0.007405060809105635, 0.0939476266503334, -0.05370049178600311, -0.046191032975912094, -0.038799501955509186, -0.035585418343544006, 0.05243876576423645, -0.01648913137614727, 0.014515514485538006, -0.027112135663628578, -0.04010559991002083, 0.07393216341733932, -0.057711198925971985, -0.03536524623632431, -0.019074011594057083, -0.04652484133839607, -0.021557943895459175, 0.010659846477210522, -0.015763990581035614, 0.04759302735328674, -0.11204405874013901, -0.07734846323728561, -0.035518910735845566, 0.07762079685926437, -0.0925896018743515, -0.0654602199792862, 0.07600057870149612, 0.10018889605998993, -0.0857989564538002, 0.03087080642580986, 0.006024203263223171, -0.0536663718521595, -0.08249621093273163, -0.03799020126461983, -0.030320176854729652, 0.046750910580158234, -0.05534052103757858, 0.06360763311386108, -0.03866855055093765, -0.05112255737185478, -0.023741863667964935, 0.08572330325841904, 0.09729845076799393, -0.09729339927434921, 0.04069293662905693, 0.08793424814939499, 0.09478862583637238, 0.04809924215078354, 0.03756028786301613, 0.07417861372232437, -0.028167517855763435, -0.0808531865477562, 0.052513618022203445, 0.012388301081955433, 0.02143448404967785, -0.06296397745609283, -0.014051564037799835, 0.05689983069896698, 0.0088504021987319, 0.028503727167844772, -0.012646962888538837, 0.007615101058036089, 0.001998316729441285, 0.06183233857154846, -0.11624360084533691, -0.035520680248737335, -0.0456748865544796, -0.021357499063014984, 0.048303522169589996, -0.02143244631588459, 0.09828560799360275, 0.03693260997533798, -0.08065122365951538, 0.004912198055535555, 0.014592080377042294, -0.016725698485970497, -0.045813966542482376, -0.02992972359061241, 0.03984319791197777, -0.012857707217335701, -0.06834407150745392, -0.07414674758911133, 0.04247656464576721, -0.028140302747488022, -0.10065100342035294, 0.004389173351228237, 0.01641572266817093, -0.014815982431173325, 0.09575523436069489, -0.057704050093889236, -0.02698945254087448, 0.013252411037683487, -0.033936962485313416, -0.0024464477319270372, 0.024601854383945465, 0.056836847215890884, -0.012400046922266483, 0.039211075752973557, 0.03849131241440773, -0.010272955521941185, -0.03750550001859665, -0.026711702346801758, 0.003314101370051503, -0.06270073354244232, -0.03244008123874664, -0.05405779927968979, -0.07829945534467697, -0.021500922739505768, 0.015285193920135498, 0.021309375762939453, 0.07832746207714081, 0.003951472695916891, -0.08332814276218414, -0.07429581135511398, 0.046913664788007736, -0.06206011772155762, -0.012052174657583237, 0.05636518448591232, 0.017076674848794937, -0.02966810017824173, 0.029000617563724518, -0.0020016711205244064, -0.0440884493291378, 0.0688025951385498, 0.07884366810321808, -0.09541737288236618, 0.07175467908382416, 0.015407799743115902, -0.025400720536708832, -0.0346132330596447, 0.09715845435857773, 0.04966038465499878, -0.0015915271360427141, 0.053392596542835236, 0.05443355441093445, -0.01675991341471672, 0.0415535531938076, 0.02271563746035099, -0.057990457862615585, -0.015194539912045002, 0.04705378785729408, -0.11825110763311386, 0.07626322656869888, 0.014265338890254498, -0.04328843578696251, 0.07423653453588486, -0.051035262644290924, 0.09364229440689087, 0.030783114954829216, -0.004992146044969559, -0.022404562681913376, -0.04922805726528168, -0.08276946097612381, 0.018460901454091072, -0.09761673212051392, 0.04084748774766922, 0.061641741544008255, 0.05894792079925537, 0.050528384745121, -0.005658446345478296, -0.041140057146549225, 0.04947284236550331, 0.04791422188282013, -0.0018920208094641566, -0.1151541993021965, 0.11128494888544083, -0.07314010709524155, -0.048447296023368835], [-0.05741235986351967, -0.011075004935264587, 0.06687714904546738, -0.0013431988190859556, 0.05089998617768288, -0.07419111579656601, 0.005520029459148645, -0.0233465489000082, 0.002778958762064576, 0.03838434815406799, -0.11013412475585938, -0.03350525349378586, -0.028860876336693764, -0.03790411725640297, -0.010609001852571964, -0.08089199662208557, -0.05877942964434624, -0.10951589792966843, -0.10636613517999649, -0.09643163532018661, -0.06802356243133545, -0.09871040284633636, -0.014448132365942001, -0.006496735382825136, 0.05866265669465065, -0.03907761722803116, 0.07045258581638336, -0.051853377372026443, -0.0031489848624914885, -0.03557469695806503, -0.000553755322471261, 0.029727689921855927, -0.006939595565199852, 0.007255462929606438, 0.028001153841614723, -0.0025401588063687086, 0.05476108193397522, 0.044596362859010696, 0.07283228635787964, 0.005967684090137482, -0.04064049571752548, -0.05213398486375809, -0.021936479955911636, -0.07531753182411194, 0.023805836215615273, -0.03879622742533684, 0.036436256021261215, 0.10447344928979874, -0.07591914385557175, 0.0011789525160565972, -0.0015546224312856793, -0.014257331378757954, 0.002539529697969556, -0.024964533746242523, 0.05732326954603195, 0.023709004744887352, -0.0899495780467987, 0.06899154186248779, 0.01881888322532177, -0.03946652635931969, 0.04064912721514702, -0.07427764683961868, 0.018355263397097588, 0.08303506672382355, -0.05263226479291916, 0.04058581590652466, 0.050860971212387085, -0.04658271372318268, -0.0750439465045929, 0.04765131697058678, -0.007591583300381899, -0.034417856484651566, -0.017846833914518356, -0.009203816764056683, -0.02157624065876007, -0.035125963389873505, 0.008295663632452488, -0.007253365125507116, 0.10311879962682724, -0.11230669915676117, 0.03350274637341499, 0.1055140420794487, 0.008725493215024471, -0.07599127292633057, -0.09637877345085144, 0.06812231987714767, -0.047281574457883835, 0.032167498022317886, 0.038928765803575516, 0.08720802515745163, 0.09451165795326233, -0.06796310096979141, -0.05767916515469551, -0.05391247943043709, 0.06671763956546783, 0.03400573879480362, -0.012159661389887333, 0.04044847935438156, 0.0003494664269965142, 0.07630805671215057, -0.10128165036439896, -0.03706751763820648, 0.004395489580929279, -0.006137071643024683, -0.09094405919313431, 0.032674454152584076, -0.03701433911919594, 0.0361601747572422, -0.08443640172481537, -0.11698328703641891, 0.05455300211906433, -0.009027063846588135, -0.007866657339036465, -0.008968554437160492, 0.03137630596756935, -0.1028372198343277, 0.0243473332375288, 0.03286059945821762, -0.05985977128148079, 0.007266844157129526, 0.005389651283621788, 0.019709264859557152, -0.056315828114748, 0.024754075333476067, -0.0708521157503128, 0.025094090029597282, 0.03374958410859108, -0.011015573516488075, 0.01873878575861454, 0.003690007608383894, 0.0702146515250206, 0.041453659534454346, -0.012614677660167217, -0.042057327926158905, 0.03830709680914879, -0.04077187925577164, -0.010143117979168892, 0.04163368046283722, 0.006304293405264616, -0.06844303011894226, -0.005672331899404526, 0.05683116614818573, 0.07760307192802429, -0.04579196497797966, 0.055872902274131775, -0.003723808331415057, -0.11296691000461578, -0.025118643417954445, 0.050202637910842896, 0.07113955169916153, -0.004659007769078016, -0.03682504966855049, 0.008493464440107346, -0.00990232452750206, -0.014292264357209206, -0.10955707728862762, 0.021532569080591202, 0.044329896569252014, -0.032889124006032944, -0.03500210493803024, 0.013860365375876427, 0.08849963545799255, 0.04285608232021332, -0.04175163432955742, 0.08307599276304245, 0.06542183458805084, -0.0016249455511569977, -0.05284934118390083, -0.04835139960050583, 0.058904364705085754, -0.012849024496972561, 0.0009302897960878909, -0.05101435258984566, -0.0660213753581047, 0.02617531456053257, 0.07380836457014084, 0.09230438619852066, 0.005327056162059307, -0.09497091174125671, -0.040602829307317734, -0.03618805110454559, 0.0028512601274996996, -0.024441761896014214, 0.06749780476093292, -0.047257453203201294, -0.026964528486132622, -0.049882471561431885, 0.026351748034358025, 0.022909147664904594, 0.02411734312772751, 0.03249882534146309, 0.0643291100859642, -0.030970467254519463, -0.02636715956032276, -0.06565184891223907, 0.06558205187320709, -0.02973616123199463, -0.08908814936876297, -0.036354340612888336, -0.04552510008215904], [0.061162225902080536, -0.027892908081412315, -0.04458991065621376, 0.017450988292694092, -0.021644793450832367, -0.03402327001094818, -0.02422185242176056, 0.040146395564079285, -0.04374400153756142, -0.058377645909786224, -0.056512411683797836, 0.04160679131746292, -0.01670488715171814, 0.02023124508559704, -0.0347260981798172, 0.04417351260781288, -0.004878252279013395, -0.06402942538261414, -0.00957095343619585, 0.07943384349346161, -0.027103062719106674, 0.05831547826528549, -0.0289516169577837, 0.016763128340244293, -0.01051241159439087, -0.037910934537649155, 0.01803675852715969, -0.026520438492298126, -0.07832416892051697, 0.017356615513563156, 0.020996883511543274, -0.10510352998971939, 0.016547290608286858, 0.08910301327705383, 0.02523893304169178, -0.006587301380932331, -0.12461940944194794, 0.04393516108393669, -0.006952359806746244, -0.012465695850551128, -0.00031855065026320517, 0.09021114557981491, 0.10303205996751785, 0.034414369612932205, -0.05689464509487152, -0.053561981767416, 0.003956313710659742, 0.03428978845477104, -0.026412764564156532, -0.09147736430168152, -0.0409245640039444, -0.09581860899925232, 0.01009480468928814, -0.007032737601548433, -0.022127501666545868, 0.014054657891392708, -0.04082529619336128, 0.09374077618122101, 0.060806237161159515, -0.07747939229011536, 0.015939146280288696, -0.07673431187868118, 0.05188407003879547, -0.08041039109230042, -0.023503901436924934, 0.04123999550938606, -0.11018887162208557, 0.007942617870867252, 0.05974637344479561, 0.034830715507268906, -0.00016016435984056443, -0.04700828716158867, 0.03261256963014603, -0.041028156876564026, 0.01934519037604332, -0.11772502213716507, 0.07498901337385178, 0.027904948219656944, 0.07722600549459457, 0.028918413445353508, 0.02726777456700802, -0.01891397126019001, -0.08607825636863708, 0.038620129227638245, 0.019678011536598206, 0.03879899904131889, -0.0010199296521022916, 0.025728430598974228, -0.04559700936079025, 0.004160646814852953, -0.02475251629948616, -0.03739122301340103, -0.08834464102983475, -0.04090830683708191, 0.05729714408516884, -0.01427538599818945, 0.0034084583166986704, -0.012808545492589474, -0.046203769743442535, 0.015191362239420414, 0.0027106264606118202, -0.02034347876906395, 0.007803980261087418, -0.05976956710219383, 0.0857476219534874, 0.028648577630519867, 0.034877702593803406, -0.03269663080573082, -0.0737331360578537, 0.009552878327667713, 0.032630011439323425, -0.0017763656796887517, 0.0012072932440787554, -0.0579490140080452, 0.044207796454429626, -0.026690779253840446, -0.009546744637191296, -0.11529199033975601, -0.06451988220214844, -0.04613948240876198, 0.013156245462596416, -0.024713175371289253, 0.002441523829475045, -0.05192244052886963, 0.02996612712740898, 0.005820075049996376, 0.019345641136169434, 0.0198744498193264, -0.06800924986600876, -0.021496661007404327, 0.040811456739902496, 0.06572766602039337, -0.0013889737892895937, -0.08763924241065979, -0.04217672720551491, -0.009014430455863476, 0.011801342479884624, 0.018668226897716522, -0.055736690759658813, 0.08108925819396973, -0.058325767517089844, -0.07956022769212723, 0.016771670430898666, -0.022663939744234085, -0.032341618090867996, -0.04372004047036171, -0.0030198991298675537, -0.033143021166324615, -0.03311401978135109, -0.024045534431934357, 0.054337725043296814, 0.0349917970597744, -0.07098916172981262, -0.018185889348387718, 0.06723952293395996, -0.0019063287181779742, -0.054091472178697586, -0.06000233069062233, -0.02098679170012474, 0.005225328262895346, -0.004798002541065216, -0.0017754307482391596, 0.014304808340966702, -0.03746866434812546, -0.05004766210913658, -0.05796943977475166, 0.005981157533824444, -0.07413973659276962, -0.05694276839494705, 0.06838643550872803, 0.07869809120893478, -0.042988136410713196, 0.05107569321990013, 0.06085021421313286, 0.01206519827246666, 0.015134335495531559, -0.0350043848156929, 0.015935523435473442, -0.004005298018455505, 0.07613052427768707, -0.021854178979992867, 0.0962676927447319, -0.007724257651716471, 0.028142917901277542, -0.008520020171999931, -0.05913854017853737, -0.0002831510500982404, -0.04049799591302872, -0.019226640462875366, -0.051657211035490036, -0.03912442550063133, -0.00974639505147934, -0.003508450463414192, -0.020900778472423553, 0.05185968428850174, -0.013079456984996796, -0.024578582495450974, 0.045524898916482925, -0.005495517048984766, -0.08363594859838486], [0.020409099757671356, 0.01883024163544178, 0.06112881749868393, -0.05704928934574127, 0.013911392539739609, 0.02481268346309662, 0.04047365486621857, -0.06096247211098671, -0.05247489735484123, 0.0038615292869508266, -0.08158770948648453, -0.010808306746184826, 4.159895615885034e-05, -0.09557399153709412, -0.024909410625696182, 0.08932070434093475, 0.047268301248550415, 0.015548400580883026, -0.04760654643177986, 0.07455389946699142, -0.008195217698812485, 0.057187218219041824, -0.02842661738395691, 0.021475154906511307, -0.1039859727025032, -0.03875091299414635, -0.11966735124588013, -0.0028379277791827917, -0.07448472082614899, 0.06412626057863235, 0.03420250490307808, -0.027270708233118057, -0.05650801211595535, -0.0644247829914093, 0.03797616437077522, -0.07984859496355057, -0.0765642374753952, 0.039221011102199554, 0.017730021849274635, 0.06377177685499191, -0.015469478443264961, 0.09727894514799118, -0.11575198918581009, 0.04633785039186478, -0.012625949457287788, -0.029665235430002213, 0.003347073681652546, -0.09752273559570312, 0.03797466307878494, -0.005206359084695578, 0.010900464840233326, -0.057663217186927795, -0.05605272576212883, 0.002994302660226822, 0.08120192587375641, -0.023960448801517487, 0.02487516775727272, -0.09506120532751083, -0.08826690167188644, -0.05865642800927162, 0.00448141572996974, -0.08859101682901382, -0.04952721297740936, -0.020137110725045204, 0.001545980223454535, -0.017233727499842644, -0.025707241147756577, 0.06912510097026825, 0.06585687398910522, -0.017720291391015053, -0.03362095728516579, -0.06326806545257568, -0.036121029406785965, -0.07921268790960312, -0.03872748836874962, -0.08355925232172012, -0.0445794053375721, -0.09213142096996307, 0.004154611378908157, 0.008079435676336288, 0.013888233341276646, -0.10128909349441528, 0.018006378784775734, 0.012338622473180294, 0.05208500102162361, -0.019510237500071526, 0.00854938942939043, -0.05358413606882095, -0.028278617188334465, 0.04173823818564415, -0.04914284124970436, 0.04319913312792778, 0.07281626760959625, 0.02621108666062355, 0.04051695764064789, -0.08471287041902542, 0.0049492791295051575, -0.003917014691978693, 0.03544735908508301, 0.08429230749607086, 0.017953451722860336, -0.015867598354816437, -0.006479522213339806, 0.07882420718669891, -0.019721105694770813, -0.006474655587226152, 0.07616645842790604, -0.1276084929704666, 0.034777410328388214, -0.0468834713101387, -0.08698659390211105, -0.06733930110931396, -0.04669683054089546, 0.05099237337708473, -0.03411242365837097, 0.01917383261024952, -0.043053824454545975, -0.04799813777208328, 0.09409910440444946, -0.04541937634348869, -0.07892922312021255, -0.04365938901901245, -0.06326772272586823, -0.011501201428472996, 0.006368726957589388, 0.021427880972623825, -0.11928009986877441, 0.04148371145129204, -0.0137361204251647, -0.011943263001739979, -0.022800898179411888, -0.012722752057015896, -0.016490643844008446, 0.019826922565698624, 0.06178690865635872, 0.0434061624109745, 0.03740137815475464, -0.009817695245146751, -0.016255592927336693, 0.07733836024999619, -0.026840360835194588, 0.031086277216672897, 0.056428030133247375, 0.0258000660687685, -0.034727543592453, -0.04465145245194435, -0.03721313551068306, -0.060610488057136536, -0.035651929676532745, -0.01680656522512436, 0.03344859555363655, -0.08819689601659775, 0.025652557611465454, 0.02053246647119522, 0.020360536873340607, 0.05418331176042557, -0.020339583978056908, -0.042056262493133545, -0.028302177786827087, -0.013447878882288933, -0.04187076911330223, -0.02167181856930256, -0.050365496426820755, 0.03480599820613861, 0.0035056895576417446, 0.02129197120666504, 0.06793912500143051, -0.0015881146537140012, -0.06143464148044586, -0.0921049639582634, 0.0746869221329689, -0.0008082488784566522, 0.0012166210217401385, 0.010396684519946575, 0.035598061978816986, 0.016174649819731712, 0.0051911924965679646, 0.07016455382108688, -0.10958592593669891, -0.006831230130046606, -0.0008903092239052057, -0.015957165509462357, -0.07384529709815979, 0.005881807766854763, 0.05895545706152916, 0.04283369332551956, -0.02610529214143753, -0.07772909104824066, -0.10639272630214691, -0.014522711746394634, 0.020696932449936867, -0.10665824264287949, -0.015050986781716347, -0.05086420476436615, -0.04970813915133476, 0.035533975809812546, -0.08392861485481262, 0.05594451725482941, -0.03247912973165512, 0.00012989863171242177], [0.028953267261385918, 0.039513617753982544, -0.006354575045406818, -0.02583293430507183, 0.04905929043889046, -0.01237370166927576, 0.012315815314650536, 0.06724575161933899, -0.035008400678634644, -0.021051965653896332, -0.03032812662422657, -0.051742199808359146, 0.021784204989671707, -0.1189776360988617, 0.06567329913377762, -0.036194298416376114, 0.04677876830101013, 0.005277539603412151, 0.07582293450832367, -0.0607697069644928, 0.028272109106183052, 0.014964625239372253, -0.02563900128006935, 0.018260877579450607, -0.06313072890043259, 0.02032039500772953, -0.005427992902696133, 0.07442151010036469, -0.10321909189224243, 0.06151770055294037, 0.005276874173432589, -0.01751578412950039, -0.0418674610555172, -0.042938150465488434, -0.01847534067928791, -0.04965486750006676, -0.07886741310358047, 0.0020706194918602705, 0.023841960355639458, 0.016112415120005608, 0.08126017451286316, -0.029606161639094353, 0.04842817038297653, -0.03055301494896412, 0.024551870301365852, -0.04735424369573593, -0.0729794055223465, -0.09454265981912613, 0.0023198742419481277, 0.015510693192481995, -0.008569716475903988, -0.08485014736652374, -0.06396082043647766, -0.003880737815052271, 0.016002075746655464, -0.057739585638046265, 0.020050982013344765, -0.02476068213582039, -0.04524270445108414, -0.055628348141908646, 0.006394601427018642, -0.007377938367426395, -0.021568158641457558, -0.04838050901889801, -0.04710022360086441, -0.049343377351760864, -0.029068412259221077, -0.05744848772883415, 0.03472144529223442, -0.02059992589056492, -0.0694127157330513, -0.03378235548734665, -0.0399305634200573, 0.06879726052284241, 0.02899751625955105, 0.005749116186052561, -0.05924789607524872, 0.009356621652841568, 0.01625785604119301, 0.0749114453792572, 0.010612649843096733, -0.03276020288467407, 0.03767632693052292, 0.005639520473778248, 0.036655716598033905, -0.016917040571570396, 0.04395619407296181, 0.08892402797937393, 0.002756822621449828, 0.004603922832757235, 0.10659480839967728, -0.02782786265015602, -0.013451172970235348, 0.00966669525951147, 0.05504496768116951, 0.007815411314368248, -0.004903515800833702, 0.029021404683589935, -0.022108307108283043, -0.01637512817978859, -0.046958331018686295, 0.0976119115948677, -0.06111999973654747, -0.07331708818674088, 0.003648340469226241, -0.006667335983365774, 0.0230058953166008, -0.10292401909828186, -0.054761048406362534, -0.05359318107366562, -0.04423590749502182, 0.016965890303254128, -0.0814523994922638, 0.11293401569128036, 0.10952634364366531, 0.019230149686336517, -0.022787639871239662, -0.03463434427976608, 0.057775501161813736, 0.011584198102355003, 0.08439543843269348, -0.0324915274977684, 0.050504639744758606, 0.06069901958107948, 0.0045770760625600815, 0.01933935098350048, 0.025807902216911316, 0.011261890642344952, -0.060166001319885254, -0.0847611054778099, 0.02952350117266178, -0.06233631446957588, 0.06959524005651474, -0.05826786532998085, -0.03554312139749527, -0.0454588308930397, -0.009219815954566002, -0.08526928722858429, -0.014993144199252129, 0.008172229863703251, 0.025258541107177734, 0.03833137825131416, 0.06492680311203003, -0.0075925188139081, -0.06010136008262634, 0.019290275871753693, -0.09095519036054611, -0.0522053986787796, 0.08909612894058228, -0.042768921703100204, 0.05666637420654297, 0.01604551263153553, 0.03240030258893967, -0.011687863618135452, 0.006125243846327066, -0.03760899603366852, -0.04162643477320671, -0.00025147790438495576, -0.007425849791616201, -0.055313777178525925, -0.04908034950494766, -0.04798299819231033, 0.014227671548724174, -0.0003540620382409543, 0.03558710217475891, 0.019994908943772316, 0.037831325083971024, 0.006509182974696159, -0.07059509307146072, 0.07467725872993469, -0.04347270727157593, 0.02836083620786667, 0.04296271875500679, -0.06807924062013626, 0.024340244010090828, -0.07695543766021729, -0.009663734585046768, -0.0015383850550279021, -0.05308309569954872, -0.04625717177987099, 0.0030312391463667154, -0.01257422473281622, -0.03213966265320778, -0.11315962672233582, 0.09907520562410355, -0.0797257050871849, 0.04015273600816727, -0.04067331179976463, 0.009619555436074734, 0.020954113453626633, 0.02056313119828701, -0.10330409556627274, -0.024525834247469902, -0.03456416353583336, 0.05871067941188812, 0.0715540274977684, -0.011128670535981655, 0.03858080878853798, 