{"params": {"Dense_0": {"bias": [-0.029403895139694214, 0.010809375904500484, 0.013077856972813606, -0.09640254825353622, -0.016457058489322662, 0.07928377389907837, -0.08419614285230637, 0.2260415405035019, -0.009717344306409359, -0.05737826228141785, 0.027079740539193153, 0.02364705502986908, 0.044317372143268585, -0.07642664760351181, -0.035706527531147, -0.07441933453083038, 0.0003371529746800661, 0.07523780316114426, -0.1200578361749649, -0.13682271540164948, -0.021673070266842842, -0.06772872060537338, 0.033326126635074615, -0.09481430798768997, -0.07349099218845367, -0.10878019034862518, 0.11816610395908356, 0.025140270590782166, -0.07646192610263824, 0.028750598430633545, 0.014593484811484814, 0.07710816711187363, 0.06568088382482529, -0.005531060975044966, 0.04548811912536621, 0.011508648283779621, 0.08930003643035889, -0.05817846581339836, -0.033726081252098083, -0.07022203505039215, -0.005996259395033121, 0.02391948737204075, 0.02125128172338009, 0.06831587105989456, -0.02198396995663643, -0.058957938104867935, 0.1285010576248169, 0.004752666223794222, 0.034338269382715225, -0.020632894709706306, 0.033944323658943176, -0.10945706069469452, 0.016309518367052078, -0.09030835330486298, -0.09593108296394348, -0.010102393105626106, -0.10607538372278214, -0.03006918355822563, 0.00476730614900589, 0.05396052077412605, -0.03629891946911812, -0.059985268861055374, -0.1130419597029686, -0.029343942180275917, -0.0033893827348947525, 0.004881511442363262, 0.07594824582338333, -0.08081920444965363, -0.00426243944093585, -0.07362918555736542, -0.09232858568429947, -0.10647066682577133, -0.08005508035421371, 0.025747472420334816, -0.045683156698942184, 0.003970243502408266, 0.040674839168787, 0.012206108309328556, -0.09266218543052673, -0.05189177393913269, 0.05547192320227623, -0.011708567850291729, 0.11805858463048935, 0.0024436202365905046, -0.03776796534657478, -0.06711200624704361, 0.08736693114042282, -0.08414734899997711, 0.05065969005227089, -0.03720874711871147, 0.02642085961997509, -0.03908473253250122, -0.07786010205745697, -0.030978642404079437, -0.07875491678714752, 0.009973783046007156, -0.040678150951862335, -0.048995718359947205, -0.03040347993373871, -0.039299990981817245, 0.0667794793844223, -0.03917580842971802, -0.053994301706552505, -0.02665751986205578, -0.03989765793085098, -0.010226385667920113, -8.475087815895677e-05, 0.029477832838892937, 0.004766786936670542, -0.03270767256617546, 0.02107640542089939, -0.0022695171646773815, -0.11342783272266388, -0.06785352528095245, 0.08804978430271149, -0.017001396045088768, 0.08719448745250702, -0.06631182879209518, -0.05045493692159653, 0.041671790182590485, 0.06657682359218597, -0.054591428488492966, -0.016198810189962387, -0.0773826614022255, 0.045217983424663544, 0.06209982931613922, -0.044928938150405884, -0.10861539840698242, 0.030186384916305542, -0.01261574774980545, -0.05980764329433441, 0.061263520270586014, -0.018209340050816536, 0.05160733684897423, -0.05559680983424187, -0.11890608817338943, -0.11064650863409042, -0.002040740568190813, -0.09778807312250137, 0.01019418053328991, -0.11603649705648422, 0.09225327521562576, -0.05532391369342804, 0.015571270138025284, -0.07796594500541687, 0.2045792043209076, 0.00047234425437636673, -0.050773002207279205, 0.051640499383211136, -0.03091094270348549, 0.03669963777065277, -0.01409119926393032, -0.017454300075769424, -0.03710206598043442, -0.020041409879922867, -0.04082725942134857, -0.11932529509067535, -0.017051538452506065, 0.03002791292965412, 0.22685548663139343, -0.07670680433511734, 0.014452891424298286, -0.08717725425958633, -0.05394723638892174, 0.05774850398302078, -0.02809816598892212, -0.01294018980115652, 0.039112530648708344, 0.06208430603146553, 0.02979087084531784, -0.03526479750871658, -0.09504909068346024, 0.04733693227171898, 0.012376612052321434, -0.03571237623691559, -0.00065883673960343, -0.06330861151218414, 0.06948025524616241, 0.048456646502017975, -0.05111130699515343, 0.010728765279054642, -0.016935423016548157, 0.059787455946207047, -0.1061084046959877, 0.09422308951616287, 0.004981661681085825, -0.08264899998903275, 0.058332059532403946, -0.03536960855126381, 0.037629321217536926, -0.09436038881540298, 0.06613902747631073, -0.036667950451374054, -0.10449221730232239, -0.08805301040410995, 0.09652571380138397, 0.051974017173051834, 0.030591674149036407, -0.06458476930856705, -0.03381163254380226, 0.07403126358985901, -0.11413927376270294, -0.06340485066175461, -0.02574743889272213, 0.05538568273186684, 0.049738649278879166, 0.10333379358053207, 0.05535222589969635, 0.01707655005156994, -0.06284254044294357, -0.09285268187522888, -0.028719164431095123, 0.09518162161111832, -0.060991398990154266, -0.04791828989982605, 0.01905299536883831, 0.05993445962667465, -0.01334281638264656, -0.035040151327848434, 0.02706305682659149, 0.013922457583248615, -0.0802711546421051, 0.03932327404618263, 0.045102257281541824, -0.0413525216281414, 0.008790841326117516, -0.07286308705806732, 0.0674147754907608, 0.07316385954618454, -0.048843588680028915, 0.07249245792627335, 0.023020436987280846, 0.01406087912619114, 0.0591849759221077, -0.08282884210348129, -0.05667063593864441, -0.06660371273756027, -0.004822947084903717, 0.102082759141922, -0.01927214302122593, -0.0672028660774231, -0.11982434242963791, -0.03963140770792961, 0.0019261512206867337, -0.0006367270834743977, -0.09046250581741333, -0.10031662881374359, 0.06079881638288498, -0.08598766475915909, -0.06902720779180527, 0.05788213014602661, 0.008037474006414413, -0.06696362793445587, -0.11026646941900253, 0.03459833562374115, 0.04057811200618744, -0.025530874729156494, 0.013137071393430233, 0.24132663011550903, -0.018384652212262154, -0.015995170921087265, 0.0352930910885334, 0.022143399342894554, -0.11974917352199554, 0.02303161658346653, 0.046691857278347015, 0.02041621506214142, 0.06789091229438782, -0.0526227243244648, -0.10951152443885803, -0.06631582975387573, -0.0518396757543087, 0.06448160856962204, -0.0613500140607357, -0.039102114737033844, -0.0964961051940918, -0.06837902963161469, -0.023700304329395294, -0.04369581863284111, 0.056041646748781204, 0.07034796476364136, -0.07174952328205109, -0.08279281854629517, -0.007584193721413612, -0.06377661228179932, 0.04343201220035553, 0.025355160236358643, -0.0194393303245306, 0.020971937105059624, -0.038801874965429306, 0.04583391547203064, -0.04229409992694855, -0.09787652641534805, 0.06462772190570831, 0.05606778338551521, 0.07964601367712021, -0.0427311547100544, -0.03833412006497383, -0.0841531902551651, 0.044545531272888184, -0.013056617230176926, 0.009589056484401226, -0.09777063876390457, 0.07731431722640991, 0.06357631087303162, -0.10409615933895111, 0.056401077657938004, -0.0238544512540102, -0.0836310088634491, -0.10784351825714111, 0.02405175194144249, -0.056390393525362015, 0.028974104672670364, 0.016050172969698906, 0.03213990107178688, 0.03158710524439812, -0.06406493484973907, 0.04352007061243057, 0.008111412636935711, -0.10502264648675919, -0.04119720309972763, 0.047812968492507935, 0.0980084016919136, -0.07521279901266098, -0.07139887660741806, 0.07397355884313583, -0.09293222427368164, 0.009827030822634697, -0.0428018681704998, 0.0038842016365379095, -0.009528196416795254, 0.02286328747868538, 0.0744900032877922, -0.024577023461461067, 0.007061413023620844, 0.0208313949406147, 0.07187841832637787, 0.07371845841407776, 0.06136789917945862, 0.05915655940771103, -0.031686317175626755, 0.09293770045042038, -0.10917927324771881, 0.09766267240047455, 0.02208578959107399, -0.0024212603457272053, 0.028624553233385086, 0.045452117919921875, 0.015663014724850655, 0.04361765459179878, -0.02628156542778015, -0.06939759850502014, -0.0409548319876194, -0.05068565160036087, 0.08407130092382431, 0.0683804601430893, 0.2273358702659607, -0.09711022675037384, -0.09399155527353287, 0.032966144382953644, -0.009697030298411846, -0.002433133777230978, 0.009255745448172092, -0.027113603428006172, -0.09399615228176117, -0.04634460061788559, 0.011283880099654198, -0.08796966820955276, -0.11819487810134888, -0.05586076155304909, -0.13261045515537262, 0.05375617742538452, 0.057386670261621475, -0.0853458046913147, 0.0450153723359108, 0.019779197871685028, -0.04548308625817299, -0.11169783771038055, 0.05446726456284523, -0.05793514847755432, -0.02876141108572483, -0.0478605218231678, 0.07174668461084366, -0.042788006365299225, 0.02967740222811699, -0.07386165112257004, 0.03219010680913925, 0.01632617972791195, -0.036303602159023285, -0.06709539890289307, -0.08370120078325272, 0.1330443024635315, -0.10813415050506592, -0.09510291367769241, 0.02326892875134945, 0.09720078110694885, -0.04150238633155823, -0.02941553108394146, -0.07394378632307053, 0.12026458233594894], "kernel": [[-0.9115281105041504, 0.12435273081064224, -1.3128472566604614, -0.24127808213233948, 0.921604335308075, 1.039264440536499, -0.05828169733285904, 0.02145463041961193, 0.4186992645263672, 0.3123595416545868, 1.2906030416488647, -0.551856279373169, -0.40665456652641296, 0.27290108799934387, -0.14026126265525818, 0.21838034689426422, -0.19271589815616608, -0.7070369124412537, -0.34639090299606323, -0.861696720123291, 0.3527117967605591, -1.5497751235961914, 0.3460875451564789, 1.5640791654586792, -1.0972089767456055, 0.10214152932167053, 0.21728838980197906, 0.2979365289211273, 0.14070762693881989, -1.0522762537002563, -0.9213976860046387, 0.42843616008758545, -1.2802258729934692, -0.9904129505157471, -0.9703553318977356, 0.43526551127433777, -0.24138738214969635, -0.5513095855712891, 0.09228270500898361, -0.13749326765537262, -0.3008003830909729, -0.42155030369758606, 1.393568992614746, 0.12404018640518188, -1.143312931060791, 0.48349782824516296, -0.9762061834335327, -0.26884838938713074, 0.32843688130378723, -0.30758798122406006, 0.14862610399723053, -0.4933781921863556, 0.6904343366622925, 0.7951802611351013, 0.02273561805486679, 0.23068740963935852, -0.33699697256088257, 1.4868768453598022, -1.271965742111206, -0.6338258981704712, -0.824287474155426, 0.6564324498176575, 0.30957528948783875, 0.29112955927848816, 0.06600606441497803, -0.24102149903774261, 0.07982863485813141, 0.35540449619293213, -1.2034848928451538, 0.29700273275375366, 0.348407119512558, -0.8304751515388489, 0.07653113454580307, 0.02080601081252098, -1.4244050979614258, 0.08733399957418442, -0.5579374432563782, 0.7489917278289795, 0.6869781613349915, 0.05471120774745941, 0.7628654837608337, 0.40668877959251404, 0.5945565104484558, -0.6883352398872375, 1.227725625038147, -0.26121431589126587, 1.4383782148361206, 0.5981577038764954, 0.7268869876861572, -1.231338620185852, 0.15586110949516296, 0.9985266923904419, -0.0807025358080864, -0.5012427568435669, -1.2357426881790161, -0.5451735854148865, -0.0885561928153038, -0.6882475018501282, 0.6554794311523438, -0.7451925277709961, 0.18153178691864014, 0.7231894135475159, -0.2954835891723633, -0.31446725130081177, -0.5460070967674255, 0.40526074171066284, 0.18549704551696777, -0.8748487234115601, -1.3469027280807495, -0.5837587714195251, 0.3113337755203247, -0.24228116869926453, -0.9814128875732422, -0.4453216791152954, 0.6764716506004333, 0.0932769700884819, 0.23738567531108856, -0.1612176150083542, -0.700636088848114, -0.1712903082370758, 0.6500720977783203, 0.9500184059143066, -0.3591727912425995, -0.07050669938325882, 1.1326223611831665, 0.1303221434354782, 1.1572198867797852, 0.19830889999866486, 0.6839350461959839, 0.03345557674765587, 0.4006226062774658, 0.04925798252224922, 0.5173881649971008, -0.8450912833213806, 0.19052235782146454, -0.3602462410926819, -0.6102345585823059, 0.25727295875549316, 0.8906837105751038, -0.4819846451282501, -0.6911861300468445, 0.3207876980304718, 0.119191475212574, 1.4321485757827759, 0.42546817660331726, 0.15375909209251404, 0.17371463775634766, -0.07310881465673447, 0.5550710558891296, -0.25749608874320984, -1.1607874631881714, 0.10253388434648514, 0.2118980586528778, -1.2875324487686157, -0.47552618384361267, -0.5751544833183289, -0.2557041049003601, 0.20217224955558777, -0.7250120639801025, 0.055681850761175156, -0.6369687914848328, -1.4900926351547241, -0.21539078652858734, -0.12289460003376007, 1.133388638496399, 0.7504756450653076, -0.042822498828172684, -0.2834387719631195, 0.3163221776485443, -1.007972240447998, -0.6860069632530212, -0.8503518104553223, -0.3935369551181793, 0.7776324152946472, -0.7060422301292419, 0.29770880937576294, 0.5886783599853516, -0.5440545082092285, -1.0177885293960571, -0.03118063695728779, 0.19886253774166107, -0.2627205550670624, -0.06664470583200455, 0.726069986820221, -0.5100803971290588, -1.4181009531021118, 1.0378708839416504, 0.40671423077583313, -0.2302715927362442, 0.18624144792556763, 0.5062983632087708, -0.015283660031855106, -0.36045610904693604, 0.6379584074020386, 0.25313815474510193, 1.1520107984542847, 0.8661580681800842, 1.3285061120986938, -0.37055113911628723, 0.16171744465827942, -0.4062210023403168, 0.38143202662467957, 1.0632383823394775, 0.7221055030822754, 0.10086529701948166, -0.3291448652744293, 0.8255360722541809, -0.4824647903442383, -0.5559565424919128, 1.4895305633544922, -0.19238951802253723, 0.30650410056114197, -1.5720125436782837, -1.3762009143829346, 0.5807074904441833, -0.7941951155662537, -0.6851693391799927, 1.0683612823486328, 1.2436363697052002, 0.24150137603282928, 1.286246418952942, -0.005352537613362074, -0.34926658868789673, 0.8749088048934937, -0.07620139420032501, -0.531497061252594, -0.3090283274650574, -0.9601002335548401, -0.2435488998889923, 0.0897965282201767, -0.4851810336112976, 0.04159938171505928, -0.28033533692359924, -0.2208152413368225, -0.09047822654247284, -0.18278072774410248, -0.35793307423591614, -0.5219164490699768, -0.9654250144958496, -0.4753513038158417, 0.6615070700645447, -0.3282431364059448, 0.41509613394737244, 0.1440313756465912, 1.0762914419174194, 0.18258236348628998, 0.12286388874053955, -0.5706633925437927, -0.9615036249160767, 0.6677352786064148, -0.2283620983362198, -0.8883707523345947, -0.9302776455879211, 0.1588928997516632, -0.8504907488822937, 0.3492623567581177, -0.879626452922821, -0.04462510347366333, 0.09194501489400864, -0.8852787017822266, -0.05591121315956116, -0.6014607548713684, 0.14337188005447388, 0.6108654737472534, 0.5784270167350769, -1.2575616836547852, 0.4041566252708435, 1.0669821500778198, -0.342611700296402, -1.0528771877288818, 0.3055245578289032, 0.3250831365585327, 0.38548529148101807, 0.8136289715766907, -0.2529902756214142, 1.3458435535430908, 0.5544894337654114, -0.4052198529243469, 0.5288054347038269, 0.73707515001297, 0.8607551455497742, 0.18400348722934723, -1.5134179592132568, -0.6977725028991699, -0.7645801901817322, 0.3190028667449951, 0.1794223189353943, 0.05570472031831741, -0.2700045108795166, 0.39863961935043335, -0.29639193415641785, -0.23982810974121094, 0.354194313287735, -0.9931800365447998, 0.3500434458255768, -0.033144816756248474, -0.49099496006965637, 0.37082841992378235, -0.8640069365501404, 0.771167516708374, -0.6554919481277466, -0.3860872983932495, 0.17703936994075775, -0.35328221321105957, -0.2563774883747101, 0.2180767059326172, 0.9709209203720093, -0.4418644607067108, 0.7314885854721069, 0.7455793023109436, 0.2936164438724518, 0.16407030820846558, 0.5203485488891602, 0.8342425227165222, -0.35458555817604065, -0.078166663646698, -0.8416352868080139, 0.14182151854038239, -0.7712011933326721, 0.3034861385822296, -0.9830771088600159, 0.4004571735858917, 0.8853052258491516, 0.7447815537452698, -0.714038074016571, -0.32467013597488403, 0.8531415462493896, 0.6637620329856873, -0.21801260113716125, 0.08046901971101761, -0.3245130777359009, -1.1163628101348877, 0.03652404993772507, -0.7292671203613281, -1.0716220140457153, -0.997972846031189, -1.4401841163635254, -0.44230663776397705, -0.38795676827430725, -0.5052230358123779, 0.5949164032936096, -0.46180468797683716, -0.37653404474258423, -0.2588178813457489, 0.3367964029312134, -0.2370334416627884, -1.2533848285675049, -0.9971005916595459, -1.434097170829773, -1.561029076576233, 0.2491271197795868, 1.0786067247390747, -0.4798462390899658, -1.1334717273712158, -1.1258306503295898, 1.1150672435760498, 0.014289001934230328, -1.3044559955596924, -0.22527429461479187, -0.07608086615800858, 0.441133588552475, 0.1357714980840683, -0.43524229526519775, -0.7357715368270874, -0.10678370296955109, -0.7566999197006226, 0.35458770394325256, 0.933990478515625, 0.034253112971782684, -0.541159451007843, -0.1612377017736435, 0.12905171513557434, -0.8346019983291626, -0.20973306894302368, 1.008993148803711, -0.12491381168365479, -0.11311760544776917, -0.4735308289527893, -0.036646123975515366, -0.008188829757273197, 0.07069012522697449, 0.892978310585022, 0.9426124095916748, 0.0832783579826355, 0.6652357578277588, -0.9275538921356201, 1.4148980379104614, -0.40928393602371216, -0.278412789106369, -0.5350346565246582, 0.19143058359622955, -0.24893984198570251, -0.5334232449531555, 0.2024572342634201, -1.1410943269729614, -0.4295411705970764, -1.3126722574234009, 0.2510319948196411, -0.27028217911720276, -1.3474457263946533], [0.44624894857406616, 0.3957520127296448, -0.047988809645175934, -0.9042774438858032, 0.5113635063171387, -0.3281062841415405, 0.2763984203338623, -0.0030415463261306286, 0.5444053411483765, 0.5575504899024963, 0.22359630465507507, -1.0926015377044678, 0.879494845867157, -0.12856143712997437, -0.3135198950767517, -0.060952719300985336, 0.16010215878486633, -1.0191614627838135, 0.7132550477981567, -0.637869656085968, 0.7989509105682373, 0.3848196268081665, -0.39983853697776794, -0.02356974594295025, -0.7070074677467346, 0.4139673411846161, 0.21545660495758057, 0.4324309825897217, 0.8122801184654236, 0.09612342715263367, 0.5983359813690186, -0.4123227596282959, 0.8344086408615112, 0.6020740270614624, 0.5233156681060791, -0.49924901127815247, 0.3075391352176666, -0.7060929536819458, -1.0977994203567505, 0.19215187430381775, 0.19321440160274506, 0.4754394590854645, -0.8493987321853638, -0.7597739696502686, -0.5513609051704407, 1.4934945106506348, 0.8564055562019348, -0.7114570140838623, -0.1117020845413208, -0.6649212837219238, -0.13694526255130768, -0.04550507664680481, 0.24572105705738068, 0.35544416308403015, -0.5023512244224548, 0.726344108581543, -0.3111060857772827, 0.5097042322158813, 0.04250938817858696, 0.8496819138526917, -0.20878422260284424, -0.8488081097602844, -0.06594245880842209, -0.42984625697135925, 0.2907382845878601, 0.11136246472597122, 0.2891063094139099, -1.3306618928909302, 0.5406599044799805, -0.1670142561197281, -0.18474538624286652, -0.20644333958625793, -0.6652963757514954, 0.17089809477329254, -1.0847481489181519, 0.031682051718235016, 1.1383986473083496, 0.8055465221405029, -0.45163583755493164, -0.13936275243759155, 0.68768310546875, -0.554795503616333, -0.31999507546424866, 0.06121768429875374, 1.0084317922592163, 0.8972814679145813, -0.5386223196983337, -1.5589982271194458, -0.05407026410102844, -1.477586269378662, -1.3598973751068115, 0.5860872268676758, 0.1165446862578392, 0.36462458968162537, 0.5005919933319092, 0.9475328922271729, -0.15393345057964325, -0.4855622947216034, -0.479055792093277, -0.4277377426624298, -0.7384989857673645, -1.087138056755066, 0.7105265259742737, 0.4100528657436371, 0.0561787448823452, -1.1440187692642212, 1.1363632678985596, -0.20614035427570343, -0.7878791689872742, -0.24815092980861664, 0.2446291297674179, 0.6044872999191284, 1.1396923065185547, -0.7329826951026917, 0.7593996524810791, -0.054995097219944, 0.5391049981117249, -0.28196123242378235, -0.27812808752059937, -0.7612783908843994, -0.7884547114372253, -1.039846658706665, 1.0219829082489014, -0.2761384844779968, 1.109055757522583, 0.45233890414237976, -0.5142340660095215, 0.9010652303695679, -0.016476355493068695, -1.2185544967651367, 0.5382267236709595, 0.9947991967201233, -0.2232796996831894, -0.11084533482789993, -0.9446560740470886, 0.9606655836105347, 0.3744143843650818, -0.9586493372917175, 0.9016627073287964, -0.35491061210632324, 0.7557198405265808, -0.4939430356025696, 0.8794927597045898, 1.3851075172424316, -0.9688093066215515, -0.227792426943779, -0.9259081482887268, 0.6338923573493958, -0.19373680651187897, 0.7378420233726501, 0.6391733288764954, -0.2285713106393814, 0.0051306611858308315, -1.113289713859558, -0.4298318028450012, -0.25329527258872986, -1.1207032203674316, 0.5645772218704224, 0.4704897999763489, -0.056929927319288254, -0.1822313815355301, 0.7167591452598572, 0.33314934372901917, -0.6780913472175598, -0.4704135060310364, 0.9374295473098755, 0.4050857424736023, -0.9290378093719482, 0.685035765171051, 0.002120049437507987, 1.1409306526184082, 0.8189957737922668, -0.1019548550248146, 0.4343356490135193, 1.2877304553985596, -0.7030773162841797, -0.6231219172477722, 0.8343504667282104, 0.6181291937828064, 0.29217904806137085, -0.9576171636581421, -1.1929587125778198, -0.3097899258136749, -0.026639830321073532, -1.180845022201538, -0.15908551216125488, -0.08102526515722275, -0.6580230593681335, 0.6216272711753845, -0.018632162362337112, 0.37619587779045105, 0.47199299931526184, 0.3457527160644531, -0.3122892677783966, -0.9647727012634277, 0.5299867987632751, -0.32037368416786194, -0.2697376310825348, 0.006358777172863483, -0.07693804800510406, -0.4401424825191498, -1.1787315607070923, -0.01572507433593273, -0.4827097952365875, -0.8058735132217407, 0.6067343950271606, 0.705909252166748, 1.208442211151123, -0.2537350356578827, -0.056539278477430344, -0.7536158561706543, 0.009077198803424835, -0.8448044061660767, 1.4085527658462524, 0.08871106058359146, 0.29988598823547363, -0.802034854888916, -0.06543783098459244, -1.5930712223052979, 1.3970452547073364, -0.6357746124267578, -0.2756142020225525, 0.21824191510677338, -0.7177261710166931, 0.6528511643409729, 0.624482274055481, 0.48381897807121277, -0.5936598181724548, 0.2340850830078125, -0.8275151252746582, 0.3446936309337616, 0.8132180571556091, 0.9622682929039001, -1.1746578216552734, -0.8754820823669434, -0.3848976492881775, 0.2152465581893921, 0.489035040140152, -0.28674036264419556, 0.839971661567688, 0.3675299286842346, -0.14332830905914307, 0.5497512221336365, 0.4211120009422302, -0.6648502945899963, -0.08212077617645264, 0.5165148377418518, 0.5548586845397949, 0.35444241762161255, 1.2580643892288208, -0.9440110325813293, -0.7144678235054016, -0.5319840908050537, -1.3370457887649536, -0.36106324195861816, -0.7451753616333008, -1.0390139818191528, -0.821233332157135, 0.017475957050919533, -0.5432817935943604, 0.7766281962394714, 0.42343324422836304, -0.3854450583457947, -0.003971759229898453, -0.45885562896728516, 0.873684287071228, 1.3226367235183716, -0.7413119673728943, -1.1434128284454346, -0.8282650709152222, 0.7843415141105652, -0.5445800423622131, 1.2542542219161987, -0.7907042503356934, -0.015419979579746723, 0.7797408103942871, -0.4625171422958374, 0.45319563150405884, 0.30156099796295166, -1.3002640008926392, 0.4347645044326782, 1.0242198705673218, -0.35205259919166565, 0.4416563808917999, -0.11052431166172028, 0.42275160551071167, -0.31638821959495544, -0.6344520449638367, -0.6994872689247131, 0.430172324180603, -0.795906662940979, 0.029984518885612488, 0.44430258870124817, -0.29447659850120544, -0.6221707463264465, -0.6014878749847412, -0.9620423913002014, -0.8887283802032471, 0.3461664021015167, 0.2561470568180084, -1.308156967163086, -0.21768081188201904, -0.06723921746015549, -0.3041553795337677, -0.3617364764213562, -1.5520102977752686, -1.0197901725769043, -0.04661118984222412, 0.2375216782093048, -0.02784627117216587, 0.446725457906723, 0.8450994491577148, -0.6973745226860046, 0.02154812403023243, -0.27830153703689575, -0.6610801219940186, 0.6685130596160889, 0.5880710482597351, 0.08023387938737869, 0.18352003395557404, 0.6643424034118652, 0.39271438121795654, -0.9454838037490845, 0.48567312955856323, -0.16914193332195282, -0.1119765043258667, 0.15392686426639557, 0.7390379309654236, 0.15128746628761292, -0.451072633266449, -0.20180396735668182, 0.21986590325832367, -0.936706006526947, -0.14154991507530212, -0.436305969953537, 0.5983067154884338, 0.20959040522575378, 0.36016470193862915, 0.8603773713111877, 0.5794217586517334, 1.3450889587402344, -0.8744378685951233, -0.21725773811340332, -0.3646611273288727, 0.8850278854370117, -0.11179278790950775, -0.64852374792099, -0.8904939889907837, 0.27872002124786377, 0.30160269141197205, -0.49573373794555664, 1.2255165576934814, -0.13778361678123474, 0.2775011360645294, 0.9504083395004272, 0.6772289276123047, -0.039844971150159836, 1.526490569114685, -0.12501674890518188, -0.23456716537475586, 0.11101812869310379, -0.39175817370414734, -0.45724552869796753, -1.2770012617111206, 0.3225051164627075, -0.04723886400461197, -0.3673977553844452, 0.04414068162441254, 0.9611092805862427, -0.06983648240566254, 0.570661187171936, -0.23855829238891602, -0.19690142571926117, 0.8912396430969238, -1.5491011142730713, 0.2698679268360138, 1.1532038450241089, -0.19410644471645355, -0.22972102463245392, -0.08178254961967468, -0.320266991853714, 0.10371281206607819, 0.28704842925071716, -0.2941238582134247, -0.24970433115959167, -0.19779640436172485, 0.5319363474845886, -1.285224199295044, -1.021043062210083, 0.1816350370645523, -0.8508913516998291, -0.298878014087677, -0.06914715468883514, 1.2689241170883179, -1.281604528427124, 1.100170612335205, -0.4597652852535248, 1.3378926515579224, -0.20398662984371185, -0.6498197317123413]]}, "Dense_1": {"bias": [0.07660095393657684, -0.01071877870708704, 0.09513301402330399, -0.005528055131435394, -0.006828101817518473, -0.004702544771134853, -0.00779920257627964, -0.005592658184468746, 0.0081694470718503, -0.08912096172571182, 0.04246657341718674, -0.017128515988588333, 0.23284494876861572, 0.12572498619556427, -0.008926523849368095, -0.014216217212378979, -0.015291481278836727, 0.04663154110312462, -0.01998724229633808, 0.0, 0.022787371650338173, -0.007147294003516436, -0.00832163356244564, -0.0007354968693107367, 0.1465102732181549, 0.050546880811452866, 0.07074160128831863, -0.015115243382751942, -0.028635172173380852, 0.16683562099933624, -0.04034442827105522, -0.010819431394338608, -0.04032965004444122, -0.04030337184667587, 0.017895404249429703, 0.14580319821834564, 0.0459696426987648, -0.01105950865894556, 0.09378308802843094, 0.0076323929242789745, 0.022850237786769867, 0.0, -0.006204646546393633, -0.0003441726148594171, -0.006005424540489912, -0.02943194843828678, -0.00246148812584579, -0.006004477851092815, -0.0020013523753732443, -0.06720313429832458, -0.0026370915584266186, 0.12906618416309357, -0.007145618088543415, -0.0057401410304009914, -0.0040077343583106995, 0.06180013716220856, -0.011772874742746353, -0.06329216063022614, 0.04437650367617607, 0.0873841643333435, -0.0004612984776031226, 0.1355094015598297, -0.011033452115952969, 0.08272794634103775, -0.008478613570332527, -0.01418559905141592, -0.006251610349863768, -0.009082195349037647, 0.04776798188686371, -0.07787173986434937, 0.003725660964846611, -0.029836764559149742, 0.024226251989603043, -0.03851251304149628, 0.014249980449676514, -0.006711228750646114, -0.02505991794168949, 0.06292467564344406, 0.0, -0.04573788493871689, 0.1029047966003418, -0.03199176490306854, -0.006005268078297377, -0.016275376081466675, -0.004079199396073818, 0.011331581510603428, -0.007202956359833479, -0.09120096266269684, -0.028479237109422684, -0.0009894093964248896, -0.007035618647933006, -0.01648159883916378, -0.0071285744197666645, -0.026039427146315575, 0.06516947597265244, -0.011718708090484142, -0.021089917048811913, -0.009039752185344696, -0.01006800215691328, -0.0040240418165922165, 0.004707681946456432, -0.060235556215047836, -0.01629190519452095, -0.007603449281305075, -0.03402939438819885, -0.02143820933997631, -0.014273127540946007, -0.025715753436088562, -0.010047460906207561, -0.0016583974938839674, 0.028371619060635567, 0.05984361842274666, 0.07527301460504532, -0.004037335515022278, -0.07872821390628815, -0.011951676569879055, 0.04254855960607529, 0.006919550709426403, -0.04589303955435753, 0.046595603227615356, -0.004721213597804308, 0.002474906388670206, -0.01669992320239544, -0.005036437883973122, -0.030401308089494705, 0.009284192696213722, -0.008398983627557755, 0.04068750515580177, -0.0650208592414856, -0.006005387753248215, -0.03133852034807205, -0.004795372486114502, -0.010717633180320263, -0.007146092597395182, 0.00342033919878304, 0.018148750066757202, -0.02481258288025856, -0.013179306872189045, 0.0, -0.006028007250279188, -0.006535855121910572, -0.006285648327320814, 0.09559989720582962, -0.006005438510328531, -0.009221481159329414, -0.004346875939518213, 0.0064847092144191265, -0.12997715175151825, 0.005434870719909668, -0.008070316165685654, -0.08317188173532486, 0.04350586235523224, 0.07750299572944641, 0.06422185152769089, -0.002317920094355941, -0.03818734735250473, -0.013916762545704842, -0.02772943489253521, -0.0060051241889595985, -0.002975741634145379, -0.010544332675635815, -0.005672371480613947, -0.03626833111047745, 0.07590096443891525, 0.19099053740501404, 0.06970624625682831, -0.005220744758844376, -0.01346985250711441, -0.027910318225622177, -0.012162878178060055, -0.04739725589752197, -0.00547817163169384, -0.05826129391789436, -0.005593498237431049, 0.01325296238064766, -0.007530772127211094, 0.03745919466018677, -0.016813596710562706, -0.0066050514578819275, -0.008955507539212704, 0.06346374750137329, -0.008839389309287071, -0.07330445200204849, 0.0, -0.006005113013088703, -0.019882414489984512, -0.0028752272482961416, -0.008499061688780785, 0.053841594606637955, 0.004516132175922394, -0.05276178568601608, 0.016978733241558075, -0.0403774119913578, 0.10007396340370178, -0.002111394191160798, -0.007541049737483263, -0.010310697369277477, 0.0, -0.012941399589180946, -0.0062617952935397625], "kernel": [[0.08804940432310104, -0.02040855959057808, 0.03445498272776604, -0.003177208360284567, 0.010884420946240425, -0.08847562968730927, 0.01604568213224411, -0.055863987654447556, -0.0758848488330841, 0.0475643053650856, -0.05276703089475632, -0.017402423545718193, -0.010413859970867634, 0.03572406247258186, 0.030451852828264236, -0.06272799521684647, -0.05577697604894638, 0.009221554733812809, -0.05679585412144661, -0.04827200248837471, -0.013075945898890495, -0.013110367581248283, 0.018427453935146332, 0.017540343105793, -0.009490270167589188, -0.0300254225730896, 0.01056829746812582, 0.027280524373054504, -0.07477937638759613, 0.01927747018635273, 0.016688700765371323, 0.09414937347173691, 0.05660586059093475, 0.03790508955717087, -0.01901601254940033, -0.02439657412469387, 0.0034650336019694805, -0.004268311895430088, 0.09364104270935059, -0.0980084165930748, -0.010384551249444485, -0.10083995759487152, 0.006426951847970486, -0.043490808457136154, -0.008005158044397831, -0.07832932472229004, -0.00833808071911335, -0.037360046058893204, -0.09384012967348099, 0.00580583605915308, -0.022443410009145737, 0.002660579513758421, 0.006095767021179199, 0.011321858502924442, 0.02389419637620449, -0.03660321235656738, 0.06512916833162308, 0.01810690201818943, 0.026822371408343315, 0.03993156924843788, -0.05231412500143051, -0.013574029318988323, -0.08214174211025238, -0.020515283569693565, -0.07384197413921356, 0.0009210258722305298, -0.006832597777247429, 0.03164341300725937, 0.08649085462093353, -0.023710157722234726, 0.07252735644578934, 0.03649330884218216, -0.11636891961097717, 0.037526458501815796, 0.0273579191416502, 0.014714481309056282, -0.036979395896196365, 0.0365067683160305, 0.03131739795207977, -0.004412058740854263, -0.04765864461660385, 0.04909749701619148, 0.004530273377895355, -0.10264968872070312, 0.018590932711958885, 0.03352024406194687, 0.0923931822180748, 0.02772556245326996, 0.028226690366864204, -0.010107786394655704, -0.08584017306566238, -0.01928381435573101, 0.06409712880849838, -0.018763570114970207, -0.027378875762224197, 0.05375576391816139, 0.03001680225133896, -0.008363178931176662, 0.0868840366601944, -0.01454878132790327, -0.0644528791308403, -0.0028815774712711573, -0.06425213068723679, -0.050384800881147385, -0.0131242536008358, -0.0004114607581868768, 0.008845583535730839, -0.0278165340423584, 0.03052417002618313, -0.08647932857275009, 0.0569177120923996, -0.016521966084837914, -0.10795049369335175, -0.08961866796016693, 0.020097024738788605, -0.08828797936439514, -0.08879643678665161, -0.0024915491230785847, -0.046793535351753235, 0.007782532833516598, -0.0450696237385273, 0.0825752541422844, 0.004796157591044903, 0.0018573675770312548, 0.03981595113873482, -0.001934011117555201, 0.06465597450733185, -0.07545527070760727, -0.011366430670022964, -0.019751399755477905, 0.038780756294727325, 0.02809380553662777, -0.00800134614109993, -0.06497335433959961, 0.10081493109464645, 0.058409273624420166, 0.046380188316106796, -0.04672536998987198, 0.09022137522697449, -0.03519640862941742, -0.05219845473766327, -0.03002152219414711, -0.05797962844371796, -0.02696484886109829, -0.10446973145008087, -0.063475601375103, 0.09741955995559692, -0.04692569375038147, 0.003002819139510393, -0.032424043864011765, 0.0054044113494455814, 0.05137951672077179, 0.06775348633527756, -0.05471039190888405, 0.002721146447584033, -0.04456602409482002, -0.005366517696529627, -0.01878294162452221, -0.030369611456990242, 0.033285271376371384, 0.015978801995515823, 0.017460331320762634, -0.08820048719644547, -0.025246676057577133, -0.013053925707936287, -0.07621447741985321, 0.011801247484982014, -0.02374032884836197, 0.004045920446515083, 0.047317154705524445, 0.035751890391111374, 0.016376055777072906, 0.09199769794940948, -0.03948235884308815, 0.0616859532892704, -0.04850569739937782, 0.0181441530585289, 0.07384739071130753, -0.08557520061731339, -0.08674929291009903, -0.054213229566812515, -0.07735872268676758, 0.08708067238330841, -0.025784431025385857, -0.009594693779945374, -0.08029148727655411, 0.046257615089416504, -0.013224259950220585, 0.004655832890421152, -0.026690691709518433, -0.026664528995752335, 0.007935660891234875, -0.05393853783607483, 0.019185980781912804, -0.02771710604429245, 0.01279413141310215, 0.0913323312997818, 0.055911023169755936, -0.018427463248372078, 0.015058507211506367], [0.009321012534201145, 0.0953688696026802, -0.04838825762271881, -0.0011196524137631059, 0.046393830329179764, -0.08042502403259277, -0.01825145073235035, -0.04341796413064003, -0.1090148389339447, -0.016826553270220757, -0.0402897410094738, -0.020885013043880463, -0.10372363030910492, 0.04463968425989151, -0.11452793329954147, 0.08542625606060028, -0.020692747086286545, -0.013849851675331593, -0.06218724325299263, -0.02367589622735977, -0.02179941162467003, -0.04024171829223633, 0.001688723568804562, 0.030246756970882416, -0.035683199763298035, 0.038112837821245193, 0.06566520035266876, -0.02442770078778267, 0.0011210632510483265, 0.02253747545182705, 0.0014814215246587992, 0.05789158493280411, -0.046313926577568054, -0.026283161714673042, -0.01828940398991108, -0.06804521381855011, -0.08299199491739273, -0.014741470105946064, 0.021374639123678207, 0.07610633224248886, -0.004143446683883667, -0.018858134746551514, 0.024820318445563316, -0.029733095318078995, 0.02621954306960106, 0.06250610202550888, 0.044840965420007706, 0.02246949076652527, 0.015515469014644623, -0.11653308570384979, -0.03597250580787659, 0.0029844234231859446, 0.0038625188171863556, -0.009215946309268475, -0.015090455301105976, -0.044866207987070084, -0.11562900990247726, -0.03127647563815117, -0.007464818190783262, -0.043915338814258575, 0.09011533856391907, 0.03355453163385391, 0.09528202563524246, 0.02179352194070816, 0.052258893847465515, -0.02957376092672348, -0.1005195677280426, 0.006926612462848425, -0.04253717511892319, 0.02659536898136139, 0.0690479725599289, 0.010023633018136024, -0.030673980712890625, -0.007838208228349686, -0.05023576691746712, 0.056499183177948, 0.036659155040979385, -0.043132588267326355, -0.03265709429979324, 0.046362899243831635, 0.03721372410655022, -0.019976498559117317, 0.0595894418656826, -0.0238803643733263, -0.07582329213619232, -0.04908858612179756, 0.03852776065468788, -0.007975964806973934, 0.020595379173755646, 0.04797440022230148, 0.025383127853274345, -0.09885939955711365, -0.07673655450344086, 0.06512682139873505, -0.014436215162277222, -0.10533281415700912, -0.038085728883743286, 0.04467840492725372, -0.07761335372924805, 0.04110783338546753, 0.012949143536388874, 0.02960554137825966, -0.008619162254035473, 0.0508684366941452, 0.028654206544160843, -0.09025903791189194, -0.02042427286505699, -0.09243553131818771, 0.029808929190039635, -0.08263951539993286, 0.09952297806739807, 0.005047822371125221, -0.02727426588535309, 0.007297045551240444, -0.08609502762556076, -0.019389009103178978, -0.05116764083504677, 0.003329615341499448, 0.1034073531627655, -0.024827666580677032, 0.060180965811014175, -0.05567207559943199, -0.0803704559803009, -0.0285695381462574, -0.08320043236017227, 0.06795203685760498, 0.05149582773447037, -0.040155354887247086, -0.052440643310546875, -0.01275044959038496, 0.0008479359676130116, 0.006681129336357117, -0.10868421196937561, -0.11233528703451157, -0.06499553471803665, -0.006624326575547457, -0.04977908357977867, 0.01754315011203289, 0.004662094172090292, 0.003496492514386773, 0.043139584362506866, 0.03267775475978851, 0.022372571751475334, 0.03979029878973961, -0.010933399200439453, -0.04493049904704094, 0.06082121282815933, -0.013380719348788261, 0.009342022240161896, 0.019451437518000603, -0.09141089767217636, 0.08745109289884567, 0.04583226889371872, 0.013182227499783039, -0.08702397346496582, -0.006802818272262812, 0.02763216570019722, -0.05468558147549629, 0.11174677312374115, 0.10140953212976456, 0.03236585855484009, -0.055502552539110184, -0.007600598502904177, 0.0076507083140313625, 0.06594789028167725, 0.0034566258545964956, 0.04247422516345978, -0.03360544145107269, 0.0002579019055701792, -0.010471861809492111, 0.0006687291315756738, -0.00567168602719903, -0.029803672805428505, 0.023327043280005455, -0.03892846778035164, -0.025032520294189453, 0.04058636352419853, -0.04035090282559395, 0.050246711820364, -0.08162743598222733, -0.006907593458890915, -0.06751148402690887, 0.03614596650004387, -0.014723840169608593, -0.004209484439343214, -0.0753595307469368, -0.02290772832930088, 0.09161797165870667, -0.026772867888212204, -0.08978786319494247, -0.026360293850302696, 0.023831894621253014, 0.08274170756340027, 0.04416626691818237, 0.02638114243745804, -0.030278775840997696, 0.023858055472373962, -0.04972895607352257, -0.06804090738296509, -0.08549109846353531], [-0.022537317126989365, -0.0005439211381599307, -0.0028112982399761677, 0.046855516731739044, -0.0003928702208213508, -0.04686227813363075, 0.00846920907497406, -0.10776979476213455, 0.0009968735976144671, -0.05966292694211006, 0.004102005157619715, -0.06756925582885742, 0.07831473648548126, 0.04821455851197243, 0.029877644032239914, -0.05294380336999893, 0.06066877767443657, 0.0029704291373491287, 0.01776697486639023, 0.08073090016841888, 0.03450349345803261, -0.06092036888003349, -0.04485874995589256, 0.01728897914290428, 0.000863458204548806, 0.060863055288791656, 0.03542989864945412, 4.129756780457683e-05, -0.03826035559177399, 0.0340532585978508, -0.02026887610554695, 0.09678976982831955, -0.022482089698314667, -0.021127142012119293, -0.048671964555978775, 0.022498272359371185, 0.09290622174739838, 0.03824688494205475, -0.04566100984811783, 0.0862496867775917, -0.06402280926704407, -0.018682081252336502, 0.016599303111433983, 0.02326173335313797, 0.031241657212376595, -0.05000773072242737, -0.05407670512795448, -0.0034245955757796764, -0.09641081839799881, -0.05698689818382263, 0.02016984298825264, -0.02901238203048706, 0.01326328981667757, -0.06153889745473862, -0.03149285912513733, -0.016883013769984245, -0.012536242604255676, 0.08718913793563843, -0.021271487697958946, 0.06810279190540314, -0.05041274055838585, -0.04089301824569702, 0.024836577475070953, -0.11107263714075089, -0.07706500589847565, 0.08168148249387741, -0.0737762600183487, -0.016826214268803596, -0.05579836666584015, 0.0713694766163826, -0.07780438661575317, 0.08529405295848846, -0.006708887871354818, -0.038744598627090454, -0.015413875691592693, -0.0490826740860939, 0.06301344186067581, -0.014837955124676228, -0.03319210931658745, 0.015029191970825195, 0.014589476399123669, -0.05592247471213341, 0.03054068423807621, 0.02821461297571659, -0.03638763353228569, 0.05463073402643204, 0.01027914509177208, 0.030583631247282028, -0.010041889734566212, -0.0898689404129982, -0.02686503157019615, -0.0873025432229042, 0.016416974365711212, 0.028186561539769173, 0.037117838859558105, -0.028577780351042747, -0.026119057089090347, -0.0056184520944952965, -0.019209900870919228, 0.06794805079698563, -0.023401955142617226, -0.020443720743060112, 0.07066693902015686, -0.07893514633178711, 0.03181763365864754, 0.02774347923696041, 0.01341155357658863, -0.07171126455068588, 0.032742176204919815, 0.05818880721926689, 0.03883156180381775, 0.015802212059497833, -0.060576699674129486, -0.0026500362437218428, 0.05294246971607208, -0.10494215041399002, 0.0674791932106018, 0.02269759401679039, 0.03785083070397377, -0.002772766165435314, 0.03900168463587761, 0.0008558537228964269, -0.0026512311305850744, -0.01886814646422863, -0.025149205699563026, -0.004046953748911619, 0.010069794952869415, -0.005194498226046562, 0.03192322701215744, -0.01086689904332161, 0.02213464491069317, -0.004597037099301815, -0.0697566345334053, -0.07222015410661697, 0.03774934634566307, 0.035283271223306656, -0.05489842966198921, -0.01157881785184145, -0.0307959895581007, 0.013144354335963726, -0.07852211594581604, 0.0383826345205307, 0.021540828049182892, -0.00935998186469078, -0.0738297626376152, 0.09374203532934189, 0.02995230443775654, 0.00693619204685092, -0.023575110360980034, 0.014819564297795296, 0.03660494461655617, 0.021352142095565796, -0.01740904338657856, 0.04198048636317253, -0.09700804203748703, -0.051970869302749634, -0.05042032524943352, -0.02088211104273796, 0.05915118753910065, -0.016947204247117043, -0.08557597547769547, -0.048728518187999725, 0.008646482601761818, -0.017851991578936577, 0.0034678634256124496, -0.052156247198581696, 0.005106090568006039, 0.0731925517320633, -0.06911324709653854, 0.014337298460304737, -0.12192757427692413, -0.06985504180192947, 0.03135790675878525, -0.11771885305643082, -0.035341039299964905, -0.014096810482442379, 0.00470261974260211, 0.058506857603788376, 0.04298776015639305, 0.04440123960375786, 0.0052240025252103806, 0.04647454991936684, -0.037006769329309464, -0.033062633126974106, 0.031226225197315216, 0.028955679386854172, -0.05977948009967804, 0.0068211485631763935, 0.050841014832258224, -0.04585332050919533, 0.008050400763750076, 0.017017850652337074, 0.00022835734125692397, -0.024974802508950233, 0.00785098783671856, -0.016597630456089973, -0.01205501053482294, -0.06473752856254578, -0.0053168958984315395, 0.06578946113586426], [-0.050022054463624954, -0.021563848480582237, 0.022833729162812233, -0.007397253531962633, 0.058222007006406784, 0.023700550198554993, 0.025491565465927124, 0.00448997737839818, -0.03707025200128555, 0.014739751815795898, 0.04166346415877342, -0.07074097543954849, -0.1251438707113266, 0.01208468433469534, -0.02589968591928482, -0.07521378993988037, -0.025395264849066734, 0.012865972705185413, -0.005798448342829943, 0.04803396016359329, 0.03109097108244896, -0.008883276022970676, 0.023587018251419067, -0.010759200900793076, -0.03254581242799759, -0.01601085253059864, -0.018405145034193993, -0.08870485424995422, 0.02649528905749321, -0.0812092050909996, -0.037914685904979706, -0.06877396255731583, -0.012921216897666454, 0.02371758222579956, -0.03261011838912964, -0.07119953632354736, -0.013169932179152966, -0.10201450437307358, 0.05201858654618263, 0.01665867678821087, -0.025793086737394333, 0.016950324177742004, -0.049627095460891724, -0.07486358284950256, 0.02122035250067711, 0.09138679504394531, 0.0265236534178257, -0.0069733369164168835, -0.06430678069591522, -0.02492474392056465, 0.05756285786628723, -0.08577907830476761, 0.027532322332262993, 0.06554136425256729, 0.05682915076613426, -0.07354003936052322, 0.013514307327568531, -0.055925242602825165, -0.1101212203502655, 0.00393760995939374, -0.05580462887883186, -0.05761270970106125, -0.032570622861385345, 0.03533332794904709, 0.02620086446404457, 0.0005769288982264698, -0.04484628885984421, 0.02805791236460209, 0.054651468992233276, 0.0051663764752447605, -0.04916752502322197, 0.051349639892578125, 0.013692177832126617, -0.00464941281825304, 0.00625058077275753, 0.012547104619443417, 0.03292335197329521, -0.02393857203423977, -0.05308710038661957, -0.04026903212070465, -0.0944897010922432, 0.04631168022751808, -0.01268309447914362, -0.02126329578459263, 0.05208047106862068, 0.004249514080584049, -0.03741404414176941, 0.022467007860541344, -0.0880240872502327, 0.02425466477870941, 0.07624973356723785, -0.011129927821457386, 0.004076376091688871, -0.0669630840420723, -0.009423919022083282, 0.020525144413113594, -0.10801645368337631, -0.054348595440387726, -0.018758298829197884, -0.06858492642641068, 0.012134741991758347, -0.0013397341826930642, -0.061017636209726334, 0.015963098034262657, 0.04147794470191002, -0.057633060961961746, -0.006630411371588707, -0.0346771702170372, 0.010727792046964169, -0.04565689340233803, -0.010134109295904636, -0.07935094088315964, -0.09330912679433823, -0.04592173919081688, -0.042071327567100525, -0.02005942165851593, 0.04512568190693855, 0.03934459388256073, 0.08404514193534851, 0.04844003915786743, 0.020938457921147346, -0.008034775033593178, 0.01985858380794525, -0.06715866923332214, -0.09462817013263702, -0.026824185624718666, 0.009816239587962627, -0.033061347901821136, -0.0722031220793724, -0.047817837446928024, -0.007349387276917696, -0.07912541180849075, 0.00706525007262826, 0.07457537949085236, -0.02798081561923027, 0.03258630260825157, 0.0282453540712595, 0.062204182147979736, 0.026588499546051025, 0.06212649866938591, -0.05807679519057274, 0.011440970003604889, -0.057119015604257584, 0.021468885242938995, 0.06168593838810921, 0.05851009488105774, -0.07298453152179718, 0.06626768410205841, -0.023282673209905624, 0.06684338301420212, -0.02544734999537468, -0.016002897173166275, -0.04259125515818596, 0.03618554025888443, -0.06190494820475578, 0.06373295187950134, -0.07879578322172165, 0.024027811363339424, -0.10299724340438843, -0.01236367505043745, 0.01578596793115139, -0.029318824410438538, -0.05260495841503143, -0.023253198713064194, -0.002872610464692116, -0.016405168920755386, 0.0756649374961853, -0.083396315574646, -0.025054408237338066, -0.022911984473466873, -0.07872174680233002, 0.05061168968677521, -0.059422969818115234, -0.07701966166496277, -0.09207127243280411, -0.018874118104577065, 0.0694531574845314, -0.014150270260870457, -0.06213696673512459, 0.0066128564067184925, -0.02814783900976181, -0.04053208604454994, -0.060472067445516586, 0.021484868600964546, 0.057464804500341415, 0.03746265918016434, -0.08690373599529266, -0.051850367337465286, -0.10786832123994827, -0.05285581946372986, 0.028116730973124504, -0.07217893749475479, 0.033580198884010315, -0.09040757268667221, 0.027616295963525772, 0.006988071370869875, -0.10610752552747726, 0.00036129626096226275, -0.06895816326141357, 0.05112272873520851], [-0.018118184059858322, -0.08388137072324753, 0.03807967156171799, -0.06059537082910538, -0.06905649602413177, -0.03335525095462799, 0.04580305516719818, -0.010410892777144909, -0.0035121883265674114, -0.02120036631822586, 0.03000299632549286, 0.01585618034005165, 0.027261406183242798, -0.022074325010180473, -0.00469212606549263, -0.08940891921520233, -0.033619120717048645, -0.029463253915309906, 0.03148508816957474, -0.04829523712396622, 0.04629864916205406, -0.11334865540266037, 0.06001400575041771, 0.017956135794520378, -0.06192324310541153, 0.02212546393275261, 0.012279868125915527, -0.07406607270240784, -0.057465266436338425, 0.0320279523730278, -0.008998212404549122, -0.05714305862784386, -0.009555024094879627, 0.033238667994737625, 0.030116677284240723, 0.03158945590257645, -0.0701310858130455, -0.06977958977222443, -0.06511857360601425, 0.03490244969725609, -0.03720897063612938, -0.024099286645650864, 0.03649768978357315, 0.02772381156682968, -0.025558151304721832, 0.018558049574494362, 0.04121646657586098, -0.06042800843715668, -0.021085025742650032, -0.016046535223722458, -0.023089122027158737, 0.06164762005209923, -0.10094641149044037, 0.0685146152973175, 0.054727569222450256, 0.08733706921339035, 0.016215041279792786, 0.01191321574151516, -0.01555593777447939, -0.041958559304475784, 0.043502919375896454, -0.037915587425231934, -0.012619677931070328, -0.04117339849472046, -0.05189777910709381, 0.048716168850660324, -0.019429344683885574, 0.01647329330444336, -0.03830346465110779, -0.02406802773475647, -0.06393317133188248, -0.012383218854665756, -0.053943902254104614, 0.009539267979562283, -0.019306253641843796, 0.062269024550914764, -0.06978044658899307, -0.049895014613866806, -0.07378935068845749, -0.07186782360076904, -0.07748888432979584, -0.03749372437596321, -0.04835266247391701, -0.09785928577184677, -0.07126863300800323, -0.04255073145031929, -0.02488989196717739, 0.03480080887675285, -0.03003273718059063, 0.014398053288459778, 0.04516461864113808, -0.052359357476234436, -0.010200963355600834, -0.11708398908376694, 0.025549422949552536, 0.03643452003598213, 0.08793458342552185, 0.0016841074684634805, 0.07556350529193878, 0.036374352872371674, 0.03577489033341408, 0.02068200148642063, 0.011133917607367039, 0.05604375898838043, 0.026302138343453407, 0.007379482500255108, 0.0408165380358696, -0.03631652519106865, 0.0006299039232544601, -0.011900543235242367, -0.050094347447156906, 0.02753637544810772, -0.03710591048002243, -0.02087320387363434, 0.013927574269473553, 0.01657290756702423, 0.09326277673244476, 0.07772214710712433, 0.01098945364356041, -0.01083112508058548, -0.00825685728341341, 0.034158844500780106, -0.09600082039833069, 0.10118935257196426, -0.07187291234731674, -0.10488512367010117, -0.014810596592724323, -0.028619620949029922, -0.0069565000012516975, -0.04861483722925186, 0.029165318235754967, -0.04627570882439613, 0.029454078525304794, 0.0038129130844026804, -0.049495797604322433, 0.011656383983790874, 0.0541091114282608, -0.03089391626417637, -0.06238778308033943, -0.01825309731066227, 0.10515419393777847, -0.10151422768831253, 0.021427534520626068, 0.037392131984233856, -0.012106548994779587, -0.04090408980846405, 0.05499591305851936, -0.04662695899605751, -0.02273680455982685, 0.09006807953119278, -0.0032722163014113903, -0.06946437805891037, 0.09005361050367355, -0.009866938926279545, -0.00542505644261837, -0.06187897175550461, 0.015379354357719421, -0.04054855555295944, -0.04986314848065376, 0.07065609097480774, -0.014994033612310886, 0.04542561620473862, 0.07652707397937775, 0.10281293094158173, 0.04687728360295296, -0.061821624636650085, 0.006817934103310108, -0.08022214472293854, -0.04138777405023575, 0.027027949690818787, 0.001235393574461341, -0.030386602506041527, 0.023858273401856422, 0.036733873188495636, -0.021388741210103035, -0.0207253135740757, 0.06598012894392014, -0.010077161714434624, 0.010576198808848858, -0.10305879265069962, -0.0710296630859375, 0.016678499057888985, -0.013321212492883205, -0.04643649235367775, 0.03262984752655029, 2.83082827081671e-05, -0.016716670244932175, -0.007670107297599316, 0.015060768462717533, 0.005691379774361849, 0.015923846513032913, 0.04041881859302521, 0.015783065930008888, -0.004795134533196688, 0.008399732410907745, 0.020137211307883263, -0.0641268715262413, -0.04404732957482338, -0.09732311218976974, 0.005859516095370054], [0.04758577421307564, 0.03535110875964165, 0.029571039602160454, -0.058645959943532944, -0.04662243649363518, -0.07826180011034012, 0.03205334022641182, 0.020646246150135994, -0.04520407319068909, -0.03560919314622879, -0.017323486506938934, 0.046044062823057175, 0.04147915914654732, 0.09824105352163315, 0.08754169195890427, 0.006579221226274967, -0.0008911549812182784, 0.055872123688459396, -0.028464173898100853, 0.08271260559558868, 0.09111685305833817, -0.005157606676220894, -0.04422583803534508, 0.0436180979013443, 0.033550892025232315, 0.0455939881503582, 0.06966004520654678, -0.0992153137922287, 0.018096378073096275, -0.018856849521398544, -0.023098696023225784, 0.008294263854622841, 0.03948202356696129, 5.4878441005712375e-05, 0.011199407279491425, 0.06625857204198837, -0.014974335208535194, 0.030238892883062363, -0.03037884086370468, 0.012352186255156994, 0.0359758622944355, -0.030532391741871834, -0.07634826749563217, -0.026706285774707794, -0.0464528389275074, -0.009723872877657413, 0.03504442423582077, 0.06431008875370026, 0.09005171060562134, -0.017338447272777557, -0.014035875909030437, -0.045518554747104645, 0.024472178891301155, 0.020470207557082176, -0.03772349655628204, 0.055193208158016205, 0.040153637528419495, -0.024902615696191788, -0.05073743313550949, 0.07530353218317032, 0.031998734921216965, -0.013966144062578678, -0.06542886048555374, 0.047076571732759476, -0.08083738386631012, -0.05328040570020676, -0.013573204167187214, -0.08541978150606155, -0.0125804478302598, -0.07992623001337051, 0.0529843345284462, 0.026320794597268105, -0.012010949663817883, 0.08614765107631683, -0.008491414599120617, -0.015267264097929, 0.03255986422300339, 0.005144184920936823, -0.014899294823408127, 0.0072591654025018215, 0.033351462334394455, 0.03003074787557125, -0.0069994316436350346, -0.0710160881280899, -0.06918143481016159, 0.05845433473587036, 0.08215711265802383, -0.03368281200528145, -0.052719224244356155, -0.007591661531478167, -0.026800278574228287, 0.08238480240106583, -0.05465378984808922, -0.06438087671995163, 0.03264910355210304, -0.04441731423139572, -0.08929895609617233, -0.07724155485630035, -0.007217060308903456, 0.02464054338634014, 0.0190690029412508, 0.01709454506635666, 0.046255338937044144, 0.0011271376861259341, 0.010159690864384174, -0.08095899224281311, -0.05539935827255249, 0.03148312866687775, -0.03648541495203972, -0.07118247449398041, -0.07401422411203384, -0.032108403742313385, 0.03830302879214287, -0.00920864474028349, 0.06371255964040756, 0.007137690205127001, -0.052276816219091415, 0.09072054922580719, 0.04138568788766861, -0.010995609685778618, -0.05815825238823891, 0.00020921525720041245, 0.033062394708395004, -0.08681640774011612, 0.037934310734272, 0.0971030592918396, -0.025126516819000244, -0.058672741055488586, -0.03713149204850197, -0.06940683722496033, 0.012084851041436195, -0.09325603395700455, 0.00952144805341959, -0.06626125425100327, -0.08692377060651779, -0.08944915980100632, -0.027978776022791862, -0.05901843681931496, -0.026342641562223434, 0.0013665348524227738, 0.07800903171300888, 0.10085025429725647, -0.03574575483798981, -0.006421088241040707, -0.0013675788650289178, -0.09340693801641464, 0.014904617331922054, 0.05517604947090149, 0.04853217676281929, -0.04755439981818199, -0.014488044194877148, -0.024223951622843742, -0.06869950145483017, -0.0010256837122142315, -0.06159703806042671, 0.058653321117162704, -0.05778762325644493, -0.03355247154831886, 0.05083288997411728, 0.10362512618303299, -0.02719959244132042, 0.036342035979032516, -0.0691903829574585, 0.049500346183776855, 0.03440586477518082, 0.008214485831558704, -0.034318435937166214, 0.004690658301115036, 0.05826862156391144, -0.08448175340890884, 0.010812876746058464, 0.03668656945228577, -0.11411608010530472, -0.06724123656749725, -0.05299034342169762, -0.015857171267271042, 0.0183979794383049, -0.1001277044415474, -0.09309367835521698, 0.050161052495241165, -0.0019666659645736217, -0.0034959542099386454, -0.022072110325098038, -0.06665739417076111, 0.06751377880573273, -0.005583022255450487, 0.04953804239630699, 0.0009798103710636497, 0.03283343464136124, 0.03930678218603134, -0.003708408446982503, -0.019153742119669914, -0.0931859239935875, 0.05895587429404259, -0.039354100823402405, -0.05014163628220558, 0.04728038236498833, 0.03436961770057678, 0.06926518678665161, -0.02771366387605667], [0.05291004106402397, -0.055288951843976974, -0.08937964588403702, -0.07851001620292664, -0.04043940454721451, -0.022941842675209045, 0.06992661952972412, 0.01688886061310768, 0.04588226228952408, -0.06495793163776398, -0.10660085827112198, 0.04546910896897316, -0.030553873628377914, -0.01473059318959713, 0.06095510348677635, 0.034101326018571854, 0.017702484503388405, 0.0404670313000679, -0.08698468655347824, -0.00018986404757015407, -0.10938785970211029, 0.0061917174607515335, 0.0038875422906130552, -0.07909530401229858, -0.0038368385285139084, -0.08696411550045013, -0.04682837054133415, 0.014444204978644848, 0.020949186757206917, -0.05069945007562637, 0.023098433390259743, -0.004954592790454626, 0.033505283296108246, 0.08707842975854874, 0.06641366332769394, -0.005307434592396021, -0.00821736641228199, -0.04068823903799057, -9.033560490934178e-05, 0.07855521887540817, -0.013966710306704044, 0.08147240430116653, -0.11223089694976807, 0.02879730798304081, 0.01144933607429266, 0.07337532937526703, -0.002663525752723217, 0.01864762045443058, -0.06239970773458481, 0.08704937249422073, -0.057089269161224365, -0.0963044986128807, -0.0104273846372962, -0.0366019606590271, -0.01177026703953743, -0.03220366686582565, -0.10835343599319458, 0.026104701682925224, 0.06440214812755585, 0.010691618546843529, -0.02445441670715809, -0.09962242096662521, 0.054902318865060806, -0.05917816981673241, -0.04142721742391586, -0.009990658611059189, 0.027475394308567047, 0.04721718281507492, -0.015232907608151436, -0.07982400804758072, -0.06488737463951111, -0.06728583574295044, -0.03740016371011734, 0.0011400687508285046, -0.01605566404759884, 0.033437058329582214, 0.03286544978618622, -0.039580658078193665, -0.05151168256998062, -0.06601773947477341, -0.07399486750364304, 0.06367151439189911, -0.009139548987150192, 0.04346297308802605, -0.014619250781834126, 0.02578982710838318, -0.0186055488884449, -0.012012379243969917, 0.009931324049830437, -0.03152928128838539, 0.02223176881670952, -0.028298966586589813, -0.05645805224776268, -0.014096217229962349, -0.02152980864048004, -0.027459057047963142, 0.03118458390235901, 0.0645977258682251, 0.06934217363595963, -0.019300589337944984, -0.03759576007723808, 0.08145274966955185, -0.0025842604227364063, -0.027654673904180527, 0.04412809759378433, 0.012840849347412586, 0.08767560124397278, -0.02334067039191723, -0.06296250969171524, 0.016191231086850166, 0.04087606444954872, 0.0052054887637495995, -0.02467408776283264, -0.033827852457761765, -0.041180793195962906, -0.010541352443397045, -0.07386066764593124, 0.08542470633983612, -0.036679282784461975, -0.034834861755371094, -0.018174581229686737, 0.011203537695109844, -0.005016894545406103, -0.0027369647286832333, -0.04860217496752739, 0.04181698337197304, 0.0009332312038168311, -0.025887947529554367, -0.07025185227394104, 0.03990091010928154, -0.010075308382511139, 0.05102388188242912, -0.07660960406064987, 0.0070512848906219006, 0.025907086208462715, -0.04509875178337097, -0.04229780659079552, -0.019307389855384827, -0.007323617115616798, -0.015540995635092258, 0.043257616460323334, -0.08379761874675751, 0.050209857523441315, -0.01845703274011612, -0.06787219643592834, -0.05390108749270439, 0.11216269433498383, -0.08839783817529678, 0.008501417934894562, 0.07886744290590286, -0.05229923129081726, -0.03224856033921242, -0.10601729899644852, 0.006345328874886036, 0.018552184104919434, -0.06580216437578201, -0.006044878624379635, 0.09604325890541077, -0.004452557303011417, -0.026333153247833252, 0.06399234384298325, 0.0959990918636322, 0.009683624841272831, -0.03984852507710457, -0.10320745408535004, -0.04505078122019768, 0.02444671280682087, -0.0020240996964275837, -0.028029421344399452, 0.008973275311291218, 0.05759203061461449, 0.06688527017831802, -0.060122061520814896, 0.008686717599630356, -0.03762584924697876, -0.0074570635333657265, -0.06056606024503708, -0.011516734957695007, -0.003421621862798929, 0.025846099480986595, 0.0468289814889431, 0.07743222266435623, -0.04056190699338913, -0.03588195890188217, 0.060349997133016586, -0.0512881837785244, 0.06164610758423805, 0.06674716621637344, -0.010416815057396889, 0.04758875444531441, -0.02057763747870922, 0.035722825676202774, 0.010304534807801247, -0.05069839209318161, 0.012343037873506546, 0.034283023327589035, 0.012099568732082844, 0.0059656105004251, -0.02528984285891056, -0.002193512860685587], [0.050601568073034286, 0.0034958829637616873, 0.19713573157787323, -0.022916007786989212, 0.01733667030930519, 0.07977071404457092, 0.02579960785806179, -0.0193906482309103, -0.020761292427778244, -0.09677661210298538, 0.13441362977027893, -0.1347641944885254, 0.141891747713089, 0.09107167273759842, 0.07811498641967773, 0.025531278923153877, 0.007505771238356829, -0.0026594025548547506, -0.0640336349606514, -0.04135984182357788, 0.06088794022798538, -0.048156362026929855, -0.029567066580057144, 0.029584800824522972, 0.26107555627822876, 0.003402961418032646, 0.08399205654859543, 0.0018968951189890504, -0.020681338384747505, 0.2722662687301636, -0.13690969347953796, -0.015414290130138397, -0.19897758960723877, -0.1618509441614151, -0.007637625094503164, 0.22350366413593292, 0.024517619982361794, 0.07350371032953262, 0.10878273099660873, 0.03457718342542648, 0.10122249275445938, 0.10576025396585464, 0.013472910970449448, 0.03637794032692909, -0.08915148675441742, -0.032222479581832886, 0.007454381790012121, 0.009356983937323093, -0.05300616845488548, -0.09002041816711426, 0.022272517904639244, 0.2007104456424713, 0.031094074249267578, 0.08919699490070343, -0.005429625511169434, 0.0744750052690506, -0.027296042069792747, -0.09463349729776382, 0.03231915459036827, 0.16678138077259064, 0.06852120906114578, 0.2632511258125305, -0.06499703228473663, 0.2544111907482147, 0.0005402046372182667, 0.07049305737018585, 0.05338014289736748, -0.06494917720556259, 0.03155504912137985, 0.001947639393620193, -0.021853486075997353, 0.03820325434207916, -0.011155344545841217, -0.08901479095220566, -0.04141876846551895, 0.0313391275703907, 0.07464300841093063, 0.06718365848064423, -0.07358860969543457, -0.004708875436335802, 0.25341901183128357, -0.022023135796189308, -0.004187340848147869, -0.021089868620038033, -0.002603519009426236, 0.028743255883455276, 0.0269024521112442, -0.10699345171451569, 0.054302457720041275, -0.014509282074868679, 0.05228462442755699, 0.019974684342741966, 0.10151407867670059, -0.07043682783842087, 0.11608879268169403, -0.07985921949148178, 0.04672888666391373, -0.07120794802904129, -0.03850027546286583, 0.0183568112552166, 0.006052113603800535, -0.04171706736087799, -0.02694791927933693, 0.03484076261520386, -0.032345131039619446, -0.05732223764061928, 0.0351959764957428, 0.00587252015247941, 0.030309045687317848, 0.010809236206114292, 0.019122837111353874, 0.07537545263767242, 0.026442548260092735, 0.07678873836994171, -0.02330666221678257, -0.0409078486263752, 0.004790830425918102, -0.08997902274131775, 3.5831111745210364e-05, 0.09806541353464127, 0.10772180557250977, -0.008221924304962158, -0.04118669033050537, -0.007847153581678867, -0.04394106939435005, 0.020343400537967682, -0.03417801111936569, 0.11213550716638565, -0.09709268808364868, 0.10540825128555298, -0.045800186693668365, -0.017278732731938362, 0.06819535046815872, -0.04679706692695618, -0.05325989052653313, -0.03626074269413948, -0.016889864578843117, -0.06195197254419327, 0.04386117681860924, 0.01291548740118742, -0.04820806160569191, -0.036689091473817825, 0.20862431824207306, 0.02099592238664627, -0.017212430015206337, 0.03869501128792763, -0.05118934065103531, -0.3467733860015869, -0.11286275833845139, 0.013664544560015202, -0.04618021473288536, 0.03117821365594864, 0.15557436645030975, 0.05698003992438316, -0.06338351219892502, -0.003190582152456045, 0.016850009560585022, -0.03904919698834419, 0.007041448727250099, -0.01917789690196514, -0.006304479204118252, 0.00925277080386877, -0.06796681880950928, 0.06800293922424316, 0.33827391266822815, 0.04445488005876541, 0.04237541928887367, 0.02373005822300911, 0.04851745441555977, 0.08804456889629364, 0.010260644368827343, -0.002759363502264023, -0.10457387566566467, -0.019636183977127075, 0.03607695549726486, 0.06795503944158554, 0.03488197922706604, -0.10380145907402039, 0.03658578544855118, 0.06965833157300949, 0.15602706372737885, 0.03401115909218788, -0.15846817195415497, 0.00289937318302691, -0.10102113336324692, -0.04285210743546486, 0.023181870579719543, -0.10134635120630264, 0.1327226161956787, -0.06918229907751083, -0.046353183686733246, 0.026891445741057396, -0.15619930624961853, 0.0759035050868988, -0.01930113323032856, 0.04576690122485161, -0.03812798112630844, 0.03464532271027565, -0.08651246875524521, 0.0051038009114563465], [0.027200397104024887, 0.0008937653619796038, -0.09329335391521454, 0.045066170394420624, 0.023893609642982483, 0.09237051010131836, -0.004507346078753471, -0.00293950317427516, 0.0146125303581357, 0.030605338513851166, 0.08410295844078064, 0.021334277465939522, 0.0024804025888442993, -0.049630261957645416, -0.019670529291033745, -0.028209371492266655, -0.08149033039808273, -0.11767445504665375, -0.024709368124604225, -0.01257308665663004, -0.11301810294389725, 0.026615699753165245, 0.05483417585492134, -0.04280225560069084, 0.03365644812583923, 0.05053658410906792, -0.004255808889865875, -0.011418953537940979, -0.03674233332276344, -0.030918527394533157, 0.018614675849676132, 0.06501764059066772, -0.06790705025196075, 0.007434523664414883, 0.04547026753425598, 0.020929310470819473, -0.031789932399988174, -0.07102738320827484, -0.022074544802308083, 0.057998742908239365, 0.05995532125234604, -0.016824448481202126, 0.06485600024461746, -0.0023650999646633863, 0.023909753188490868, 0.013272895477712154, 0.02525682933628559, -0.006444436497986317, 0.022712908685207367, -0.04169803857803345, 0.0420583114027977, -0.019456058740615845, -0.058093734085559845, 0.10556293278932571, 0.032086148858070374, -0.019374823197722435, -0.029653292149305344, -0.03697807714343071, 0.05146924778819084, 0.030042177066206932, 0.007663031108677387, -0.02779398113489151, -0.05362069234251976, -0.02657385915517807, 0.052889950573444366, 0.04286044090986252, -0.07505406439304352, -0.05563807860016823, -0.04227502644062042, -0.03540986403822899, 0.021512333303689957, -0.019451450556516647, -0.04862546920776367, -0.03170441836118698, 0.09604372084140778, 0.04908103495836258, -0.06341972202062607, 0.01053555216640234, -0.05861334502696991, 0.0433950237929821, -0.003963167779147625, -0.03527170047163963, -0.012752179056406021, 0.016686147078871727, 0.012589076533913612, -0.06377052515745163, -0.019487101584672928, 0.06088845059275627, 0.09946742653846741, -0.07793580740690231, 0.08762972056865692, -0.02151648886501789, 0.01574925146996975, 0.012143381871283054, -0.018267707899212837, -0.08508095890283585, -0.050538573414087296, -0.007296454161405563, 0.05280924588441849, -0.0904490202665329, 0.029093069955706596, 0.00959913432598114, 0.041785646229982376, -0.04984075576066971, -0.03210155665874481, 0.02077336609363556, 0.09792754054069519, -0.0833672508597374, -0.040216393768787384, 0.027369262650609016, -0.08594288676977158, -0.011266548186540604, -0.02025003731250763, 0.10111312568187714, -0.07157648354768753, 0.0441967137157917, 0.087391696870327, -0.03432435914874077, -0.01688000187277794, -0.029587669298052788, -0.00503971241414547, 0.09805390238761902, 0.043696481734514236, -0.054824016988277435, -0.0605277344584465, -0.06927155703306198, -0.007635518442839384, 0.052228402346372604, -0.11734097450971603, -0.10522165894508362, 0.07761827111244202, -0.04509073868393898, 0.02150093950331211, 0.0404898039996624, -0.026709720492362976, -0.025771284475922585, -0.07397612929344177, 0.055375635623931885, -0.02704559825360775, 0.06995140761137009, 0.06182429566979408, -0.04217236489057541, 0.017183586955070496, 0.03200441598892212, -0.039001740515232086, 0.049718983471393585, 0.024010300636291504, 0.06578410416841507, 0.007355374749749899, -0.0039378926157951355, 0.007982701063156128, -0.0543358288705349, 0.014038360677659512, -0.010083437897264957, -0.037096209824085236, 0.01889004185795784, 0.06337802857160568, -0.023917222395539284, -0.09219994395971298, -0.07150857895612717, 0.07746698707342148, 0.006759996525943279, -0.015570392832159996, 0.042726851999759674, 0.0520193912088871, 0.0020269749220460653, 0.09250669181346893, -0.016012385487556458, -0.012697504833340645, 0.03554736450314522, -0.1021643802523613, -0.05853980779647827, -0.09317998588085175, -0.008684683591127396, -0.06918442249298096, 0.015824545174837112, 0.10783255100250244, -0.029537655413150787, 0.05158069729804993, -0.044025227427482605, -0.015252859331667423, -0.013473669067025185, 0.023425238206982613, -0.020035430788993835, -0.06779517978429794, 0.0259858351200819, 0.051645249128341675, 0.07015156745910645, 0.01624681055545807, 0.04896119609475136, 0.030290555208921432, -0.0905180424451828, 0.04869823902845383, -0.00414182897657156, -0.09455128014087677, 0.00106755830347538, -0.035101402550935745, -0.02793865278363228, -0.1259639859199524, -0.08580300956964493], [-0.0650843158364296, 0.003041377756744623, -0.07500216364860535, 0.07053256779909134, 0.04986238107085228, -0.051560837775468826, -0.03622658923268318, -0.01634524203836918, 0.050911515951156616, 0.03717542812228203, -0.0681881308555603, 0.04290004447102547, 0.05349911376833916, -0.009951306506991386, -0.060599107295274734, 0.014658933505415916, 0.020223567262291908, 0.009549560956656933, 0.03465687111020088, 0.013358854688704014, -0.01421274896711111, -0.010361353866755962, -0.02289591170847416, -0.01851341873407364, 0.012105129659175873, 0.005598624236881733, -0.00023111158225219697, -0.04240189865231514, 0.09961605817079544, 0.10035444051027298, 0.055916693061590195, 0.05927285924553871, -0.1038275808095932, -0.03317933902144432, 0.07519616931676865, -0.03660091012716293, 0.04943425580859184, 0.04273628443479538, -0.09080784022808075, 0.06507846713066101, 0.027611497789621353, -0.08507997542619705, -0.03166362643241882, -0.07104618102312088, -0.06113447621464729, 0.0392540767788887, 0.067963145673275, -0.01534697413444519, 0.05948550999164581, -0.008376643061637878, -0.031624965369701385, -0.09308242052793503, 0.056504879146814346, -0.01608680933713913, -0.06878547370433807, 0.01667226478457451, 0.0485943928360939, 0.03389408811926842, 0.04991782829165459, 0.010379908606410027, 0.01514208409935236, -0.0724843442440033, 0.039911478757858276, -0.019137773662805557, -0.022646725177764893, 0.06115943565964699, -0.06632153689861298, -0.11750258505344391, -0.07733450084924698, 0.025811394676566124, 0.01928325742483139, -0.007117145694792271, -0.04827773571014404, 0.03412218764424324, 0.05681530758738518, -0.05233524739742279, 0.08669103682041168, 0.008469865657389164, 0.023829318583011627, -0.03963097929954529, -0.07310891151428223, -0.041647329926490784, -0.027377557009458542, 0.055873241275548935, 0.06690149009227753, 0.08930619806051254, 0.07421503961086273, 0.028905726969242096, -0.008772962726652622, -0.05241494998335838, -0.020610393956303596, -0.09961781650781631, -0.04482460394501686, -0.02169625088572502, -0.04992487281560898, 0.006395760923624039, 0.020814871415495872, 0.10392878949642181, -0.004813766106963158, 0.03247598186135292, -0.025913041085004807, 0.017038503661751747, 0.04811623692512512, -0.09382228553295135, 0.05475389212369919, 0.0016959004569798708, -0.07063066214323044, 0.015399223193526268, -0.02857881598174572, 0.03433675318956375, 0.008717336691915989, 0.0475250706076622, -0.030434636399149895, -0.026303473860025406, 0.06182406470179558, -0.08115549385547638, -0.10058294236660004, 0.05929438769817352, 0.030348768457770348, -0.05784502997994423, -0.09324856102466583, 0.02216707356274128, -0.06025330349802971, -0.06688472628593445, 0.0160825178027153, -0.005778319668024778, -0.007503726985305548, -0.04270806536078453, 0.03977787122130394, -0.09201032668352127, -0.07876595109701157, 0.009572488255798817, -0.057874709367752075, 0.008946586400270462, 0.07908995449542999, -0.07723929733037949, 0.0048994082026183605, -0.09742233902215958, 0.08003611862659454, -0.018097583204507828, -0.0740460753440857, 0.028963329270482063, 0.03387025371193886, -0.05488834157586098, 0.03605034947395325, -0.04325466603040695, 0.07185322791337967, -0.012855933979153633, -0.0585213340818882, -0.020482534542679787, -0.0010836570290848613, -0.07994548976421356, 0.0800846740603447, 0.039444729685783386, -0.0684669092297554, -0.019965603947639465, -0.020608428865671158, -0.02223804220557213, -0.053553491830825806, -0.05259981378912926, 0.043343786150217056, -0.023893460631370544, -0.05174881964921951, -0.03837272897362709, 0.051972128450870514, 0.03788052126765251, 0.013225958682596684, 0.014869870617985725, -0.09312719851732254, 0.07351700216531754, -0.039302971214056015, 0.052985645830631256, 0.01207070704549551, -0.010093058459460735, 0.033837299793958664, 0.007723470684140921, 0.023439280688762665, 0.04084036499261856, 0.10250768810510635, 0.03428841754794121, -0.030811969190835953, -0.0038750371895730495, -0.05286358669400215, -0.021761836484074593, -0.004765491466969252, -0.02000720426440239, -0.08522195369005203, -0.014411551877856255, -0.012325979769229889, -0.0812707170844078, 0.05752590671181679, 0.005958271212875843, 0.04701216146349907, -0.0644603967666626, -0.11277633905410767, -0.004102330654859543, 0.011340389959514141, -0.04792341962456703, -0.11477881669998169, 0.009492565877735615], [-0.06421724706888199, 0.0008211392560042441, 0.03726917877793312, -0.0490703247487545, -0.08621982485055923, -0.05144115909934044, -0.08984997123479843, 0.0660734698176384, 0.03162176534533501, 0.10129442065954208, -0.0798695832490921, 0.008380459621548653, -0.06307387351989746, 0.03379223868250847, -0.02979070506989956, -0.11700055003166199, -0.07038632035255432, -0.031316209584474564, -0.012993710115551949, 0.022118808701634407, -0.03498200327157974, 0.06253039091825485, -0.08369427919387817, -0.0885578840970993, -0.0014982310822233558, -0.04164564236998558, 0.010046225041151047, -0.10513868927955627, 0.05006176605820656, 0.062208522111177444, 0.0802459716796875, 0.00335099408403039, -0.060537174344062805, -0.014981342479586601, -0.023807767778635025, -0.09632966667413712, -0.0038469373248517513, -0.10714053362607956, -0.028288202360272408, -0.08086564391851425, -0.07340925931930542, -0.06302735209465027, 0.03061519004404545, -0.04758010059595108, -0.07162486016750336, 0.046869684010744095, 0.01369173638522625, 0.1035592257976532, -0.022964736446738243, -0.04366954416036606, 0.022373681887984276, 0.0354594886302948, -0.03961983695626259, 0.02980528585612774, 0.011862393468618393, -0.08223313093185425, 0.013643547892570496, 0.01388003770262003, 0.07335858047008514, 0.015688402578234673, -0.029297232627868652, 0.023496927693486214, 0.08967301994562149, -0.023716187104582787, -0.004211592487990856, 0.024724412709474564, -0.061532601714134216, -0.07001417875289917, -0.0496831052005291, 9.242440137313679e-05, 0.09230145066976547, 0.06761550158262253, 0.003589220577850938, 0.012784088030457497, 0.037593670189380646, 0.037148576229810715, 0.02686357870697975, 0.03901498764753342, 0.07141296565532684, 0.05745505169034004, -0.07432418316602707, 0.02251485176384449, -0.02115512453019619, -0.006047852803021669, -0.019734278321266174, -0.0043455869890749454, -0.008455985225737095, 0.018362080678343773, 0.045692458748817444, 0.024906449019908905, -0.040318772196769714, -0.061236780136823654, -0.00021109468070790172, 0.01385955885052681, 0.011297125369310379, 0.054403576999902725, -0.011887983419001102, 0.07562042772769928, -0.08420105278491974, 0.00104019686114043, -0.006227295380085707, -0.0028640178497880697, 0.02333393134176731, -0.07384826987981796, -0.016797007992863655, -0.013309911824762821, -0.028470229357481003, -0.06370323151350021, 0.039037104696035385, -0.054934002459049225, 0.06982383131980896, 0.029481718316674232, 0.06600326299667358, 0.09335785359144211, -0.07212883234024048, 0.05459900200366974, -0.07974595576524734, -0.008157792501151562, -0.05081777274608612, 0.048594146966934204, -0.01021461933851242, -0.0222222451120615, 0.08421497046947479, -0.06873831897974014, -0.09003734588623047, -0.07305268198251724, 0.08626937866210938, -0.021766941994428635, -0.0019278281833976507, -0.03503938391804695, -0.09220880270004272, -0.06382989883422852, -0.10143481194972992, -0.11641332507133484, 0.0625198483467102, -0.016149235889315605, -0.02457617036998272, 0.06098790466785431, -0.021159270778298378, -0.07296952605247498, 0.015866555273532867, -0.0549488440155983, 0.08341740816831589, -0.08549872785806656, -0.014885001815855503, 0.06462515890598297, -0.03306346386671066, -0.018383612856268883, 0.07318491488695145, 0.08686015754938126, -0.06505658477544785, 0.026874477043747902, 0.0013911788119003177, -0.050210367888212204, 0.09458004683256149, 0.06960443407297134, 0.006911125034093857, -0.002635193057358265, -0.08799878507852554, -0.005311667453497648, -0.05279882252216339, -0.029925307258963585, -0.009682603180408478, 0.04499407857656479, 0.05077950283885002, 0.09560547769069672, -0.036897435784339905, 0.02521325834095478, -0.03626890853047371, 0.023938871920108795, 0.10480298846960068, 0.012758290395140648, -0.010030481033027172, -0.02970491349697113, 0.014413628727197647, -0.03725771978497505, -0.017077796161174774, 0.016222283244132996, -0.06528137624263763, -0.07880013436079025, -0.09599791467189789, -0.0822632908821106, -0.07626931369304657, -0.046185046434402466, 0.10376052558422089, 0.0932135283946991, 0.06419313699007034, -0.058729756623506546, -0.009624683298170567, -0.054747845977544785, 0.06532567739486694, -0.013715173117816448, -0.014713100157678127, 0.026829805225133896, 0.003747147275134921, -0.017254723235964775, -0.030695635825395584, -0.022127309814095497, -0.01611005887389183, 0.05067548528313637], [-0.058553848415613174, -0.07673561573028564, 0.026514746248722076, 0.09789425879716873, -0.0004933399613946676, -0.01913648284971714, -0.035127777606248856, 0.020714540034532547, -0.019043512642383575, 0.07930386066436768, 0.01155585516244173, 0.06022322550415993, 0.027090206742286682, -0.0037347686011344194, 0.0373784564435482, -0.018196139484643936, 0.04425707831978798, 0.022360337898135185, 0.06484446674585342, -0.03280564770102501, 0.006812055129557848, -0.016485299915075302, -0.035218194127082825, -0.009237389080226421, -0.015017062425613403, 0.07579705119132996, -0.001570454565808177, -0.03860616311430931, -0.03767230734229088, 0.03238436207175255, -0.03921601176261902, -0.044442709535360336, 0.007414442487061024, 0.09348976612091064, -0.05370049178600311, -0.044559307396411896, -0.041364215314388275, -0.035585418343544006, 0.05315399914979935, -0.01648913137614727, 0.01451604999601841, -0.027112135663628578, -0.05162317678332329, 0.07386072725057602, -0.057711198925971985, -0.03895069658756256, -0.019074011594057083, -0.04652484133839607, -0.021557943895459175, 0.00484476238489151, -0.015763981267809868, 0.04859684780240059, -0.11204405874013901, -0.07734846323728561, -0.035518910735845566, 0.07624861598014832, -0.0925896018743515, -0.0655432939529419, 0.07589329034090042, 0.09856565296649933, -0.0857989564538002, 0.02977820113301277, 0.006024203263223171, -0.056495342403650284, -0.08249621093273163, -0.03799020126461983, -0.030320176854729652, 0.046750910580158234, -0.052232854068279266, 0.0592661127448082, -0.03866855055093765, -0.05112255737185478, -0.023741863667964935, 0.07793212682008743, 0.097182497382164, -0.09729339927434921, 0.04069293662905693, 0.08767542243003845, 0.09478862583637238, 0.04809918627142906, 0.03669644147157669, 0.06797021627426147, -0.028167517855763435, -0.10313490778207779, 0.052513618022203445, 0.012387679889798164, 0.02143448404967785, -0.06296396255493164, -0.014051564037799835, 0.05689983069896698, 0.010940049774944782, 0.028503727167844772, -0.012646962888538837, 0.007615101058036089, 0.0022281298879534006, 0.06183233857154846, -0.11624360084533691, -0.03552238643169403, -0.0456748865544796, -0.021357499063014984, 0.048303522169589996, -0.022366661578416824, 0.09828560799360275, 0.03693260997533798, -0.08065122365951538, 0.004912198055535555, 0.014592080377042294, -0.020818611606955528, -0.045813966542482376, -0.02992972359061241, 0.03957708552479744, -0.014858454465866089, -0.0712999552488327, -0.07415807992219925, 0.042475953698158264, -0.028140302747488022, -0.10007298737764359, 0.004389173351228237, 0.01641572266817093, -0.011958355084061623, 0.09568922966718674, -0.057704050093889236, -0.02698945254087448, 0.013252411037683487, -0.033937059342861176, -0.0024583805352449417, 0.024601854383945465, 0.05650293827056885, -0.012400046922266483, 0.039211075752973557, 0.03765255585312843, -0.010272955521941185, -0.03769013658165932, -0.026711702346801758, -0.0009682080126367509, -0.06270073354244232, -0.03244008123874664, -0.05405779927968979, -0.07829945534467697, -0.021500922739505768, 0.015285193920135498, 0.021309375762939453, 0.07900795340538025, 0.003951472695916891, -0.08332814276218414, -0.07429581135511398, 0.046913664788007736, -0.06508757919073105, -0.012052174657583237, 0.05636518448591232, 0.023965416476130486, -0.029971444979310036, 0.026018550619482994, -0.002700666431337595, -0.0440884493291378, 0.06392582505941391, 0.07884366810321808, -0.09541737288236618, 0.07175467908382416, 0.015407799743115902, -0.025400720536708832, -0.0346132330596447, 0.09715845435857773, 0.043884534388780594, -0.0023154558148235083, 0.05123008415102959, 0.05443355441093445, -0.016760719940066338, 0.038119733333587646, 0.02271563746035099, -0.057990457862615585, -0.015194539912045002, 0.0409339964389801, -0.11825110763311386, 0.07626322656869888, 0.014265338890254498, -0.043141987174749374, 0.07423653453588486, -0.051035262644290924, 0.09364229440689087, 0.03079141676425934, -0.004992146044969559, -0.02462737448513508, -0.04922805726528168, -0.08276946097612381, 0.018460901454091072, -0.09761673212051392, 0.04084748774766922, 0.0584116093814373, 0.05894792079925537, 0.04815761744976044, -0.005445040762424469, -0.041140057146549225, 0.04689023643732071, 0.04791422188282013, -0.0018920208094641566, -0.1151541993021965, 0.11128494888544083, -0.07314406335353851, -0.048447296023368835], [-0.07336550951004028, -0.011075004935264587, 0.06498996913433075, -0.0013431988190859556, 0.05089998617768288, -0.07419111579656601, 0.005520029459148645, -0.0233465489000082, 0.0028609042055904865, 0.03617332875728607, -0.11492068320512772, -0.03350574150681496, -0.024034330621361732, -0.02934553660452366, -0.010609001852571964, -0.08089199662208557, -0.060362838208675385, -0.11790196597576141, -0.11324052512645721, -0.09643163532018661, -0.06820259243249893, -0.09871040284633636, -0.014448132365942001, -0.006496735382825136, 0.05601802468299866, -0.04026549309492111, 0.07065387070178986, -0.05330181494355202, -0.0031489848624914885, -0.03597372770309448, -0.001443109125830233, 0.029727689921855927, -0.00751500716432929, 0.00147887016646564, 0.028001153841614723, -0.002234227489680052, 0.05280943587422371, 0.044596362859010696, 0.0721471831202507, 0.005967684090137482, -0.040739282965660095, -0.05213398486375809, -0.02198169007897377, -0.07531770318746567, 0.023805836215615273, -0.0432933047413826, 0.036436256021261215, 0.10447344928979874, -0.07591914385557175, -0.0031393293756991625, -0.0016192790353670716, -0.016572894528508186, 0.002539529697969556, -0.024964533746242523, 0.05732326954603195, 0.02301068976521492, -0.09097886085510254, 0.06879860162734985, 0.016993075609207153, -0.04234311729669571, 0.04064912721514702, -0.0757080689072609, 0.018355263397097588, 0.08008936792612076, -0.05263226479291916, 0.04058581590652466, 0.050860971212387085, -0.04658271372318268, -0.07684055715799332, 0.047606226056814194, -0.007591583300381899, -0.03441886231303215, -0.017846833914518356, -0.009203816764056683, -0.022498974576592445, -0.035125963389873505, 0.008295663632452488, -0.009796040132641792, 0.10311879962682724, -0.11230669915676117, 0.03338988497853279, 0.1055140420794487, 0.008725493215024471, -0.07625629007816315, -0.09637877345085144, 0.06739718466997147, -0.047281574457883835, 0.03215991333127022, 0.038928765803575516, 0.08720802515745163, 0.08626040071249008, -0.06796310096979141, -0.05767916515469551, -0.05391247943043709, 0.06551282107830048, 0.03400573879480362, -0.012159661389887333, 0.04043047875165939, 0.00034940987825393677, 0.07630805671215057, -0.10128165036439896, -0.03866385295987129, 0.004395489580929279, -0.006137071643024683, -0.09094405919313431, 0.032674454152584076, -0.03701433911919594, 0.0361601747572422, -0.08443640172481537, -0.11698328703641891, 0.0525965541601181, -0.010206206701695919, -0.011903141625225544, -0.009024168364703655, 0.03137630596756935, -0.1028372198343277, 0.024111732840538025, 0.03285648301243782, -0.05985977128148079, 0.0057031214237213135, 0.004881314001977444, 0.019709264859557152, -0.056315828114748, 0.024754075333476067, -0.07085832208395004, 0.02504103258252144, 0.03374958410859108, -0.012131021358072758, 0.018738431856036186, 0.003690007608383894, 0.06603557616472244, 0.041453659534454346, -0.013197383843362331, -0.042057327926158905, 0.034178730100393295, -0.04077567905187607, -0.010143117979168892, 0.04163368046283722, 0.006304293405264616, -0.06844303011894226, -0.005672331899404526, 0.05683116614818573, 0.08059320598840714, -0.04579196497797966, 0.055872902274131775, -0.003723808331415057, -0.11296691000461578, -0.031170744448900223, 0.050202637910842896, 0.07113955169916153, -0.009604395367205143, -0.042207520455121994, 0.008948816917836666, -0.010420561768114567, -0.014292264357209206, -0.11205054074525833, 0.021532569080591202, 0.044329896569252014, -0.032889124006032944, -0.03500210493803024, 0.013860365375876427, 0.08849963545799255, 0.04285608232021332, -0.04338229447603226, 0.08289390057325363, 0.06257987022399902, -0.0016249455511569977, -0.05287338048219681, -0.04872085526585579, 0.058904364705085754, -0.013409843668341637, 0.0009302897960878909, -0.04976006969809532, -0.0660213753581047, 0.02617531456053257, 0.07380836457014084, 0.08858227729797363, 0.005327056162059307, -0.09497091174125671, -0.040602829307317734, -0.03605357185006142, 0.0028512601274996996, -0.02976004034280777, 0.06749780476093292, -0.047257453203201294, -0.026964528486132622, -0.049882471561431885, 0.026351748034358025, 0.019557494670152664, 0.02411734312772751, 0.02926739677786827, 0.06453564018011093, -0.03351954370737076, -0.028561260551214218, -0.06565184891223907, 0.06558205187320709, -0.02973616123199463, -0.08908814936876297, -0.036354340612888336, -0.04552510008215904], [0.05740663781762123, -0.027892908081412315, -0.04719919711351395, 0.017450988292694092, -0.021644793450832367, -0.03402327001094818, -0.02422185242176056, 0.040146395564079285, -0.045762889087200165, -0.058377645909786224, -0.05831126123666763, 0.04160679131746292, -0.024364028126001358, 0.015533403493463993, -0.0347260981798172, 0.04417351260781288, -0.028651122003793716, -0.0712684839963913, -0.009572402574121952, 0.07943384349346161, -0.027103062719106674, 0.05831547826528549, -0.0289516169577837, 0.016763128340244293, -0.01092870905995369, -0.03915656358003616, 0.017032235860824585, -0.026520438492298126, -0.07712457329034805, 0.008154865354299545, 0.02098950557410717, -0.10510352998971939, 0.016547290608286858, 0.06698092073202133, 0.02523893304169178, -0.010056239552795887, -0.12629321217536926, 0.04393516108393669, -0.006574591621756554, -0.012465695850551128, -0.0003185930836480111, 0.09021114557981491, 0.0965486392378807, 0.034268274903297424, -0.05689464509487152, -0.05396656692028046, 0.003956313710659742, 0.03428978845477104, -0.026412764564156532, -0.09272787719964981, -0.0422506220638752, -0.10083789378404617, 0.01009480468928814, -0.007032737601548433, -0.022127501666545868, 0.014054657891392708, -0.04082529619336128, 0.09209205210208893, 0.05733627825975418, -0.07865092903375626, 0.015939146280288696, -0.07918957620859146, 0.05188407003879547, -0.08456441760063171, -0.023503901436924934, 0.04123999550938606, -0.11018887162208557, 0.007942617870867252, 0.05859389901161194, 0.03425169736146927, -0.00016016435984056443, -0.04700917750597, 0.03261256963014603, -0.04648550599813461, 0.019285818561911583, -0.11772502213716507, 0.07498901337385178, 0.025607913732528687, 0.07722600549459457, 0.028918413445353508, 0.026431076228618622, -0.019892744719982147, -0.08607825636863708, 0.038620129227638245, 0.019678011536598206, 0.03868022933602333, -0.0010199296521022916, 0.025728430598974228, -0.04559700936079025, 0.004160646814852953, -0.025679048150777817, -0.03739122301340103, -0.08834464102983475, -0.04090830683708191, 0.051043715327978134, -0.01427538599818945, 0.0034084583166986704, -0.012808545492589474, -0.04620383307337761, 0.015191362239420414, 0.0027106264606118202, -0.02582227624952793, 0.007803980261087418, -0.05976956710219383, 0.0857476219534874, 0.028648577630519867, 0.034877702593803406, -0.03791105002164841, -0.0737331360578537, 0.009552878327667713, 0.024028999730944633, -0.0017684019403532147, -0.004023602232336998, -0.0579490140080452, 0.04420590028166771, -0.026690779253840446, -0.009581352584064007, -0.11529166996479034, -0.06451988220214844, -0.0483575277030468, 0.013156245462596416, -0.024713175371289253, 0.002441523829475045, -0.05192244052886963, 0.02996612712740898, 0.005820075049996376, 0.019345641136169434, 0.019440602511167526, -0.06800924986600876, -0.021496661007404327, 0.040811456739902496, 0.06572766602039337, -0.0013889737892895937, -0.08763924241065979, -0.045412588864564896, -0.009014430455863476, 0.011801342479884624, 0.018668226897716522, -0.055736690759658813, 0.08108925819396973, -0.058325767517089844, -0.07956022769212723, 0.014377105049788952, -0.022663939744234085, -0.032341618090867996, -0.04372004047036171, -0.0030198991298675537, -0.033143069595098495, -0.03311401978135109, -0.024045534431934357, 0.05346718803048134, 0.03500821068882942, -0.07430152595043182, -0.02082017809152603, 0.06723952293395996, -0.002523717936128378, -0.054091472178697586, -0.06000233069062233, -0.02098679170012474, 0.005225328262895346, -0.004798002541065216, -0.0017754307482391596, 0.014304808340966702, -0.04193590581417084, -0.05558602139353752, -0.05909091606736183, 0.005981157533824444, -0.07414054870605469, -0.05802612751722336, 0.06838643550872803, 0.0778384804725647, -0.042988136410713196, 0.04754951596260071, 0.06085021421313286, 0.01206519827246666, 0.015134335495531559, -0.03639942407608032, 0.015935523435473442, -0.004005298018455505, 0.07613052427768707, -0.02188749611377716, 0.0962676927447319, -0.007724257651716471, 0.028142917901277542, -0.008520020171999931, -0.05913854017853737, -0.0002831510500982404, -0.04049799591302872, -0.0254855677485466, -0.051657211035490036, -0.039119210094213486, -0.00949341431260109, -0.003508450463414192, -0.022771622985601425, 0.05185968428850174, -0.013079456984996796, -0.024578582495450974, 0.045524898916482925, -0.005497176665812731, -0.08363594859838486], [0.0174313522875309, 0.01883024163544178, 0.058760613203048706, -0.05704928934574127, 0.013911392539739609, 0.02481268346309662, 0.04047365486621857, -0.06096247211098671, -0.056650951504707336, 0.0038615292869508266, -0.08158770948648453, -0.010808690451085567, -0.005399221554398537, -0.10186485946178436, -0.024909410625696182, 0.08932070434093475, 0.047268301248550415, 0.015548400580883026, -0.05096491053700447, 0.07455389946699142, -0.008195217698812485, 0.057187218219041824, -0.02842661738395691, 0.021475154906511307, -0.1040530726313591, -0.03961958736181259, -0.11849810928106308, -0.0028379277791827917, -0.07629524916410446, 0.056899067014455795, 0.03420250490307808, -0.027270708233118057, -0.056496649980545044, -0.06481972336769104, 0.03797616437077522, -0.07874903827905655, -0.0765642374753952, 0.039221011102199554, 0.017705261707305908, 0.06377177685499191, -0.01546959113329649, 0.09727894514799118, -0.12632131576538086, 0.046265847980976105, -0.012625949457287788, -0.03341543301939964, 0.003347073681652546, -0.09752273559570312, 0.03797466307878494, -0.01043611392378807, 0.010900464840233326, -0.057727113366127014, -0.05605272576212883, 0.002994302660226822, 0.08120192587375641, -0.023713089525699615, 0.02487516775727272, -0.09516660124063492, -0.08826682716608047, -0.05939873680472374, 0.00448141572996974, -0.09111347049474716, -0.04952721297740936, -0.021644728258252144, 0.001545980223454535, -0.017233727499842644, -0.025707241147756577, 0.06912510097026825, 0.0679890513420105, -0.02174362540245056, -0.03362095728516579, -0.06326806545257568, -0.036121029406785965, -0.08556841313838959, -0.03872748836874962, -0.08355925232172012, -0.0445794053375721, -0.09161629527807236, 0.004154611378908157, 0.00807937327772379, 0.010931937955319881, -0.10800649225711823, 0.018006378784775734, 0.012338622473180294, 0.05208500102162361, -0.019510412588715553, 0.00854938942939043, -0.05358413606882095, -0.028278617188334465, 0.04173823818564415, -0.049150947481393814, 0.04319913312792778, 0.07281626760959625, 0.02621108666062355, 0.039783839136362076, -0.08471287041902542, 0.0049492791295051575, -0.003917014691978693, 0.03544735908508301, 0.08429230749607086, 0.017953451722860336, -0.01662684977054596, -0.006479522213339806, 0.07882420718669891, -0.019721105694770813, -0.006474655587226152, 0.07616645842790604, -0.13350535929203033, 0.034777410328388214, -0.0468834713101387, -0.08699153363704681, -0.06733465194702148, -0.04912978783249855, 0.05099237337708473, -0.034113019704818726, 0.01917383261024952, -0.043053824454545975, -0.04799813777208328, 0.09409910440444946, -0.04409995675086975, -0.07892922312021255, -0.04365938901901245, -0.06326772272586823, -0.011501201428472996, 0.00636871624737978, 0.021427880972623825, -0.11928009986877441, 0.04138179495930672, -0.0137361204251647, -0.011943263001739979, -0.022791551426053047, -0.012722752057015896, -0.016584036871790886, 0.019826922565698624, 0.05850544944405556, 0.0434061624109745, 0.03740137815475464, -0.009817695245146751, -0.016255592927336693, 0.07733836024999619, -0.026840360835194588, 0.031086277216672897, 0.05614684522151947, 0.0258000660687685, -0.034727543592453, -0.04465145245194435, -0.03721313551068306, -0.06392683833837509, -0.035651929676532745, -0.01680656522512436, 0.04077164828777313, -0.08819698542356491, 0.021374672651290894, 0.020552264526486397, 0.020360536873340607, 0.049694109708070755, -0.020339583978056908, -0.042056262493133545, -0.028302177786827087, -0.013447878882288933, -0.04187076911330223, -0.02167181856930256, -0.050365496426820755, 0.028610214591026306, -0.00012115753634134308, 0.021350082010030746, 0.06793912500143051, -0.0015881365397945046, -0.06480293720960617, -0.0921049639582634, 0.0746869221329689, -0.0008082488784566522, -0.004559798166155815, 0.010396684519946575, 0.035598061978816986, 0.016174649819731712, 0.005382664036005735, 0.07016455382108688, -0.10958592593669891, -0.006831230130046606, -0.0010407371446490288, -0.015957165509462357, -0.07563487440347672, 0.005881807766854763, 0.05895545706152916, 0.04283369332551956, -0.02610529214143753, -0.07772909104824066, -0.11002638936042786, -0.014522711746394634, 0.018732940778136253, -0.10663710534572601, -0.015050986781716347, -0.05388346686959267, -0.04970813915133476, 0.035533975809812546, -0.08392861485481262, 0.05594451725482941, -0.0324830524623394, 0.00012989863171242177], [0.025759704411029816, 0.039513617753982544, -0.009057515300810337, -0.02583293430507183, 0.04905929043889046, -0.01237370166927576, 0.012315815314650536, 0.06724575161933899, -0.036770980805158615, -0.021047454327344894, -0.03279002755880356, -0.051742199808359146, 0.01288160216063261, -0.12505629658699036, 0.06567329913377762, -0.036194298416376114, 0.023007720708847046, -0.001095765852369368, 0.075511135160923, -0.0607697069644928, 0.028272109106183052, 0.014964625239372253, -0.02563900128006935, 0.018260877579450607, -0.06497573852539062, 0.017870554700493813, -0.006807190366089344, 0.07442151010036469, -0.10196869820356369, 0.05091580003499985, 0.005272293463349342, -0.01751578412950039, -0.0418674610555172, -0.06890585273504257, -0.01847534067928791, -0.053711749613285065, -0.08114033937454224, 0.0020706194918602705, 0.026233691722154617, 0.016112415120005608, 0.08126017451286316, -0.029606161639094353, 0.04299421235918999, -0.03069487027823925, 0.024551870301365852, -0.04779845103621483, -0.0729794055223465, -0.09454265981912613, 0.0023198742419481277, 0.014039183035492897, -0.009921925142407417, -0.08971450477838516, -0.06396082043647766, -0.003880737815052271, 0.016002075746655464, -0.057739585638046265, 0.020050982013344765, -0.02632494829595089, -0.04880646988749504, -0.05655156821012497, 0.006394601427018642, -0.010174248367547989, -0.021568158641457558, -0.05342104658484459, -0.04710022360086441, -0.049343377351760864, -0.029068412259221077, -0.05744848772883415, 0.032310355454683304, -0.021005917340517044, -0.0694127157330513, -0.03378317505121231, -0.0399305634200573, 0.06388217210769653, 0.0291121955960989, 0.005749116186052561, -0.05924789607524872, 0.0071106874383986, 0.01625785604119301, 0.0749114453792572, 0.01065552607178688, -0.03338894248008728, 0.03767632693052292, 0.005639520473778248, 0.036655716598033905, -0.01706475391983986, 0.04395619407296181, 0.08892402797937393, 0.00275680935010314, 0.004603922832757235, 0.10514097660779953, -0.02782786265015602, -0.013451172970235348, 0.00966669525951147, 0.04812360554933548, 0.007815411314368248, -0.004903515800833702, 0.029021404683589935, -0.022108368575572968, -0.01637512817978859, -0.046958331018686295, 0.09191460907459259, -0.06111999973654747, -0.07331708818674088, 0.003648340469226241, -0.006667335983365774, 0.0230058953166008, -0.10869748890399933, -0.054761048406362534, -0.05359318107366562, -0.05054739490151405, 0.016965830698609352, -0.08610843867063522, 0.11293401569128036, 0.10952463001012802, 0.019230149686336517, -0.022783739492297173, -0.03463444486260414, 0.057775501161813736, 0.008916937746107578, 0.08439543843269348, -0.0324915274977684, 0.050504639744758606, 0.06069901958107948, 0.0045770760625600815, 0.01933935098350048, 0.025807902216911316, 0.010837173089385033, -0.060166001319885254, -0.0847611054778099, 0.02952350117266178, -0.06233631446957588, 0.06959524005651474, -0.05826786532998085, -0.040101341903209686, -0.0454588308930397, -0.009219815954566002, -0.08526928722858429, -0.014993144199252129, 0.008172229863703251, 0.025258541107177734, 0.03833137825131416, 0.0614224337041378, -0.0075925188139081, -0.06010136008262634, 0.019290275871753693, -0.09095519036054611, -0.052205488085746765, 0.08909612894058228, -0.042768921703100204, 0.05563430115580559, 0.016062302514910698, 0.028518319129943848, -0.014690790325403214, 0.006125243846327066, -0.037765029817819595, -0.04162643477320671, -0.00025147790438495576, -0.007425849791616201, -0.055313777178525925, -0.04908034950494766, -0.04798299819231033, 0.014227671548724174, -0.004680305253714323, 0.028713284060359, 0.019000694155693054, 0.037831325083971024, 0.006507989950478077, -0.07105997949838638, 0.07467725872993469, -0.041665930300951004, 0.02836083620786667, 0.039808034896850586, -0.06807924062013626, 0.024340244010090828, -0.07695543766021729, -0.013075755909085274, -0.0015383850550279021, -0.05308309569954872, -0.04625717177987099, 0.0029757171869277954, -0.01257422473281622, -0.03213966265320778, -0.11315962672233582, 0.09907520562410355, -0.0797257050871849, 0.04015273600816727, -0.04067331179976463, 0.0029395227320492268, 0.020954113453626633, 0.02056313119828701, -0.10312137752771378, -0.024525834247469902, -0.03530104458332062, 0.05871067941188812, 0.0715540274977684, -0.011128670535981655, 